
\data\
ngram 1=74
ngram 2=2117
ngram 3=11104
ngram 4=23058
ngram 5=27009
ngram 6=23840
ngram 7=18262
ngram 8=12826
ngram 9=8518

\1-grams:
-0.9141933	</s>
-99	<s>	-99
-2.22164	a	-99
-1.841453	a1	-99
-2.556258	a2	-99
-1.735792	b	-99
-1.247987	d	-99
-2.231447	d͡ʒ	-99
-2.188826	e	-99
-1.992507	e1	-99
-2.726673	e2	-99
-1.764666	f	-99
-2.004459	g	-99
-2.223702	h	-99
-2.232349	i1ː	-99
-2.507086	i2ː	-99
-2.930417	iː	-99
-2.272059	j	-99
-1.431558	k	-99
-1.382757	l	-99
-1.665485	m	-99
-1.301057	n	-99
-2.452795	o	-99
-2.2089	o1	-99
-2.581755	o2	-99
-1.516659	p	-99
-1.332016	s	-99
-1.1699	t	-99
-2.337085	t͡ʃ	-99
-2.252065	u1ː	-99
-2.983074	u2ː	-99
-2.469628	uː	-99
-1.949619	v	-99
-2.010922	w	-99
-1.677404	z	-99
-2.550581	æ	-99
-1.877564	æ1	-99
-2.531576	æ2	-99
-5.391315	æ2ː	-99
-2.708267	ð	-99
-1.991295	ŋ	-99
-2.420503	ɑ	-99
-1.981889	ɑ1	-99
-2.387423	ɑ1ː	-99
-2.483366	ɑ2	-99
-3.023959	ɑ2ː	-99
-2.925932	ɑː	-99
-4.692345	ɒː	-99
-3.738102	ɔ	-99
-3.007499	ɔ1	-99
-2.257456	ɔ1ː	-99
-3.899953	ɔ2	-99
-2.819606	ɔ2ː	-99
-2.695833	ɔː	-99
-1.330352	ə	-99
-2.80025	ɛ	-99
-1.85111	ɛ1	-99
-2.434186	ɛ2	-99
-2.420968	ɜ1ː	-99
-3.143341	ɜ2ː	-99
-3.404543	ɜː	-99
-1.046942	ɪ	-99
-1.827596	ɪ1	-99
-2.292325	ɪ2	-99
-1.342873	ɹ	-99
-2.122971	ʃ	-99
-1.617163	ʊ	-99
-2.817283	ʊ1	-99
-3.025826	ʊ2	-99
-3.005708	ʌ	-99
-1.956905	ʌ1	-99
-2.479092	ʌ2	-99
-3.395679	ʒ	-99
-2.651742	θ	-99

\2-grams:
-2.864337	<s> a	0
-2.532639	<s> a1	0
-2.464284	<s> a2	0
-1.15656	<s> b	-1.808056
-1.170696	<s> d	-2.318735
-1.920819	<s> d͡ʒ	-1.249438
-4	<s> e	0
-2.843653	<s> e1	0
-3.522879	<s> e2	0
-1.280669	<s> f	-2.543661
-1.521915	<s> g	-1.609743
-1.445713	<s> h	-1.22552
-2.985759	<s> i1ː	-0.7264102
-3.014723	<s> i2ː	-0.8592027
-3.69897	<s> iː	-0.6827413
-2.3837	<s> j	-0.4926794
-1.022276	<s> k	-2.700437
-1.43219	<s> l	-2.178028
-1.361178	<s> m	-2.706722
-1.766158	<s> n	-2.129191
-3.522879	<s> o	0
-2.728933	<s> o1	0
-2.173925	<s> o2	0
-1.072459	<s> p	-2.162667
-0.9289776	<s> s	-2.157789
-1.331614	<s> t	-2.275571
-1.980192	<s> t͡ʃ	-1.828307
-3.875061	<s> u1ː	-0.5666145
-1.933053	<s> v	-1.364349
-1.524329	<s> w	-1.853922
-2.90892	<s> z	-1.073352
-2.664208	<s> æ	-1.099285
-2.154902	<s> æ1	-0.4159244
-2.481486	<s> æ2	-0.6673757
-3.632023	<s> ð	-0.2403265
-3.330993	<s> ɑ	-0.6157007
-2.485895	<s> ɑ1	-0.8327078
-2.778151	<s> ɑ1ː	-1.111919
-2.971971	<s> ɑ2	-0.7161269
-3.30103	<s> ɑ2ː	-0.3710282
-3.632023	<s> ɑː	-0.7526273
-3.632023	<s> ɔ1	0
-2.625863	<s> ɔ1ː	-0.7023776
-4.477121	<s> ɔ2
-3.154902	<s> ɔ2ː	-0.8508809
-3.045758	<s> ɔː	-0.7645131
-1.610834	<s> ə	-1.722825
-2.886057	<s> ɛ	-0.7403626
-2.130768	<s> ɛ1	-1.046697
-2.568636	<s> ɛ2	-0.5195576
-3.176091	<s> ɜ1ː	-0.8815226
-4	<s> ɜ2ː	-0.4721861
-4.477121	<s> ɜː
-1.413413	<s> ɪ	-2.754454
-2.259637	<s> ɪ1	-1.767375
-2.154902	<s> ɪ2	-1.733775
-1.15656	<s> ɹ	-2.08202
-1.859073	<s> ʃ	-1.762583
-4.176091	<s> ʊ1
-2.651047	<s> ʌ	-1.488296
-2.761118	<s> ʌ1	-0.741991
-2.138665	<s> ʌ2	-2.013683
-4.477121	<s> ʒ
-2.234083	<s> θ	-1.254232
-0.03805577	a ɪ	-1.650869
-1.076253	a ʊ	-0.9760865
-0.3592494	a1 ɪ	-1.656801
-0.2497007	a1 ʊ	-1.970049
-0.2286747	a2 ɪ	-1.276866
-0.3878981	a2 ʊ	-1.496046
-1.673251	b </s>
-1.849343	b a	0
-1.3131	b a1	0
-1.863131	b a2	0
-3.655523	b b
-1.646922	b d	-1.350809
-2.354493	b d͡ʒ	-0.84273
-2.178401	b e	0
-1.763428	b e1	0
-2.70128	b e2	0
-2.877371	b f	-0.1757834
-3.178401	b h	-0.5833583
-2.022054	b i1ː	-0.7150528
-2.376769	b i2ː	-0.9304516
-2.40025	b iː	-1.019253
-1.899648	b j	-0.9750757
-2.810425	b k	-0.451602
-0.7939882	b l	-1.374769
-2.70128	b m	-0.9324773
-2.810425	b n	-0.8156134
-2.257583	b o	0
-1.91516	b o1	0
-2.576341	b o2	0
-3.178401	b p	-0.5952252
-1.774709	b s	-1.075096
-2.376769	b t	-0.5329524
-1.931247	b u1ː	-0.9661418
-2.752433	b u2ː	-0.8857851
-3.354493	b uː
-2.877371	b v	-0.7945145
-3.655523	b w
-1.974281	b z	-0.5583956
-2.09922	b æ	-0.9223955
-1.147667	b æ1	-1.75738
-1.939519	b æ2	-1.331405
-2.193125	b ɑ	-0.6984124
-1.706133	b ɑ1	-0.8232659
-1.774709	b ɑ1ː	-0.5301347
-2.224159	b ɑ2	-0.7435233
-2.877371	b ɑ2ː	-0.5926389
-2.752433	b ɑː	-0.3821898
-2.61413	b ɔ	0
-2.61413	b ɔ1	0
-1.947952	b ɔ1ː	-0.962878
-2.541579	b ɔ2	0
-2.3131	b ɔ2ː	-0.9171238
-2.09922	b ɔː	-1.456317
-1.269916	b ə	-1.337271
-2.40025	b ɛ	-0.5215404
-1.548313	b ɛ1	-1.320122
-2.01207	b ɛ2	-1.138564
-1.780461	b ɜ1ː	-0.970107
-2.208364	b ɜ2ː	-0.7306638
-2.479431	b ɜː	-0.7012029
-1.088496	b ɪ	-1.267783
-1.509395	b ɪ1	-1.575403
-2.425074	b ɪ2	-0.6893673
-0.9626757	b ɹ	-1.442364
-2.541579	b ʊ	-1.092378
-2.075739	b ʊ1	-0.7766043
-2.810425	b ʊ2	-0.5982999
-2.752433	b ʌ	-0.5667017
-1.49117	b ʌ1	-1.291045
-1.835979	b ʌ2	-1.071675
-3.655523	b ʒ
-0.3316181	d </s>
-2.134727	d a	0
-1.333095	d a1	0
-2.480569	d a2	0
-2.357997	d b	-0.7026788
-2.134727	d d	-1.025779
-4.143327	d d͡ʒ
-2.402964	d e	0
-2.292069	d e1	0
-3.444357	d e2	0
-2.016222	d f	-1.457425
-3.189085	d g	-0.3422687
-2.728354	d h	-0.414021
-2.552263	d i1ː	-0.3607877
-1.997199	d i2ː	-1.432159
-2.711963	d iː	-0.7048656
-2.039523	d j	-0.9791811
-2.638177	d k	-0.70484
-1.660454	d l	-1.012812
-2.651965	d m	-0.8972573
-2.193937	d n	-0.643464
-2.462086	d o	0
-2.317252	d o1	0
-2.745387	d o2	0
-2.728354	d p	-0.4332069
-2.728354	d s	-0.4657258
-1.961484	d t	-1.464492
-4.143327	d t͡ʃ
-2.800905	d u1ː	-0.6893676
-3.240237	d u2ː	-0.1076339
-3.365176	d uː	-0.2384818
-2.490115	d v	-1.136313
-2.009788	d w	-1.211029
-1.711963	d z	-0.5236336
-2.480569	d æ	-0.7524642
-2.298229	d æ1	-1.189585
-2.888055	d æ2	-0.7101034
-1.888055	d ɑ	-1.644801
-1.777839	d ɑ1	-1.7371
-2.781599	d ɑ1ː	-0.822475
-2.967236	d ɑ2	-0.8238012
-3.101934	d ɑ2ː	-0.9504986
-3.240237	d ɑː	-0.4984049
-4.143327	d ɔ
-2.541267	d ɔ1ː	-0.8318136
-3.842297	d ɔ2ː
-3.189085	d ɔː	-0.6774303
-1.286598	d ə	-0.8455811
-3.064146	d ɛ	-0.8305392
-1.907799	d ɛ1	-1.033782
-2.728354	d ɛ2	-0.3843347
-3.101934	d ɜ1ː	-0.6333386
-3.842297	d ɜ2ː	-0.4544573
-3.842297	d ɜː
-0.916212	d ɪ	-1.694306
-1.759512	d ɪ1	-1.354125
-1.781599	d ɪ2	-1.320911
-1.539101	d ɹ	-1.863708
-3.444357	d ʃ	-0.2161932
-4.143327	d ʊ
-4.143327	d ʊ1
-2.939207	d ʌ	-0.7402002
-1.649173	d ʌ1	-1.408049
-2.587025	d ʌ2	-1.171854
-2.888055	d θ	-1.030248
-0.89505	d͡ʒ </s>
-2.080687	d͡ʒ a	-0.03769064
-2.159868	d͡ʒ a1	0
-2.858838	d͡ʒ a2	-0.08922321
-2.858838	d͡ʒ b
-0.8566718	d͡ʒ d	-1.388653
-3.159868	d͡ʒ e
-1.983777	d͡ʒ e1	0
-3.159868	d͡ʒ e2
-2.557808	d͡ʒ f	-0.2698779
-3.159868	d͡ʒ g
-2.682747	d͡ʒ h	-0.4738615
-1.858838	d͡ʒ i1ː	-0.7714742
-2.858838	d͡ʒ i2ː	-0.4568099
-2.858838	d͡ʒ iː	-0.4193439
-2.557808	d͡ʒ j	-0.6381401
-3.159868	d͡ʒ k
-3.159868	d͡ʒ l
-2.256778	d͡ʒ m	-0.8759912
-3.159868	d͡ʒ n
-2.858838	d͡ʒ o	0
-2.205625	d͡ʒ o1	0
-3.159868	d͡ʒ o2
-2.858838	d͡ʒ p
-2.682747	d͡ʒ s	-0.4464349
-3.159868	d͡ʒ t͡ʃ
-1.69747	d͡ʒ u1ː	-0.8088701
-2.682747	d͡ʒ u2ː	-0.4598164
-2.460898	d͡ʒ uː	-0.1999828
-2.682747	d͡ʒ w	-0.4101745
-2.381716	d͡ʒ æ	-0.7722624
-1.761928	d͡ʒ æ1	-1.125497
-1.955748	d͡ʒ æ2	-1.126585
-2.381716	d͡ʒ ɑ	-0.572387
-1.628389	d͡ʒ ɑ1	-0.8422123
-2.682747	d͡ʒ ɑ1ː
-2.080687	d͡ʒ ɑ2	-1.030971
-3.159868	d͡ʒ ɑ2ː
-3.159868	d͡ʒ ɑː
-3.159868	d͡ʒ ɔ
-1.547084	d͡ʒ ɔ1	0
-2.159868	d͡ʒ ɔ1ː	-0.355045
-2.557808	d͡ʒ ɔ2	0
-0.9612108	d͡ʒ ə	-1.441109
-2.256778	d͡ʒ ɛ	-0.748188
-1.118475	d͡ʒ ɛ1	-1.213837
-2.159868	d͡ʒ ɛ2	-0.4188401
-2.045924	d͡ʒ ɜ1ː	-1.00829
-2.557808	d͡ʒ ɜ2ː	-0.4368721
-2.682747	d͡ʒ ɜː	-0.444592
-0.7448945	d͡ʒ ɪ	-0.8766455
-1.403993	d͡ʒ ɪ1	-0.9648451
-2.080687	d͡ʒ ɪ2	-0.4425896
-2.682747	d͡ʒ ɹ
-3.159868	d͡ʒ ʃ
-1.858838	d͡ʒ ʊ	-1.17738
-2.01374	d͡ʒ ʊ1	-1.026942
-3.159868	d͡ʒ ʊ2
-2.557808	d͡ʒ ʌ	-0.2695321
-1.321019	d͡ʒ ʌ1	-1.468736
-2.460898	d͡ʒ ʌ2	-0.6268541
0	e ɪ	-1.743929
0	e1 ɪ	-1.903031
0	e2 ɪ	-1.160845
-0.9165309	f </s>
-1.2519	f a	-1.298496
-1.540288	f a1	0
-2.17949	f a2	0
-3.149527	f b
-3.024588	f d	-0.5893239
-3.626648	f d͡ʒ
-2.78155	f e	0
-1.757417	f e1	0
-2.371376	f e2	0
-3.024588	f g	-0.5993786
-2.585256	f h	-0.9903877
-1.855796	f i1ː	-0.9939039
-2.672406	f i2ː	-0.4024522
-2.48052	f iː	-0.7644114
-1.820468	f j	-0.8842045
-2.927678	f k	-0.6418145
-0.9831956	f l	-0.9200013
-3.325618	f m
-2.211675	f n	-1.118994
-2.149527	f o	0
-1.919078	f o1	0
-2.547467	f o2	0
-3.325618	f p
-1.894255	f s	-0.7260778
-1.225248	f t	-0.8592122
-2.547467	f u1ː	-0.6869552
-2.723558	f u2ː	-0.858462
-3.325618	f uː	-0.4552553
-3.626648	f v
-2.512705	f w	-1.079181
-2.626648	f æ	-0.7688611
-1.729021	f æ1	-1.396713
-2.48052	f æ2	-0.3910472
-2.672406	f ɑ	-0.7003611
-1.745835	f ɑ1	-1.595
-2.149527	f ɑ1ː	-1.277755
-2.149527	f ɑ2	-1.401042
-2.626648	f ɑ2ː	-0.7849324
-2.848497	f ɑː	-0.4619875
-3.626648	f ɔ
-3.024588	f ɔ1	0
-1.350186	f ɔ1ː	-0.8053616
-1.902372	f ɔ2ː	-0.9159951
-1.159781	f ɔː	-1.264228
-1.417133	f ə	-1.088239
-2.347895	f ɛ	-1.083888
-1.551101	f ɛ1	-0.7143199
-2.003399	f ɛ2	-0.8004577
-1.894255	f ɜ1ː	-0.993771
-3.149527	f ɜ2ː	-0.4278051
-3.626648	f ɜː
-1.312781	f ɪ	-1.108007
-1.433524	f ɪ1	-1.450406
-2.058447	f ɪ2	-1.256673
-1.033362	f ɹ	-1.414808
-3.325618	f ʃ
-1.902372	f ʊ	-1.552082
-2.195285	f ʊ1	-1.321833
-2.927678	f ʊ2	-0.6821762
-3.149527	f ʌ	-0.4513505
-1.945407	f ʌ1	-0.7646877
-2.396199	f ʌ2	-1.170096
-2.927678	f θ	-0.7189144
-1.437466	g </s>
-2.909734	g a	0.4741927
-1.743403	g a1	0
-2.784796	g a2	0
-2.909734	g b
-1.337638	g d	-1.168105
-1.452357	g e	0
-1.560781	g e1	0
-2.386856	g e2	0
-3.085825	g f
-3.386856	g g
-3.386856	g h
-2.784796	g i1ː	-0.6605787
-1.909734	g j	-1.282661
-3.386856	g k
-0.9587207	g l	-0.9446219
-1.955492	g m	-1.344888
-1.608704	g n	-1.695085
-2.025128	g o	0
-1.587515	g o1	0
-1.868342	g o2	0
-3.085825	g p
-2.909734	g s
-3.386856	g t
-2.345463	g u1ː	-0.9987059
-1.939698	g w	-0.6961755
-1.341533	g z	-0.8062109
-2.345463	g æ	-0.7085153
-1.489228	g æ1	-1.448334
-1.881706	g æ2	-1.358613
-2.784796	g ɑ	-0.02831891
-1.646493	g ɑ1	-1.107638
-1.818654	g ɑ1ː	-1.19372
-1.795791	g ɑ2	-1.32459
-2.210764	g ɑː	-0.5558065
-3.085825	g ɒː	-0.07918125
-1.868342	g ɔ1ː	-0.6010855
-3.386856	g ɔ2ː
-1.06052	g ə	-1.019212
-1.541757	g ɛ1	-1.447283
-1.39122	g ɛ2	-1.810028
-2.345463	g ɜ1ː	-0.6714741
-2.784796	g ɜ2ː	-0.5741948
-2.608704	g ɜː	-0.7104576
-1.743403	g ɪ	-0.5059059
-1.939698	g ɪ1	-1.19878
-1.868342	g ɪ2	-1.306391
-0.7317171	g ɹ	-1.524203
-3.386856	g ʃ
-3.386856	g ʊ
-2.483766	g ʊ1	-0.7456993
-3.386856	g ʊ2
-2.345463	g ʌ	-0.8810956
-1.654462	g ʌ1	-1.147404
-2.687886	g ʌ2	-0.03061244
-3.085825	g ʒ	-0.4682578
-1.636134	h a	0
-1.189889	h a1	0
-1.676251	h a2	0
-3.167613	h e
-1.534144	h e1	0
-2.565553	h e2	0
-1.504855	h i1ː	-0.6974737
-2.12622	h i2ː	-0.6937223
-2.690491	h iː
-1.845393	h j	-1.057587
-1.82519	h o	0
-1.341538	h o1	0
-1.599411	h o2	0
-1.720455	h u1ː	-0.4546568
-2.565553	h u2ː	-0.5362427
-1.82519	h æ	-0.8846065
-0.9634927	h æ1	-0.6541567
-1.275518	h æ2	-0.9408408
-2.12622	h ɑ	-0.3710678
-1.5144	h ɑ1	-1.026618
-1.341538	h ɑ1ː	-1.104353
-1.805885	h ɑ2	-1.134115
-1.91234	h ɑ2ː	-0.7772183
-2.468643	h ɑː	-0.206715
-2.565553	h ɔ1	0
-1.375221	h ɔ1ː	-0.894062
-1.991521	h ɔ2ː	-0.4866222
-2.167613	h ɔː	-0.6173301
-1.82519	h ə	-1.147597
-1.937164	h ɛ	-0.5220985
-1.021485	h ɛ1	-1.330199
-1.565553	h ɛ2	-0.9678397
-1.888859	h ɜ1ː	-1.082924
-3.167613	h ɜ2ː
-2.468643	h ɜː	-0.6098254
-2.264523	h ɪ	-0.5614017
-1.218223	h ɪ1	-1.321473
-1.736249	h ɪ2	-0.6747967
-1.937164	h ʊ	-1.184975
-2.053669	h ʊ1	-0.9615161
-2.565553	h ʊ2	-0.5403079
-2.21337	h ʌ	-0.7834801
-1.298381	h ʌ1	-1.258622
-1.888859	h ʌ2	-1.069144
-1.451395	i1ː </s>
-1.928516	i1ː b	-0.4797771
-0.918416	i1ː d	-0.9778931
-2.255875	i1ː d͡ʒ	-0.2507407
-1.743992	i1ː f	-0.6968101
-1.836746	i1ː g	-0.6970412
-2.681844	i1ː h	-0.470577
-3.158965	i1ː iː
-1.141932	i1ː k	-0.9481166
-1.06906	i1ː l	-1.183266
-1.313867	i1ː m	-1.144574
-0.9521394	i1ː n	-0.9310818
-2.857935	i1ː o2	0
-1.234686	i1ː p	-1.06218
-1.272475	i1ː s	-0.7723654
-0.9714445	i1ː t	-1.095877
-1.395537	i1ː t͡ʃ	-0.8379205
-1.058595	i1ː v	-1.338103
-2.255875	i1ː w	-0.2979441
-1.072605	i1ː z	-0.4870606
-2.079784	i1ː ð	-0.3072918
-2.681844	i1ː ɑ	-0.4691523
-2.158965	i1ː ə	-0.4252321
-3.158965	i1ː ɛ
-2.255875	i1ː ɪ	-0.5689325
-2.857935	i1ː ɹ
-2.012837	i1ː ʃ	-0.2860242
-3.158965	i1ː ʌ
-3.158965	i1ː θ
-2.583199	i2ː </s>
-2.583199	i2ː a1	-0.2274206
-2.039131	i2ː b	-0.5298212
-1.009168	i2ː d	-1.016976
-1.738101	i2ː d͡ʒ	-1.135149
-1.185259	i2ː f	-1.448716
-1.884229	i2ː g	-0.8366403
-1.708138	i2ː h	-1.044708
-2.185259	i2ː j	-0.6343272
-0.9599495	i2ː k	-1.078466
-1.221471	i2ː l	-0.9371243
-1.084888	i2ː m	-0.9399456
-1.340161	i2ː n	-0.5746471
-2.407108	i2ː o	0
-1.039131	i2ː p	-0.736235
-1.143866	i2ː s	-1.173964
-1.212131	i2ː t	-0.7412747
-1.981139	i2ː t͡ʃ	-0.1792738
-1.379079	i2ː v	-0.2333495
-2.039131	i2ː w	-0.3562433
-1.407107	i2ː z	-0.5996405
-2.282169	i2ː ð	-0.2711955
-2.884229	i2ː ɑ
-2.583199	i2ː ɑ1	-0.4391327
-2.185259	i2ː ɑ1ː	-0.7492321
-2.884229	i2ː ɔ1ː
-2.106077	i2ː ɔː	-0.8028288
-1.437071	i2ː ə	-1.105859
-2.583199	i2ː ɛ
-1.981139	i2ː ɛ1	-0.8315099
-1.628956	i2ː ɪ	-1.154855
-2.282169	i2ː ɪ1	-0.6856024
-1.65378	i2ː ɹ	-0.5264977
-2.106077	i2ː ʃ	-0.4674146
-2.282169	i2ː θ	-0.6737275
-1.080687	iː </s>
-1.506655	iː a1	-0.6407506
-2.460898	iː b
-1.029534	iː d	-1.031697
-2.460898	iː d͡ʒ
-1.983777	iː e1	0
-1.419505	iː f	-0.7217053
-2.460898	iː g
-1.506655	iː k	-0.4073941
-1.118475	iː l	-0.9083593
-1.159868	iː m	-0.8859993
-0.9837766	iː n	-0.9289412
-1.983777	iː o1	0
-1.460898	iː p	-0.9158405
-1.460898	iː s	-0.8700694
-0.9695361	iː t	-1.308965
-2.460898	iː t͡ʃ
-1.346954	iː v	-0.4023842
-0.9045953	iː z	-0.4077676
-1.506655	iː æ1	-0.8800004
-2.460898	iː ɑ1
-2.460898	iː ɔ1ː
-2.159868	iː ɔ2ː	-0.4050995
-1.983777	iː ɛ1	-0.4205043
-1.983777	iː ɪ
-2.159868	iː ɪ1	-0.4460299
-2.460898	iː ɪ2
-2.460898	iː ɹ
-2.460898	iː ʌ
-1.983777	iː ʒ	-0.4682578
-2.818226	j a1	-0.1178719
-3.119256	j e1
-2.642135	j i1ː
-2.818226	j o	0
-2.077863	j o1	0
-3.119256	j o2
-0.4650793	j u1ː	-1.033442
-1.466043	j u2ː	-0.6113957
-0.8591845	j uː	-0.03735483
-1.943165	j æ1	-1.006759
-2.274158	j ɑ1	-0.7933892
-3.119256	j ɑ1ː
-2.341105	j ɑː	-0.7294089
-3.119256	j ɒː
-2.119256	j ɔ1ː	-0.4068883
-3.119256	j ɔ2ː
-0.8837274	j ə	-1.427749
-1.943165	j ɛ1	-0.9579406
-2.818226	j ɛ2
-2.341105	j ɜ1ː	-0.7762095
-3.119256	j ɜː
-2.642135	j ɪ1	-0.4427049
-0.6523883	j ʊ	-1.134298
-1.244195	j ʊ1	-1.725084
-2.119256	j ʊ2	-1.002241
-1.12981	k </s>
-2.681003	k a	0
-1.763857	k a1	0
-2.428278	k a2	-1.302804
-2.415689	k b	-0.4350882
-2.637537	k d	-0.693805
-1.709337	k e	0
-1.739649	k e1	0
-2.278515	k e2	0
-2.415689	k f	-0.7683723
-3.482635	k g
-3.005514	k h	-0.3368582
-2.357697	k i1ː	-0.767377
-2.637537	k i2ː	-1.197658
-3.357697	k iː
-1.709337	k j	-1.245108
-3.056667	k k	-0.1998105
-1.18524	k l	-1.045625
-2.845813	k m	-0.4488112
-2.658727	k n	-0.5533919
-2.005514	k o	0
-2.108498	k o1	0
-2.441243	k o2	0
-2.658727	k p	-0.6157944
-1.032386	k s	-0.9974853
-0.9009512	k t	-1.071339
-2.287659	k t͡ʃ	-1.579289
-2.379973	k u1ː	-0.8384744
-2.880575	k u2ː	-0.4771213
-3.056667	k uː	-0.5571685
-3.482635	k v
-1.385725	k w	-0.9818076
-2.252187	k æ	-0.637689
-1.543116	k æ1	-1.208242
-2.153577	k æ2	-1.075163
-2.252187	k ɑ	-0.120574
-1.384569	k ɑ1	-0.5637007
-1.959757	k ɑ1ː	-1.078894
-1.914434	k ɑ2	-0.7284389
-2.368692	k ɑ2ː	-1.168191
-2.243753	k ɑː	-1.049961
-2.637537	k ɔ1	0
-1.819878	k ɔ1ː	-1.277863
-2.561817	k ɔ2ː	-0.4209919
-2.637537	k ɔː	-0.5857788
-0.9295619	k ə	-0.9519033
-3.658727	k ɛ
-2.326288	k ɛ1	-0.8063346
-2.755637	k ɛ2	-1.162062
-2.174427	k ɜ1ː	-1.072661
-3.260787	k ɜ2ː	-0.739693
-3.260787	k ɜː	-0.6778703
-1.465602	k ɪ	-1.120687
-1.964121	k ɪ1	-1.242821
-2.379973	k ɪ2	-1.304268
-1.12981	k ɹ	-2.081011
-2.030338	k ʃ	-1.255099
-2.880575	k ʊ1	-0.9316612
-3.482635	k ʊ2	-0.3184592
-2.528393	k ʌ	-0.9433847
-1.492889	k ʌ1	-1.241972
-1.972985	k ʌ2	-1.273207
-2.918364	k θ	-0.8163681
-0.9426046	l </s>
-1.486113	l a	0
-1.498013	l a1	0
-2.216166	l a2	0
-2.440356	l b	-0.2774177
-0.9333757	l d	-1.006305
-2.531436	l d͡ʒ	-0.7682716
-1.612358	l e	0
-1.479641	l e1	0
-2.094744	l e2	0
-2.139326	l f	-0.5129446
-2.86243	l g	-0.334749
-2.894614	l h	-0.1939971
-1.707528	l i1ː	-1.079916
-2.395774	l i2ː	-0.8578153
-2.686338	l iː	-0.6742348
-2.105468	l j	-0.4620491
-2.100073	l k	-0.5791562
-3.406498	l l
-2.195644	l m	-0.7178018
-2.86243	l n	-0.8179105
-1.829581	l o	0
-1.791074	l o1	0
-2.318362	l o2	0
-2.094744	l p	-0.4909445
-2.195644	l s	-0.5579249
-1.525684	l t	-0.7004272
-2.86243	l t͡ʃ	-0.8912388
-1.791074	l u1ː	-0.5368726
-2.686338	l u2ː	-0.3935066
-2.86243	l uː	-0.6349376
-2.151225	l v	-0.9588774
-2.610618	l w	-0.3288778
-1.446265	l z	-0.6103102
-2.268195	l æ	-0.585371
-1.48873	l æ1	-1.43096
-2.26037	l æ2	-0.5168384
-2.318362	l ɑ	-0.5925111
-1.668113	l ɑ1	-1.11143
-1.971131	l ɑ1ː	-1.332388
-2.3458	l ɑ2	-0.8851432
-2.517196	l ɑ2ː	-1.004819
-2.64683	l ɑː	-0.6547522
-4.008558	l ɔ
-2.464489	l ɔ1	0
-2.079139	l ɔ1ː	-0.7365038
-3.309587	l ɔ2ː	-0.1803396
-2.832466	l ɔː	-0.8404452
-1.277775	l ə	-1.025855
-2.440356	l ɛ	-0.6072258
-1.553713	l ɛ1	-1.247077
-2.122067	l ɛ2	-0.8587815
-2.406498	l ɜ1ː	-0.6631215
-4.008558	l ɜː
-0.8756578	l ɪ	-0.9760481
-1.427633	l ɪ1	-0.8951507
-2.176049	l ɪ2	-0.6925609
-2.729804	l ɹ	-0.4003289
-2.929376	l ʃ	-0.1023542
-3.16346	l ʊ	-0.8272779
-2.406498	l ʊ1	-1.315214
-2.327316	l ʊ2	-1.531534
-2.86243	l ʌ	-0.9780055
-1.628346	l ʌ1	-0.4661213
-2.327316	l ʌ2	-1.404503
-2.729804	l θ	-0.9985737
-1.064017	m </s>
-2.044589	m a	-0.6049886
-1.721509	m a1	0
-2.684437	m a2	0
-1.251614	m b	-1.134665
-1.261937	m d	-1.64976
-3.72583	m d͡ʒ
-1.933438	m e	0
-1.757347	m e1	0
-2.294466	m e2	0
-2.169528	m f	-0.4683118
-3.72583	m g
-2.947679	m h	-0.4565662
-2.035634	m i1ː	-1.080234
-2.771587	m i2ː	-0.8980289
-2.495381	m iː	-0.6484557
-1.650283	m j	-0.9475152
-2.611887	m k	-0.127725
-2.02686	m l	-0.7461728
-2.82274	m m	-0.4022244
-2.364102	m n	-1.313691
-2.4248	m o	0
-1.730195	m o1	0
-2.579702	m o2	0
-0.9383695	m p	-1.331935
-2.294466	m s	-0.6657043
-2.549739	m t	-0.4522977
-2.157628	m u1ː	-1.297263
-2.157628	m u2ː	-1.181151
-3.248709	m uː	-0.4601503
-3.12377	m v	-0.2817605
-2.880732	m w	-0.1760913
-1.527173	m z	-0.3101007
-2.134765	m æ	-0.4333783
-1.39745	m æ1	-0.981945
-2.113046	m æ2	-0.7721614
-2.611887	m ɑ	-0.1045528
-1.696446	m ɑ1	-1.353972
-1.71723	m ɑ1ː	-1.183686
-2.579702	m ɑ2	-0.4660662
-2.495381	m ɑ2ː	-0.8674144
-2.22068	m ɑː	-1.302218
-2.72583	m ɔ1	0
-2.02686	m ɔ1ː	-0.7591635
-3.12377	m ɔ2ː	-0.5300383
-3.72583	m ɔː
-0.92995	m ə	-1.156528
-2.134765	m ɛ	-1.168792
-1.429165	m ɛ1	-1.261613
-2.063072	m ɛ2	-0.8486445
-2.134765	m ɜ1ː	-0.9025084
-3.4248	m ɜ2ː
-1.169528	m ɪ	-0.8223783
-1.381438	m ɪ1	-1.299187
-1.513642	m ɪ2	-1.466345
-2.82274	m ɹ	-0.5704426
-3.02686	m ʃ	-0.696387
-3.248709	m ʌ	-0.437868
-1.564462	m ʌ1	-1.084053
-1.969955	m ʌ2	-1.050478
-2.771587	m θ	-0.7292179
-0.6905843	n </s>
-2.000353	n a	-1.017169
-2.064952	n a1	0
-3.312107	n a2	-0.3902532
-2.319406	n b	-0.5102584
-0.7541988	n d	-0.94373
-1.800223	n d͡ʒ	-0.5950539
-1.891601	n e	0
-2.103486	n e1	0
-3.24516	n e2	0
-1.784907	n f	-1.604531
-2.446805	n g	-0.76066
-2.297866	n h	-1.024453
-2.409017	n i1ː	-0.6566124
-3.391288	n i2ː	-0.646611
-2.94413	n iː	-0.3517482
-1.859809	n j	-1.003287
-1.87015	n k	-1.283192
-1.92889	n l	-0.7166302
-2.533956	n m	-0.6307312
-3.136016	n n	-0.4439585
-2.304928	n o	0
-2.239	n o1	0
-2.710047	n o2	0
-2.467009	n p	-0.6260609
-1.120842	n s	-0.7719512
-0.846724	n t	-1.096206
-1.941039	n t͡ʃ	-0.8719326
-2.62786	n u1ː	-0.6928283
-3.789228	n uː	-0.4601503
-1.963153	n v	-1.238078
-2.357864	n w	-0.620638
-1.343624	n z	-0.835986
-2.768039	n æ	-0.6810584
-2.077421	n æ1	-1.112929
-3.312107	n æ2	-0.7353165
-4.090258	n ð
-2.304928	n ɑ	-0.8042644
-2.060874	n ɑ1	-0.7974936
-2.789228	n ɑ1ː	-0.6743236
-2.558779	n ɑ2	-1.123218
-3.24516	n ɑ2ː	-0.7449138
-3.488198	n ɑː
-3.789228	n ɔ	0
-3.24516	n ɔ1	0
-2.6431	n ɔ1ː	-0.4429898
-3.391288	n ɔ2	0
-3.312107	n ɔ2ː	-0.4677053
-3.187168	n ɔː	-0.538022
-1.447793	n ə	-0.5452971
-3.090258	n ɛ	-0.5581545
-2.284078	n ɛ1	-0.747418
-3.136016	n ɛ2	-0.4411592
-2.811504	n ɜ1ː	-0.8730729
-4.090258	n ɜ2ː
-4.090258	n ɜː
-1.216937	n ɪ	-1.116282
-1.969684	n ɪ1	-1.375742
-2.658894	n ɪ2	-0.8587134
-2.349895	n ɹ	-0.8800051
-2.181773	n ʃ	-1.113385
-4.090258	n ʊ1
-3.24516	n ʌ	-0.5588763
-2.090258	n ʌ1	-1.342291
-2.94413	n ʌ2	-0.8592185
-3.789228	n ʒ
-2.382688	n θ	-0.7213254
0	o ʊ	-0.6456032
0	o1 ʊ	-1.021045
0	o2 ʊ	-0.8540103
-0.8356384	p </s>
-2.494445	p a	0
-1.704394	p a1	0
-2.383294	p a2	0
-2.833263	p b	-0.1714371
-2.476716	p d	-0.9963552
-3.874656	p d͡ʒ
-2.330588	p e	0
-1.821577	p e1	0
-2.318353	p e2	0
-2.494445	p f	-1.302934
-3.175686	p g	-0.1327537
-2.874656	p h	-0.3528709
-1.80647	p i1ː	-0.8926217
-2.494445	p i2ː	-0.3936096
-2.874656	p iː	-0.6446123
-1.853466	p j	-0.8931601
-3.029558	p k	-0.3512197
-1.061075	p l	-0.919802
-3.029558	p m	-0.3136899
-2.595902	p n	-1.230953
-2.306454	p o	0
-1.710303	p o1	0
-2.619383	p o2	0
-3.175686	p p
-1.57146	p s	-0.8193421
-1.105278	p t	-1.006925
-2.459682	p t͡ʃ	-1.322165
-2.494445	p u1ː	-0.7732917
-3.175686	p uː	-0.3852744
-3.874656	p v
-2.971566	p w	-0.5185523
-2.494445	p æ	-1.051361
-1.520547	p æ1	-1.624976
-2.283591	p æ2	-0.4820914
-3.874656	p æ2ː
-2.369506	p ɑ	-0.8855547
-1.670536	p ɑ1	-1.419613
-1.80647	p ɑ1ː	-1.063208
-1.544242	p ɑ2	-1.879335
-2.272596	p ɑ2ː	-0.9981321
-2.330588	p ɑː	-1.316731
-2.728528	p ɔ	0
-2.18446	p ɔ1	0
-1.833263	p ɔ1ː	-1.139259
-3.096504	p ɔ2	0
-2.369506	p ɔ2ː	-1.193513
-2.833263	p ɔː	-0.5418107
-1.170505	p ə	-1.123199
-2.369506	p ɛ	-1.050806
-1.498079	p ɛ1	-1.241207
-2.261872	p ɛ2	-0.554655
-1.837229	p ɜ1ː	-1.17429
-2.670536	p ɜ2ː	-0.7081952
-3.029558	p ɜː	-0.2504368
-1.48549	p ɪ	-0.7738233
-1.481959	p ɪ1	-1.159395
-2.103804	p ɪ2	-0.8705196
-0.900144	p ɹ	-1.908645
-2.644207	p ʃ	-0.7740151
-3.397534	p ʊ
-2.061742	p ʊ1	-1.264188
-1.813958	p ʊ2	-1.736396
-2.795475	p ʌ	-0.8302954
-1.71932	p ʌ1	-1.313103
-2.494445	p ʌ2	-0.7196275
-3.175686	p θ	-0.4739454
-0.7677075	s </s>
-2.129879	s a	0
-1.728885	s a1	0
-2.415846	s a2	0
-2.457238	s b	-0.575364
-2.679087	s d	-0.6661518
-3.2142	s d͡ʒ	-0.8687034
-2.780545	s e	0
-2.105056	s e1	0
-3.017906	s e2	0
-2.145484	s f	-1.05531
-2.51523	s g	-1.339708
-2.468234	s h	-0.5774844
-1.80162	s i1ː	-0.3774676
-2.855178	s i2ː	-0.5978822
-2.697571	s iː	-0.6411926
-2.758268	s j	-0.9391703
-1.166092	s k	-0.9973725
-1.429889	s l	-1.029576
-1.849783	s m	-1.459271
-1.627935	s n	-1.602064
-2.804026	s o	0
-2.20804	s o1	0
-2.697571	s o2	0
-1.230638	s p	-1.12792
-2.540784	s s	-0.498299
-0.6021737	s t	-0.5279648
-2.406086	s t͡ʃ	-0.8923452
-2.679087	s u1ː	-0.8424789
-2.644325	s u2ː	-1.359583
-3.457238	s uː	-0.5968275
-4.059299	s v
-1.69757	s w	-1.28776
-2.716876	s æ	-0.5391158
-1.903962	s æ1	-0.9890045
-2.415846	s æ2	-0.6626186
-2.661358	s ɑ	-0.6588529
-2.178485	s ɑ1	-1.057975
-3.017906	s ɑ1ː	-0.9859143
-2.804026	s ɑ2	-0.6283572
-3.281147	s ɑ2ː	-0.2101359
-3.281147	s ɑː	-0.7037035
-3.360328	s ɔ1	0
-2.150813	s ɔ1ː	-1.026265
-3.017906	s ɔ2ː	-0.8160367
-3.017906	s ɔː	-0.2424372
-1.409963	s ə	-1.010951
-2.351728	s ɛ	-0.8873575
-1.546081	s ɛ1	-1.176227
-2.029915	s ɛ2	-1.117579
-2.025875	s ɜ1ː	-1.628924
-2.737079	s ɜ2ː	-1.198253
-3.017906	s ɜː	-0.6674048
-1.142318	s ɪ	-1.132812
-1.652758	s ɪ1	-1.206437
-2.31111	s ɪ2	-0.5576839
-2.502996	s ɹ	-0.8610715
-3.360328	s ʃ	-0.3851098
-3.457238	s ʊ1	-0.5345338
-2.758268	s ʌ	-0.7817109
-1.877455	s ʌ1	-1.017725
-2.554148	s ʌ2	-0.7167794
-3.2142	s θ	-0.2244514
-0.5507973	t </s>
-2.200225	t a	0
-1.720355	t a1	0
-2.806441	t a2	0
-2.248286	t b	-0.8172922
-2.196108	t d	-1.189938
-3.744293	t d͡ʒ	-0.4427347
-2.121044	t e	0
-1.830479	t e1	0
-2.436085	t e2	0
-2.09108	t f	-1.271583
-3.267172	t g	-0.3347284
-2.774256	t h	-0.312522
-2.248286	t i1ː	-0.8435461
-3.017294	t i2ː	-0.8168209
-3.045323	t iː	-0.60914
-2.066078	t j	-0.9835871
-2.859686	t k	-0.5042333
-1.68866	t l	-1.015733
-2.522444	t m	-0.8861058
-2.02829	t n	-0.5078712
-2.334924	t o	0
-2.172196	t o1	0
-2.716264	t o2	0
-2.665112	t p	-0.3665819
-1.32932	t s	-0.9649142
-2.291995	t t	-1.050131
-3.522444	t t͡ʃ	-0.6729046
-2.32932	t u1ː	-0.6911147
-3.522444	t u2ː	-0.6543421
-1.522444	t uː	-2.144639
-3.376316	t v	-0.8241836
-2.072195	t w	-0.6817573
-2.286916	t æ	-0.7898302
-1.905444	t æ1	-0.8636721
-2.641631	t æ2	-0.6037065
-2.014588	t ɑ	-1.343226
-1.891001	t ɑ1	-1.165678
-2.457986	t ɑ1ː	-0.6497712
-2.522444	t ɑ2	-0.72552
-2.966142	t ɑ2ː	-1.05227
-2.966142	t ɑː	-0.591522
-3.920384	t ɔ	0
-3.142233	t ɔ1	0
-2.243691	t ɔ1ː	-1.06788
-2.966142	t ɔ2ː	-0.8552902
-2.859686	t ɔː	-0.6507734
-1.052622	t ə	-0.1290269
-2.878992	t ɛ	-0.3948106
-1.777369	t ɛ1	-0.9620129
-2.619354	t ɛ2	-0.9763588
-2.097563	t ɜ1ː	-0.9169322
-2.63035	t ɜ2ː	-1.338726
-3.619354	t ɜː	-0.2827412
-0.7366874	t ɪ	-1.431506
-1.710869	t ɪ1	-1.346107
-2.489021	t ɪ2	-0.9725239
-1.150269	t ɹ	-1.723924
-3.619354	t ʃ	-0.2910839
-2.899195	t ʊ1	-0.9587229
-2.806441	t ʊ2	-1.183147
-3.443263	t ʌ	-0.3270434
-1.765048	t ʌ1	-1.713922
-2.677346	t ʌ2	-0.8723951
-2.665112	t θ	-0.9470639
-0.9271251	t͡ʃ </s>
-2.099988	t͡ʃ a	0.0762527
-1.975049	t͡ʃ a1	0
-2.45217	t͡ʃ a2	-0.214162
-2.15114	t͡ʃ b	-0.2208107
-2.577109	t͡ʃ d	-0.4564686
-2.45217	t͡ʃ e	0
-1.474446	t͡ʃ e1	0
-2.276079	t͡ʃ e2	0
-2.276079	t͡ʃ f	-0.8139459
-2.7532	t͡ʃ g
-2.276079	t͡ʃ h	-0.4669653
-1.65629	t͡ʃ i1ː	-1.172988
-2.45217	t͡ʃ i2ː	-0.681619
-2.7532	t͡ʃ j	-0.4751367
-2.209132	t͡ʃ k	-0.9004615
-2.45217	t͡ʃ l	-0.2389738
-2.7532	t͡ʃ m	-0.4228344
-2.577109	t͡ʃ n	-0.5862893
-2.577109	t͡ʃ o	0
-2.099988	t͡ʃ o1	0
-2.099988	t͡ʃ o2	0
-2.209132	t͡ʃ p	-0.3586027
-2.7532	t͡ʃ s
-0.8212338	t͡ʃ t	-1.236546
-2.35526	t͡ʃ u1ː	-0.606216
-2.099988	t͡ʃ u2ː	-0.9039375
-2.7532	t͡ʃ uː
-2.276079	t͡ʃ w	-0.7050411
-2.05423	t͡ʃ æ	-0.9073771
-1.591832	t͡ʃ æ1	-0.9036138
-2.7532	t͡ʃ æ2
-3.05423	t͡ʃ ɑ
-1.878139	t͡ʃ ɑ1	-0.9030688
-1.254889	t͡ʃ ɑ1ː	-0.8423345
-2.7532	t͡ʃ ɑ2	-0.4307072
-3.05423	t͡ʃ ɑ2ː
-2.7532	t͡ʃ ɑː
-2.7532	t͡ʃ ɔ1	0
-2.012837	t͡ʃ ɔ1ː	-0.9161347
-2.45217	t͡ʃ ɔ2ː	-0.6470892
-0.823781	t͡ʃ ə	-1.355313
-2.276079	t͡ʃ ɛ	-0.2515446
-1.607072	t͡ʃ ɛ1	-0.9577199
-1.940287	t͡ʃ ɛ2	-1.105454
-1.975049	t͡ʃ ɜ1ː	-1.028957
-2.35526	t͡ʃ ɜ2ː	-0.5337821
-1.005012	t͡ʃ ɪ	-1.160877
-1.410777	t͡ʃ ɪ1	-0.8496037
-1.908102	t͡ʃ ɪ2	-0.6234797
-2.276079	t͡ʃ ɹ	-0.7357473
-1.372989	t͡ʃ ʊ	-1.303027
-1.711807	t͡ʃ ʌ1	-0.738602
-2.209132	t͡ʃ ʌ2	-0.7867479
-2.7532	t͡ʃ θ
-0.8863962	u1ː </s>
-1.620735	u1ː b	-0.5777999
-0.9433495	u1ː d	-0.9786059
-2.236159	u1ː d͡ʒ	-0.2914068
-1.777521	u1ː f	-0.5826523
-2.662128	u1ː g	-0.4375958
-3.139249	u1ː h
-2.662128	u1ː j	-0.4162914
-1.741309	u1ː k	-0.6899837
-1.275926	u1ː l	-0.8173714
-1.049344	u1ː m	-1.578522
-1.134928	u1ː n	-1.166997
-2.537189	u1ː o2	0
-1.19973	u1ː p	-1.086879
-1.113943	u1ː s	-1.196372
-0.8650914	u1ː t	-0.9776428
-2.139249	u1ː t͡ʃ	-0.7639958
-1.486037	u1ː v	-0.77381
-2.838219	u1ː w	-0.4101745
-1.105825	u1ː z	-0.3980911
-3.139249	u1ː æ
-2.440279	u1ː ð	-0.03711227
-2.440279	u1ː ɑ	-0.3708207
-2.662128	u1ː ɑː	-0.568041
-1.883977	u1ː ə	-0.5630311
-1.9088	u1ː ɪ	-0.4951369
-3.139249	u1ː ɪ2
-3.139249	u1ː ɹ
-1.796826	u1ː ʃ	-0.7833487
-1.860496	u1ː ʒ	-0.4102232
-2.294151	u1ː θ	-0.1954308
-1.931119	u2ː a1	-0.2428106
-1.80618	u2ː b	-0.5844022
-1.329059	u2ː d	-0.7366741
-2.40824	u2ː e
-1.453997	u2ː f	-0.6091957
-1.931119	u2ː g	-0.5979418
-1.70927	u2ː h	-0.769805
-2.40824	u2ː j
-1.80618	u2ː k	-0.5727429
-1.0103	u2ː l	-1.190855
-1.70927	u2ː m	-0.197414
-1.262112	u2ː n	-1.0244
-2.40824	u2ː o
-1.563142	u2ː o1	0
-0.8171753	u2ː p	-0.893801
-1.40824	u2ː s	-0.3592102
-0.8519375	u2ː t	-0.8702669
-2.40824	u2ː t͡ʃ
-0.90309	u2ː v	-0.5915998
-2.40824	u2ː w
-1.453997	u2ː z	-0.2959016
-2.40824	u2ː ð
-1.630089	u2ː ɑ1	-0.6747213
-1.40824	u2ː ə	-0.9887984
-2.40824	u2ː ɛ
-2.40824	u2ː ɪ
-1.630089	u2ː ɪ1	-0.7485436
-2.40824	u2ː ɹ
-1.50515	u2ː ʌ1	-0.7881773
-0.1620186	uː </s>
-2.444565	uː b
-1.308903	uː d	-1.008282
-2.319627	uː d͡ʒ	-0.2148805
-2.444565	uː e	0
-1.620656	uː f	-0.6504258
-2.921686	uː i1ː
-2.921686	uː k
-1.541475	uː l	-0.9298822
-1.620656	uː m	-0.6976343
-1.416536	uː n	-0.5758603
-1.921687	uː p	-0.429188
-2.076588	uː s	-0.3645535
-1.158258	uː t	-0.941918
-2.921686	uː v
-1.642933	uː z	-0.8306538
-2.921686	uː ð
-2.921686	uː ɑ1ː
-2.921686	uː ɑ2
-2.222717	uː ɛ1	-0.744452
-2.319627	uː ɪ	-0.6658425
-2.921686	uː ʃ
-2.444565	uː θ	-0.429514
-0.9365451	v </s>
-2.119476	v a	-0.2459666
-1.492305	v a1	0
-2.596597	v a2	-0.4572
-2.327752	v b	-0.5615399
-1.132065	v d	-1.31542
-3.140665	v d͡ʒ
-1.994537	v e	0
-1.678267	v e1	0
-3.441695	v e2
-2.596597	v f
-2.964574	v g	-0.5921463
-3.140665	v h
-1.873493	v i1ː	-0.8775837
-3.441695	v iː
-2.043755	v j	-0.6171405
-2.742725	v k	-0.2076591
-1.366148	v l	-1.193608
-2.742725	v m
-1.628782	v n	-0.5188329
-2.663544	v o	0
-1.828911	v o1	0
-2.487453	v o2	0
-3.441695	v p
-2.964574	v s
-2.400302	v t	-0.5510297
-3.441695	v t͡ʃ
-3.140665	v uː	-0.4552553
-2.839635	v w	-0.2995805
-1.642355	v z	-0.2890975
-2.538605	v æ	-0.6746107
-1.544068	v æ1	-1.411355
-2.441695	v æ2	-0.9169625
-3.140665	v ð	-0.3503767
-2.211246	v ɑ	-0.3459971
-1.798242	v ɑ1	-1.058803
-2.119476	v ɑ1ː	-0.696726
-2.742725	v ɑ2	-0.3638931
-3.441695	v ɑ2ː
-2.663544	v ɔ	0
-2.211246	v ɔ1	0
-2.162941	v ɔ1ː	-1.021113
-3.441695	v ɔ2
-3.441695	v ɔ2ː
-2.839635	v ɔː	-0.646941
-0.5568998	v ə	-1.213001
-3.140665	v ɛ
-1.362514	v ɛ1	-1.64788
-2.538605	v ɛ2	-0.1969913
-1.507197	v ɜ1ː	-1.623349
-2.663544	v ɜ2ː	-0.4023342
-2.211246	v ɜː	-1.088775
-1.103239	v ɪ	-0.6914589
-1.388617	v ɪ1	-1.457376
-2.487453	v ɪ2	-0.4669762
-2.663544	v ɹ	-0.2706226
-2.964574	v ʊ	-0.6016946
-3.441695	v ʌ
-2.162941	v ʌ1	-1.091154
-3.140665	v θ	-0.2520967
-2.234264	w a	0
-1.363359	w a1	0
-1.861878	w a2	-1.130616
-1.917994	w e	0
-0.8375667	w e1	0
-1.949028	w e2	0
-1.505331	w i1ː	-1.225298
-1.917994	w i2ː	-1.239035
-2.149943	w iː	-0.6560418
-3.380392	w o
-2.079362	w o1	0
-2.149943	w u1ː	-0.6483057
-2.42615	w æ	-0.9271644
-1.672822	w æ1	-1.094733
-2.778332	w æ2	-0.6861868
-2.018664	w ɑ	-1.334905
-1.162908	w ɑ1	-1.253662
-2.380392	w ɑ1ː	-0.6014138
-2.000181	w ɑ2	-1.261138
-3.380392	w ɑ2ː
-2.477302	w ɑː	-0.4030656
-3.079362	w ɔ	0
-3.380392	w ɔ1
-1.339	w ɔ1ː	-0.8728932
-1.493901	w ɔ2ː	-1.112777
-2.301211	w ɔː	-1.025917
-1.560848	w ə	-1.286147
-2.101639	w ɛ	-0.9887186
-1.085926	w ɛ1	-1.747699
-1.624517	w ɛ2	-1.344119
-1.574212	w ɜ1ː	-0.9113799
-1.875242	w ɜ2ː	-0.8939987
-2.149943	w ɜː	-1.036069
-0.845098	w ɪ	-1.421285
-0.9209996	w ɪ1	-0.8465667
-1.699151	w ɪ2	-0.6756731
-2.681422	w ʊ	-0.6993059
-2.000181	w ʊ1	-1.273047
-2.681422	w ʊ2	-0.7686892
-2.234264	w ʌ1	-1.120262
-2.380392	w ʌ2	-0.8501564
-0.1905541	z </s>
-3.41288	z a
-1.921519	z a1	0
-3.71391	z a2
-2.50979	z b	-0.4331662
-0.9603273	z d	-1.247078
-3.11185	z e	0
-2.282547	z e1	0
-3.41288	z e2	0
-2.435157	z f	-0.8163095
-3.236789	z h
-3.71391	z i1ː
-2.31597	z j	-0.2786842
-3.01494	z k	-0.1883831
-1.887836	z l	-0.8027189
-2.20876	z m	-0.8984656
-1.965722	z n	-0.7182503
-3.01494	z o	0
-2.483461	z o1	0
-3.41288	z o2	0
-2.868812	z p	-0.1457221
-3.11185	z s
-2.599967	z t	-0.4986417
-3.71391	z t͡ʃ
-3.41288	z u1ː	-0.4365158
-3.71391	z uː
-3.11185	z v	-0.5827906
-2.435157	z w	-0.3648053
-2.634729	z æ	-0.9160548
-2.195396	z æ1	-0.9110986
-3.236789	z æ2
-2.169842	z ɑ	-1.136738
-1.981517	z ɑ1	-1.493523
-3.41288	z ɑ1ː
-3.41288	z ɑ2	-0.2942673
-3.71391	z ɑː
-3.71391	z ɒː
-2.672518	z ɔ1ː	-0.9714476
-3.41288	z ɔː
-1.417245	z ə	-1.003562
-3.41288	z ɛ
-1.981517	z ɛ1	-0.6215378
-2.298937	z ɜ1ː	-1.295885
-1.256028	z ɪ	-1.08656
-1.935759	z ɪ1	-1.131938
-2.634729	z ɪ2	-0.8913492
-3.11185	z ɹ	-0.278958
-3.41288	z ʊ	-0.4593012
-3.71391	z ʌ
-1.894366	z ʌ1	-1.530915
-2.935759	z θ	-0.6200734
-1.995635	æ b	-0.5319981
-1.72679	æ d	-0.8383192
-2.363612	æ f
-1.636613	æ g	-1.126469
-0.8113495	æ k	-1.276992
-1.610284	æ l	-0.6071399
-1.116457	æ m	-1.542515
-0.6180168	æ n	-1.267697
-1.238673	æ p	-0.9456769
-1.498311	æ s	-1.062324
-0.6312182	æ t	-1.891741
-2.363612	æ t͡ʃ	-0.4319171
-2.363612	æ v	-0.6015885
-1.249669	æ z	-0.8404698
-1.409369	æ ŋ	-0.4989522
-2.238673	æ ɹ	-0.5278996
-2.062582	æ ʃ	-0.7400007
-2.840733	æ ʒ
-2.363612	æ θ
-1.40316	æ1 b	-1.218121
-1.509429	æ1 d	-1.453393
-1.900966	æ1 d͡ʒ	-1.368316
-1.933967	æ1 f	-1.010611
-1.383416	æ1 g	-1.051829
-0.8087422	æ1 k	-1.70762
-1.167397	æ1 l	-1.849144
-1.088868	æ1 m	-1.776238
-0.7902945	æ1 n	-1.063871
-1.246578	æ1 p	-1.417139
-1.420328	æ1 s	-1.088353
-1.10045	æ1 t	-1.142639
-1.56436	æ1 t͡ʃ	-0.9642732
-1.549962	æ1 v	-1.624869
-2.171327	æ1 z	-0.260632
-2.668652	æ1 ð	-0.7763455
-1.144534	æ1 ŋ	-0.9291909
-1.352382	æ1 ɹ	-2.042666
-1.389899	æ1 ʃ	-1.634383
-3.51375	æ1 ʒ
-2.81478	æ1 θ	-0.1898466
-1.905496	æ2 b	-0.396671
-1.279955	æ2 d	-0.6189527
-2.160769	æ2 d͡ʒ	-0.3117905
-1.905496	æ2 f	-0.5862315
-1.537519	æ2 g	-0.5277625
-0.8303548	æ2 k	-0.6872264
-1.152168	æ2 l	-0.6769076
-1.127345	æ2 m	-1.481799
-0.6529127	æ2 n	-1.125168
-1.268674	æ2 p	-1.107344
-1.655619	æ2 s	-0.9941028
-1.206526	æ2 t	-1.09388
-1.655619	æ2 t͡ʃ	-0.9601224
-1.956649	æ2 v	-0.2650795
-1.956649	æ2 z	-0.4032283
-2.257679	æ2 ð	-0.5722255
-1.152168	æ2 ŋ	-0.9022191
-1.152168	æ2 ɹ	-1.596571
-1.397341	æ2 ʃ	-0.3882909
-2.859739	æ2 ʒ
-2.859739	æ2 θ
0	æ2ː n
-0.2484781	ð </s>
-1.904896	ð a1	-0.4858486
-2.382017	ð a2	-0.2484465
-1.177897	ð d	-0.7314097
-2.205926	ð h	-0.4336866
-2.683047	ð i1ː
-2.382017	ð l	-0.4150651
-2.080987	ð n	-0.201998
-2.205926	ð s	-0.3522204
-1.641654	ð z	-0.5901706
-2.382017	ð æ
-2.683047	ð æ1
-0.5966872	ð ə	-0.9999098
-2.205926	ð ɛ1	-0.4482655
-2.683047	ð ɛ2
-1.506956	ð ɪ	-0.5052463
-2.683047	ð ɪ1
-2.683047	ð ʌ1
-0.3201152	ŋ </s>
-1.684016	ŋ a1	-1.365026
-2.922898	ŋ a2	-0.214162
-2.0778	ŋ b	-0.3766024
-1.59384	ŋ d	-0.5416207
-3.40002	ŋ d͡ʒ
-3.40002	ŋ e2
-2.019808	ŋ f	-0.6570599
-1.20412	ŋ g	-1.454793
-2.445777	ŋ h
-0.7726538	ŋ k	-0.8784617
-1.831818	ŋ l	-0.7905016
-2.49693	ŋ m	-0.5131189
-3.40002	ŋ n
-2.40002	ŋ o1	0
-2.621868	ŋ o2	0
-2.057597	ŋ p	-0.6106254
-1.968656	ŋ s	-0.7698896
-1.908658	ŋ t	-0.792196
-3.40002	ŋ t͡ʃ
-2.0778	ŋ w	-0.8845791
-1.507925	ŋ z	-0.5981399
-2.554922	ŋ æ	-0.4284293
-3.40002	ŋ ð
-1.937622	ŋ ɑ	-1.055068
-1.881506	ŋ ɑ1	-1.361102
-2.621868	ŋ ɑ2	-0.5952973
-3.40002	ŋ ɑ2ː
-3.40002	ŋ ɑː
-3.09899	ŋ ɔ1ː
-3.40002	ŋ ɔ2ː
-1.554922	ŋ ə	-0.9803813
-1.868541	ŋ ɪ	-0.8513016
-2.00208	ŋ ɪ1	-1.318419
-2.358627	ŋ ɪ2	-0.9197108
-2.223928	ŋ ɹ	-0.3440793
-2.79796	ŋ ʃ	-0.5590254
-1.621868	ŋ ʌ1	-1.619264
-3.40002	ŋ ʌ2
-2.358627	ŋ θ	-0.7250661
-2.368752	ɑ b	-0.291715
-1.970812	ɑ d	-0.6774652
-2.970812	ɑ d͡ʒ
-1.414509	ɑ f	-1.480002
-1.49369	ɑ g	-0.9280644
-1.113479	ɑ k	-1.310456
-2.19266	ɑ l	-0.4244918
-0.9496223	ɑ m	-1.569748
-0.3313251	ɑ n	-1.753552
-1.572872	ɑ p	-0.9712172
-1.740363	ɑ s	-0.897801
-1.452298	ɑ t	-1.205211
-2.669782	ɑ t͡ʃ
-0.8469599	ɑ v	-1.109029
-2.970812	ɑ z
-2.125714	ɑ ŋ	-0.3657978
-2.271842	ɑ ɹ	-0.2184168
-1.929419	ɑ ʃ	-0.6527179
-2.970812	ɑ θ
-1.506336	ɑ1 b	-1.225291
-1.4182	ɑ1 d	-0.7053318
-1.853123	ɑ1 d͡ʒ	-1.213835
-0.7591183	ɑ1 f	-2.431558
-1.474927	ɑ1 g	-0.7525378
-1.076987	ɑ1 k	-1.375854
-1.006305	ɑ1 l	-2.120964
-1.248058	ɑ1 m	-1.442147
-0.8228385	ɑ1 n	-1.0038
-1.233335	ɑ1 p	-0.9133712
-1.17643	ɑ1 s	-1.185268
-1.137584	ɑ1 t	-1.230075
-1.947028	ɑ1 t͡ʃ	-0.8371125
-2.130672	ɑ1 v	-1.073118
-2.178977	ɑ1 z	-0.8866814
-2.807366	ɑ1 ð	-0.5722255
-1.368033	ɑ1 ŋ	-0.6431066
-3.409426	ɑ1 ə
-1.490348	ɑ1 ɹ	-1.790076
-1.796642	ɑ1 ʃ	-0.9921488
-2.455183	ɑ1 θ	-0.8669165
-1.8278	ɑ1ː </s>
-1.401831	ɑ1ː b	-0.8307659
-1.084813	ɑ1ː d	-0.9091839
-1.255703	ɑ1ː d͡ʒ	-0.7937952
-1.271497	ɑ1ː f	-0.940039
-1.661469	ɑ1ː g	-1.271957
-1.146559	ɑ1ː k	-1.509723
-1.661469	ɑ1ː l	-0.5854424
-1.190978	ɑ1ː m	-0.8787742
-0.8767864	ɑ1ː n	-0.9933753
-3.003891	ɑ1ː o
-1.572527	ɑ1ː p	-0.4088393
-0.8052341	ɑ1ː s	-1.152196
-0.9104695	ɑ1ː t	-1.039177
-1.556733	ɑ1ː t͡ʃ	-0.9431565
-1.572527	ɑ1ː v	-1.079927
-2.702861	ɑ1ː w
-1.8278	ɑ1ː z	-0.6527926
-1.92471	ɑ1ː ð	-0.9339532
-2.52677	ɑ1ː ŋ	-0.5973668
-3.003891	ɑ1ː ə
-1.485377	ɑ1ː ɹ	-1.05259
-2.003891	ɑ1ː ʃ	-0.6883047
-2.304921	ɑ1ː θ	-0.2154737
-1.527737	ɑ2 b	-0.626283
-1.527737	ɑ2 d	-0.6538572
-2.606919	ɑ2 d͡ʒ
-1.565526	ɑ2 f	-0.631965
-2.129797	ɑ2 g	-0.749421
-0.9836692	ɑ2 k	-0.9708176
-1.122619	ɑ2 l	-1.318539
-1.217752	ɑ2 m	-1.19609
-0.4639037	ɑ2 n	-0.9294876
-0.9941347	ɑ2 p	-1.175641
-1.254736	ɑ2 s	-1.190721
-0.9394656	ɑ2 t	-1.671194
-2.129797	ɑ2 t͡ʃ	-0.6533402
-2.606919	ɑ2 z
-1.907948	ɑ2 ŋ	-0.1867926
-1.866556	ɑ2 ɹ	-0.9687084
-1.907948	ɑ2 ʃ	-0.475949
-1.765296	ɑ2ː b	-0.5780827
-1.253413	ɑ2ː d	-0.2105232
-1.522258	ɑ2ː d͡ʒ	-0.09583875
-0.7239032	ɑ2ː f	-0.7449262
-1.045137	ɑ2ː k	-0.7674673
-1.765296	ɑ2ː l	-0.2471972
-1.136907	ɑ2ː m	-1.132497
-1.325963	ɑ2ː n	-0.8615455
-2.367356	ɑ2ː p
-0.4981242	ɑ2ː s	-0.7178051
-0.9523826	ɑ2ː t	-0.71059
-2.066326	ɑ2ː t͡ʃ	-0.4759698
-1.589205	ɑ2ː v	-0.1696032
-2.066326	ɑ2ː ɹ
-2.367356	ɑ2ː ʒ
-1.766413	ɑː </s>
-2.164353	ɑː b
-0.9740211	ɑː d	-0.7812444
-2.164353	ɑː d͡ʒ
-0.8633229	ɑː f	-1.198128
-2.465383	ɑː g
-2.465383	ɑː h
-2.465383	ɑː j
-0.9602329	ɑː k	-1.020337
-2.465383	ɑː l
-1.465383	ɑː m	-0.6454226
-1.12296	ɑː n	-0.7249697
-2.465383	ɑː p
-0.7578127	ɑː s	-1.111792
-0.9339039	ɑː t	-0.7327366
-1.863323	ɑː t͡ʃ	-0.574159
-2.164353	ɑː v
-1.465383	ɑː z	-0.5918279
-2.164353	ɑː ð
-1.863323	ɑː ŋ	-0.3193117
-2.465383	ɑː ɪ1
-1.21011	ɑː ɹ	-1.182329
-1.289292	ɑː ʒ	-1.10058
-2.164353	ɑː θ	-0.429514
-0.2218488	ɒː n	-0.4719753
-0.39794	ɒː ŋ	-0.1943729
0	ɔ ɪ	-1.341701
0	ɔ1 ɪ	-1.430377
-1.542794	ɔ1ː </s>
-1.718885	ɔ1ː b	-0.5417801
-0.9407336	ɔ1ː d	-1.05099
-1.855105	ɔ1ː d͡ʒ	-0.5571644
-1.832828	ɔ1ː f	-0.4491419
-1.811639	ɔ1ː g	-1.281493
-3.133858	ɔ1ː h
-1.209579	ɔ1ː k	-0.8726501
-0.8737867	ɔ1ː l	-0.8921759
-1.21478	ɔ1ː m	-0.8537072
-1.026648	ɔ1ː n	-0.7437956
-1.791435	ɔ1ː p	-0.4949126
-1.209579	ɔ1ː s	-0.8963897
-0.8014197	ɔ1ː t	-1.061023
-2.019915	ɔ1ː t͡ʃ	-0.3860493
-1.718885	ɔ1ː w	-1.333871
-1.510609	ɔ1ː z	-0.7849786
-2.832828	ɔ1ː ð
-2.531798	ɔ1ː ə	-0.5787634
-2.832828	ɔ1ː ɪ	-0.4439937
-0.9606718	ɔ1ː ɹ	-1.450397
-1.929738	ɔ1ː ʃ	-0.455276
-2.832828	ɔ1ː ʒ	-0.4637573
-1.735918	ɔ1ː θ	-1.02851
0	ɔ2 ɪ	-1.086508
-2.571709	ɔ2ː a1
-2.571709	ɔ2ː b
-0.815834	ɔ2ː d	-0.5017372
-1.969649	ɔ2ː d͡ʒ	-0.2359825
-2.270679	ɔ2ː f
-1.872739	ɔ2ː g	-0.7386258
-2.571709	ɔ2ː h
-0.9484596	ɔ2ː k	-0.79759
-0.815834	ɔ2ː l	-1.201781
-1.367589	ɔ2ː m	-0.6469838
-1.425581	ɔ2ː n	-0.4359002
-2.270679	ɔ2ː p
-1.530316	ɔ2ː s	-0.4162373
-0.6126674	ɔ2ː t	-0.9016328
-2.094588	ɔ2ː t͡ʃ	-0.5832598
-2.571709	ɔ2ː v
-2.571709	ɔ2ː w
-1.872739	ɔ2ː z	-0.3475421
-2.094588	ɔ2ː ɑ1	-0.51897
-2.094588	ɔ2ː ə	-0.5908585
-2.094588	ɔ2ː ɪ	-0.5689325
-2.270679	ɔ2ː ɪ1	-0.3805669
-1.04023	ɔ2ː ɹ	-1.244213
-1.793558	ɔ2ː ʃ	-0.698314
-1.668619	ɔ2ː θ	-0.06796268
-1.850384	ɔː </s>
-1.741239	ɔː b	-0.9239178
-1.032724	ɔː d	-0.751346
-2.394452	ɔː g
-1.353059	ɔː k	-1.16935
-0.9472936	ɔː l	-1.595572
-1.440209	ɔː m	-0.3249253
-1.581538	ɔː n	-0.3153205
-2.21836	ɔː p	-0.4702864
-1.491362	ɔː s	-0.8893493
-1.297542	ɔː t	-0.4049261
-2.394452	ɔː t͡ʃ
-1.996512	ɔː w	-0.7577842
-1.654089	ɔː z	-0.6296164
-0.2992823	ɔː ɹ	-1.777833
-2.093422	ɔː ʃ	-0.5921139
-1.792392	ɔː θ	-0.879521
-1.971057	ə </s>
-1.282088	ə b	-0.9925837
-1.059661	ə d	-0.8272352
-2.101921	ə d͡ʒ	-0.8548067
-1.943691	ə f	-0.6346779
-1.710714	ə g	-1.146662
-2.40775	ə h	-0.7555794
-4.060962	ə j
-1.637716	ə k	-0.5335268
-1.096231	ə l	-1.053083
-1.322975	ə m	-0.7859436
-0.8264448	ə n	-1.091692
-1.353392	ə p	-0.9116935
-1.280645	ə s	-1.029796
-1.270677	ə t	-0.6864431
-2.645989	ə t͡ʃ	-1.218679
-1.960592	ə v	-0.7348303
-1.594095	ə w	-1.3694
-1.256141	ə z	-0.8157321
-4.060962	ə ð
-4.060962	ə ɑ2
-4.060962	ə ɪ1
-4.060962	ə ɪ2
-0.5902577	ə ɹ	-1.57104
-2.370766	ə ʃ	-0.9862223
-2.856842	ə θ	-0.6033763
-2.591065	ɛ b
-1.034762	ɛ d	-1.151043
-2.113943	ɛ d͡ʒ	-0.5159105
-2.113943	ɛ f	-0.4504652
-1.290035	ɛ g	-1.246613
-0.7160034	ɛ k	-1.247608
-1.072551	ɛ l	-0.4351394
-1.745967	ɛ m	-0.270229
-0.613341	ɛ n	-0.706351
-1.636822	ɛ p	-0.6048908
-0.9678153	ɛ s	-0.5435752
-1.312311	ɛ t	-0.9675899
-2.591065	ɛ z
-2.591065	ɛ ŋ
-1.113943	ɛ ə	-0.954607
-1.511883	ɛ ɹ	-0.4275923
-2.113943	ɛ θ	-0.4618248
-2.178477	ɛ1 b	-0.5499051
-1.20979	ɛ1 d	-1.037488
-1.784329	ɛ1 d͡ʒ	-1.185398
-1.996136	ɛ1 f	-1.038651
-2.02169	ɛ1 g	-0.6475322
-0.9128385	ɛ1 k	-1.703838
-0.9998748	ɛ1 l	-1.878419
-1.307208	ɛ1 m	-1.598481
-0.6804658	ɛ1 n	-1.386271
-1.502778	ɛ1 p	-1.088186
-0.8690314	ɛ1 s	-1.435187
-1.126904	ɛ1 t	-1.054812
-2.217985	ɛ1 t͡ʃ	-0.6457812
-1.631719	ɛ1 v	-1.610429
-2.093046	ɛ1 z	-1.388962
-1.769352	ɛ1 ð	-1.651407
-2.938144	ɛ1 ŋ	-0.6970641
-1.191899	ɛ1 ə	-1.254657
-1.519015	ɛ1 ɹ	-1.901758
-1.807811	ɛ1 ʃ	-1.270229
-2.336084	ɛ1 ʒ	-1.073663
-2.426261	ɛ1 θ	-0.4526466
-2.656098	ɛ2 b
-1.241125	ɛ2 d	-0.1334195
-1.915735	ɛ2 d͡ʒ	-0.9123085
-1.5954	ɛ2 f	-0.7867465
-1.614706	ɛ2 g	-0.9371592
-1.048643	ɛ2 k	-1.134742
-0.9237044	ɛ2 l	-0.9388314
-1.480007	ɛ2 m	-0.8041134
-0.6715709	ɛ2 n	-1.248608
-1.1937	ɛ2 p	-1.101404
-1.241125	ɛ2 s	-0.7316678
-0.8499182	ɛ2 t	-1.205993
-2.054038	ɛ2 t͡ʃ	-0.5209579
-1.656098	ɛ2 v	-1.057166
-1.877947	ɛ2 z	-0.7562943
-2.656098	ɛ2 ð	-0.3503767
-1.087896	ɛ2 ə	-0.9487777
-1.811	ɛ2 ɹ	-1.035655
-2.178977	ɛ2 ʃ	-0.1542459
-2.054038	ɛ2 ʒ	-0.7463039
-2.656098	ɛ2 θ
-2.970347	ɜ1ː </s>
-1.478985	ɜ1ː b	-1.324862
-1.083856	ɜ1ː d	-0.7317223
-1.289106	ɜ1ː d͡ʒ	-1.328909
-1.507949	ɜ1ː f	-1.268398
-1.891166	ɜ1ː g	-0.9839165
-1.083856	ɜ1ː k	-0.6744785
-1.507949	ɜ1ː l	-0.9397745
-1.078252	ɜ1ː m	-1.021663
-0.9747117	ɜ1ː n	-0.6584128
-1.379282	ɜ1ː p	-1.23201
-0.9409631	ɜ1ː s	-1.338651
-0.8699763	ɜ1ː t	-1.043829
-1.438868	ɜ1ː t͡ʃ	-0.911818
-1.199495	ɜ1ː v	-0.7068273
-1.970347	ɜ1ː z	-0.5918279
-2.067257	ɜ1ː ð	-0.80395
-1.390563	ɜ1ː ɹ	-1.41489
-1.766227	ɜ1ː ʃ	-0.9724049
-1.766227	ɜ1ː θ	-0.3538494
-1.770852	ɜ2ː b	-0.4531439
-1.206581	ɜ2ː d	-0.1289157
-1.402875	ɜ2ː d͡ʒ	-0.7328944
-1.946943	ɜ2ː f	-0.4504652
-2.247973	ɜ2ː g
-0.7428233	ɜ2ː k	-1.298286
-1.469822	ɜ2ː l	-0.2471972
-1.402875	ɜ2ː m	-0.2858955
-0.4997852	ɜ2ː n	-1.193287
-1.469822	ɜ2ː p	-0.270665
-0.9692197	ɜ2ː s	-0.766984
-1.293731	ɜ2ː t	-0.5602299
-1.549003	ɜ2ː t͡ʃ	-0.1766446
-1.469822	ɜ2ː v	-0.2653638
-2.247973	ɜ2ː z
-1.946943	ɜ2ː ð	-0.4633911
-2.247973	ɜ2ː ɹ
-2.247973	ɜ2ː ʃ
-1.946943	ɜ2ː θ
-1.986772	ɜː </s>
-1.287802	ɜː b	-0.2142956
-0.9453791	ɜː d	-0.7528571
-1.986772	ɜː d͡ʒ
-1.50965	ɜː g
-0.9867718	ɜː k	-0.9206567
-0.8406437	ɜː l	-0.7151197
-1.141674	ɜː m	-0.2347121
-1.141674	ɜː n	-0.1440061
-1.384712	ɜː p	-0.6541967
-1.141674	ɜː s	-0.3672563
-0.6857417	ɜː t	-0.6754975
-1.384712	ɜː t͡ʃ	-0.6741239
-1.986772	ɜː v
-1.986772	ɜː z
-1.986772	ɜː ɹ
-1.136469	ɪ </s>
-3.742313	ɪ a	0
-3.065619	ɪ a1	-0.9195043
-4.043343	ɪ a2	-0.08922321
-1.937832	ɪ b	-0.7574837
-0.7977066	ɪ d	-1.336153
-1.87899	ɪ d͡ʒ	-0.8772241
-2.129529	ɪ e	0
-3.065619	ɪ e1	0
-1.642805	ɪ f	-0.7824897
-1.941252	ɪ g	-0.9235567
-2.48704	ɪ h	-0.8259873
-4.344373	ɪ i1ː
-4.344373	ɪ iː
-3.742313	ɪ j	-0.5997438
-1.280664	ɪ k	-0.83692
-1.447296	ɪ l	-1.087176
-1.51765	ɪ m	-1.02431
-1.040098	ɪ n	-0.5021919
-2.69116	ɪ o	0
-3.230429	ɪ o1	0
-1.664037	ɪ p	-0.8441014
-1.169441	ɪ s	-1.58547
-0.9098037	ɪ t	-1.282013
-3.043343	ɪ t͡ʃ	-0.5180607
-4.344373	ɪ uː
-1.599298	ɪ v	-0.4606433
-2.663131	ɪ w	-0.4664748
-1.070677	ɪ z	-0.6267297
-3.0891	ɪ æ	-1.065386
-2.78807	ɪ æ1	-1.007519
-1.876025	ɪ ð	-0.9156336
-1.134054	ɪ ŋ	-0.006593943
-3.168281	ɪ ɑ	-0.5698307
-2.812894	ɪ ɑ1	-1.137832
-3.867251	ɪ ɑ1ː	-0.6007668
-3.867251	ɪ ɑː	-0.4267118
-3.742313	ɪ ɔ1ː	-0.5517045
-1.540233	ɪ ə	-1.277201
-3.566221	ɪ ɛ	-0.6772793
-3.198245	ɪ ɛ1	-0.361036
-3.499274	ɪ ɛ2	-0.7081714
-2.096399	ɪ ɪ	-1.889449
-4.344373	ɪ ɪ1
-3.867251	ɪ ɪ2	-0.4425896
-2.446746	ɪ ɹ	-0.7570744
-1.659527	ɪ ʃ	-1.361806
-4.344373	ɪ ʌ
-3.113924	ɪ ʌ1	-1.064384
-3.499274	ɪ ʒ	-0.3745077
-2.982645	ɪ θ	-0.4834908
-1.555118	ɪ1 b	-1.812771
-1.503021	ɪ1 d	-0.9081537
-2.007416	ɪ1 d͡ʒ	-1.302769
-1.639439	ɪ1 f	-1.63349
-1.506814	ɪ1 g	-1.238544
-1.113469	ɪ1 k	-1.573397
-1.033519	ɪ1 l	-1.419635
-1.225262	ɪ1 m	-1.499682
-0.7003955	ɪ1 n	-1.528684
-3.262688	ɪ1 o	0
-1.291877	ɪ1 p	-1.286487
-1.169267	ɪ1 s	-1.820164
-1.160598	ɪ1 t	-0.9905922
-1.81553	ɪ1 t͡ʃ	-0.908802
-1.439867	ɪ1 v	-1.676473
-1.660628	ɪ1 z	-0.6770247
-2.522326	ɪ1 ð	-0.6136181
-1.200106	ɪ1 ŋ	-0.7386307
-1.118114	ɪ1 ə	-0.9544838
-2.058568	ɪ1 ɹ	-1.408041
-1.518395	ɪ1 ʃ	-1.089438
-2.449775	ɪ1 ʒ	-0.944383
-2.785567	ɪ1 θ	-0.808817
-2.320838	ɪ2 b	-0.4531439
-1.868541	ɪ2 d	-0.4885568
-2.40002	ɪ2 d͡ʒ	-0.5320973
-2.019808	ɪ2 f	-1.034483
-1.636592	ɪ2 g	-0.6036875
-1.206895	ɪ2 k	-0.9952955
-1.31366	ɪ2 l	-0.736767
-1.607628	ɪ2 m	-0.6825118
-0.5124024	ɪ2 n	-0.9707276
-1.358627	ɪ2 p	-0.8954153
-0.5884447	ɪ2 s	-2.105517
-1.286076	ɪ2 t	-0.8693832
-1.922898	ɪ2 t͡ʃ	-0.7971812
-1.554922	ɪ2 v	-0.8582479
-2.253892	ɪ2 z	-0.8023605
-1.235667	ɪ2 ŋ	-1.14725
-1.684016	ɪ2 ə	-0.7547218
-3.09899	ɪ2 ɛ
-2.057597	ɪ2 ɹ	-0.6644477
-1.868541	ɪ2 ʃ	-0.9258928
-2.79796	ɪ2 θ
-0.7987544	ɹ </s>
-1.758407	ɹ a	0
-1.304932	ɹ a1	0
-1.902314	ɹ a2	0
-1.595123	ɹ e	0
-1.396195	ɹ e1	0
-2.103959	ɹ e2	0
-1.571321	ɹ i1ː	-0.2958797
-1.461854	ɹ i2ː	-0.4805089
-2.108922	ɹ iː	-0.5578024
-1.800469	ɹ o	0
-1.636822	ɹ o1	0
-2.099052	ɹ o2	0
-1.529928	ɹ u1ː	-0.5887791
-2.25605	ɹ u2ː	-1.213455
-2.134628	ɹ uː	-0.676374
-4.048442	ɹ w
-1.983984	ɹ æ	-0.8293885
-1.330771	ɹ æ1	-1.45919
-2.039842	ɹ æ2	-0.7209587
-1.896153	ɹ ɑ	-0.7643065
-1.673693	ɹ ɑ1	-0.9520944
-2.103959	ɹ ɑ1ː	-0.9607456
-2.089401	ɹ ɑ2	-0.7412894
-3.203344	ɹ ɑ2ː	-0.5731605
-2.404989	ɹ ɑː	-0.8898771
-4.048442	ɹ ɒː
-3.446382	ɹ ɔ	0
-2.844322	ɹ ɔ1	0
-2.079959	ɹ ɔ1ː	-0.8838427
-4.048442	ɹ ɔ2
-2.292567	ɹ ɔ2ː	-0.7026799
-3.270291	ɹ ɔː	-0.7261223
-1.16992	ɹ ə	-0.01253796
-2.48024	ɹ ɛ	-0.5128532
-1.286514	ɹ ɛ1	-1.447782
-1.921337	ɹ ɛ2	-1.478555
-4.048442	ɹ ɜ1ː
-0.8041647	ɹ ɪ	-0.3959186
-1.356477	ɹ ɪ1	-0.9206419
-1.983984	ɹ ɪ2	-0.6497145
-2.468658	ɹ ʊ	-1.077551
-2.793169	ɹ ʊ1	-0.6473829
-3.747412	ɹ ʊ2	-0.4379691
-2.601284	ɹ ʌ	-0.9093003
-1.528614	ɹ ʌ1	-1.606556
-2.015018	ɹ ʌ2	-1.277493
-1.095158	ʃ </s>
-2.967314	ʃ a
-1.888133	ʃ a1	0
-2.967314	ʃ a2	-0.2484465
-2.314101	ʃ b	-0.4396468
-2.365254	ʃ d	-0.8855042
-2.013071	ʃ e	0
-1.906616	ʃ e1	0
-2.314101	ʃ e2	0
-2.490193	ʃ f	-0.2698779
-3.268344	ʃ h
-1.98959	ʃ i1ː	-0.757778
-2.569374	ʃ i2ː	-0.7578399
-2.967314	ʃ iː
-3.268344	ʃ j
-2.666284	ʃ k	-0.2985932
-1.615131	ʃ l	-0.7042183
-2.423246	ʃ m	-0.769867
-0.5424323	ʃ n	-1.233349
-2.791223	ʃ o	0
-1.888133	ʃ o1	0
-2.490193	ʃ o2	0
-2.666284	ʃ p	-0.6921352
-0.9895903	ʃ t	-1.389828
-1.98959	ʃ u1ː	-0.8358607
-2.365254	ʃ u2ː	-0.8884252
-2.122216	ʃ uː	-0.3407644
-2.365254	ʃ w	-0.5332097
-2.226951	ʃ æ	-0.8499943
-1.700142	ʃ æ1	-0.8262839
-2.490193	ʃ æ2	-0.4076679
-2.268344	ʃ ɑ	-0.7150196
-1.645095	ʃ ɑ1	-1.259072
-2.189163	ʃ ɑ1ː	-0.5657168
-2.189163	ʃ ɑ2	-0.7574446
-3.268344	ʃ ɑ2ː
-3.268344	ʃ ɑː
-1.645095	ʃ ɔ1ː	-1.391938
-2.268344	ʃ ɔ2ː	-0.8785403
-3.268344	ʃ ɔː
-1.174922	ʃ ə	-1.111279
-2.490193	ʃ ɛ	-0.7397549
-1.712041	ʃ ɛ1	-1.188701
-2.791223	ʃ ɛ2	-0.4401164
-2.365254	ʃ ɜ1ː	-0.1411845
-1.025306	ʃ ɪ	-1.168545
-1.53595	ʃ ɪ1	-1.250742
-2.666284	ʃ ɪ2	-0.2968607
-1.677279	ʃ ɹ	-1.480391
-3.268344	ʃ ʃ
-2.967314	ʃ ʊ
-2.268344	ʃ ʊ1	-0.9516611
-2.569374	ʃ ʊ2	-0.6113203
-2.967314	ʃ ʌ	-0.3679768
-1.65556	ʃ ʌ1	-1.231837
-2.037895	ʃ ʌ2	-1.222147
-3.268344	ʃ θ
-1.477487	ʊ </s>
-2.774152	ʊ a1	-0.6407506
-1.761315	ʊ b	-0.5553604
-1.263607	ʊ d	-0.5787387
-2.660208	ʊ d͡ʒ	-0.5652675
-2.092911	ʊ e	0
-3.172092	ʊ e1	0
-2.431729	ʊ f	-0.3627904
-1.974811	ʊ g	-0.6319386
-2.598061	ʊ h	-0.4757166
-3.774152	ʊ i1ː
-3.774152	ʊ iː
-1.395754	ʊ k	-1.24504
-0.9526383	ʊ l	-1.21907
-1.612784	ʊ m	-0.8288205
-0.7415331	ʊ n	-1.363633
-3.774152	ʊ o
-2.996001	ʊ o1	0
-3.297031	ʊ o2	0
-1.631137	ʊ p	-0.6469222
-1.481896	ʊ s	-0.6787353
-0.641572	ʊ t	-1.921469
-2.120939	ʊ t͡ʃ	-0.859054
-1.070001	ʊ v	-1.538342
-2.660208	ʊ w	-0.3760157
-1.307284	ʊ z	-0.3237599
-3.075182	ʊ æ	-0.6261344
-2.774152	ʊ æ1	-0.5614316
-2.431729	ʊ ð	-0.5401891
-3.473122	ʊ ŋ
-2.819909	ʊ ɑ	-0.5926694
-2.431729	ʊ ɑ1	-1.152057
-3.473122	ʊ ɑ2ː	-0.3862271
-3.297031	ʊ ɔ1ː	-0.4242502
-3.774152	ʊ ɔ2ː
-1.509334	ʊ ə	-1.190627
-3.774152	ʊ ɛ
-3.075182	ʊ ɛ1	-0.6652707
-3.075182	ʊ ɜ1ː	-0.7253099
-2.010724	ʊ ɪ	-0.8485249
-2.929054	ʊ ɪ1	-0.7485436
-3.774152	ʊ ɪ2
-2.326994	ʊ ɹ	-0.8432295
-2.083956	ʊ ʃ	-0.7979727
-3.473122	ʊ ʊ	-0.4769751
-3.774152	ʊ ʌ
-2.628024	ʊ ʌ1	-0.939789
-3.774152	ʊ ʌ2
-2.996001	ʊ ʒ	-0.6213652
-2.451933	ʊ θ	-0.3715221
-1.042552	ʊ1 d	-0.4354265
-2.574031	ʊ1 f
-1.875061	ʊ1 g	-0.7386258
-0.6875405	ʊ1 k	-0.7215705
-0.9719713	ʊ1 l	-0.7275199
-1.670941	ʊ1 m	-0.5477731
-2.574031	ʊ1 n
-2.574031	ʊ1 p
-1.971971	ʊ1 s	-0.5695809
-0.8416375	ʊ1 t	-0.5851374
-2.09691	ʊ1 t͡ʃ	-0.4065177
-2.273001	ʊ1 z	-0.4601786
-0.5366048	ʊ1 ə	-1.00755
-1.971971	ʊ1 ɪ	-0.5942472
-2.574031	ʊ1 ɹ
-1.08267	ʊ1 ʃ	-0.5434608
-1.365488	ʊ2 d	-0.5022261
-1.888367	ʊ2 g	-0.5625345
-0.5142297	ʊ2 k	-0.9678691
-0.7027302	ʊ2 l	-0.6574454
-1.666518	ʊ2 m	-0.7238644
-0.6330943	ʊ2 t	-1.314505
-1.064458	ʊ2 ə	-1.100735
-1.00376	ʊ2 ʃ	-0.5796727
-1.155157	ʌ b	-0.6086516
-2.385606	ʌ d
-1.385606	ʌ f	-0.9145563
-1.686636	ʌ g	-0.2214922
-1.686636	ʌ k	-0.6711184
-1.063387	ʌ l	-0.8218322
-1.155157	ʌ m	-1.104052
-0.4879792	ʌ n	-1.089537
-0.6532125	ʌ p	-0.8557792
-1.239478	ʌ s	-0.9854372
-2.385606	ʌ t
-1.783546	ʌ t͡ʃ	-0.2299751
-1.783546	ʌ v	-0.6455538
-1.540508	ʌ ŋ	-0.8228009
-1.783546	ʌ ʃ	-0.5590254
-1.425809	ʌ1 b	-1.200804
-1.621496	ʌ1 d	-0.5627929
-1.726839	ʌ1 d͡ʒ	-1.36367
-1.32382	ʌ1 f	-1.193211
-1.702015	ʌ1 g	-1.248899
-1.264148	ʌ1 k	-1.167273
-1.183989	ʌ1 l	-1.468634
-0.958738	ʌ1 m	-1.389726
-0.9919294	ʌ1 n	-1.362523
-0.4978955	ʌ1 p	-2.210359
-1.222222	ʌ1 s	-1.145553
-1.381331	ʌ1 t	-1.220565
-2.320466	ʌ1 t͡ʃ	-0.9146265
-1.678534	ʌ1 v	-1.043344
-2.155656	ʌ1 z	-0.6454696
-2.393017	ʌ1 ð	-0.9524367
-1.531319	ʌ1 ŋ	-1.061178
-1.726839	ʌ1 ɹ	-1.596571
-1.81116	ʌ1 ʃ	-0.5630779
-2.957288	ʌ1 θ	-0.5700579
-1.073373	ʌ2 b	-0.8504679
-1.95798	ʌ2 d	-0.9329126
-1.532011	ʌ2 f	-0.8065134
-1.550494	ʌ2 g	-0.5760628
-1.020127	ʌ2 k	-1.247783
-1.708102	ʌ2 l	-0.7977851
-0.8553172	ʌ2 m	-1.682872
-0.4483291	ʌ2 n	-1.127109
-1.870829	ʌ2 p	-0.3869104
-1.465064	ʌ2 s	-1.262718
-1.240124	ʌ2 t	-1.477013
-2.067124	ʌ2 t͡ʃ	-0.1719832
-1.798279	ʌ2 v	-0.8211592
-1.912222	ʌ2 z	-0.5172192
-2.067124	ʌ2 ð	-0.7763455
-1.278754	ʌ2 ŋ	-0.990845
-2.310162	ʌ2 ɹ	-0.5884972
-1.590003	ʌ2 ʃ	-0.9189794
-2.611192	ʌ2 θ	-0.4451191
-0.9956352	ʒ </s>
-1.217484	ʒ d	-0.5726428
-1.995635	ʒ e
-1.995635	ʒ j
-0.4904852	ʒ n	-0.5655869
-1.518514	ʒ w	-0.4756718
-1.518514	ʒ ɑː
-0.5185139	ʒ ə	-0.9546071
-1.995635	ʒ ɛ1
-1.995635	ʒ ɜ1ː
-1.296665	ʒ ɪ	-0.6604
-1.694605	ʒ ɪ1	-0.4427049
-1.694605	ʒ ʊ
-1.694605	ʒ ʊ1	-0.3279716
-0.9836975	θ </s>
-2.739572	θ a
-1.961421	θ a1	0
-2.739572	θ b
-2.262451	θ f
-2.438542	θ h
-1.894474	θ i1ː	-0.7437989
-2.040602	θ iː	-0.2173169
-2.040602	θ j	-0.2157002
-2.438542	θ k
-1.894474	θ l	-0.4820118
-2.137512	θ m	-0.2972578
-1.961421	θ n	-0.1758089
-2.040602	θ o	0
-2.137512	θ p	-0.2426156
-1.460819	θ s	-0.8964231
-1.836482	θ t	-0.1575647
-1.563481	θ w	-0.8049375
-1.625629	θ æ1	-1.066787
-1.593444	θ ɑ1	-0.7841718
-1.69818	θ ɔ1ː	-0.4895979
-2.137512	θ ɔ2ː	-0.4806003
-1.377844	θ ə	-0.8458254
-1.78533	θ ɛ1	-0.7412834
-2.262451	θ ɛ2	-0.5952967
-1.625629	θ ɜ1ː	-0.7170483
-2.040602	θ ɜ2ː	-0.1939836
-1.148508	θ ɪ	-0.9237816
-1.438542	θ ɪ1	-1.088915
-2.137512	θ ɪ2	-0.2750251
-0.3932194	θ ɹ	-1.468701
-1.660391	θ ʌ1	-0.9624174

\3-grams:
-0.2703612	<s> a ɪ	-0.8157497
-0.3340303	<s> a ʊ	-1.185332
-0.02085014	b a ɪ	-0.9485747
-1.329059	b a ʊ	-0.1898795
-0.03547231	d a ɪ	-0.757085
-1.10551	d a ʊ	-0.6670008
-0.03476211	d͡ʒ a ɪ	-0.7671064
-0.001836343	f a ɪ	-1.245615
-0.1249387	g a ɪ
-0.5772364	h a ɪ	-0.6428254
-0.1335389	h a ʊ	-0.9343354
-0.5006024	k a ɪ	-0.1523606
-0.1648102	k a ʊ	-0.2635597
-0.005248335	l a ɪ	-1.445014
-1.920384	l a ʊ	-0.486362
-0.00914338	m a ɪ	-0.7657884
-0.003516574	n a ɪ	-0.9907036
-0.1014576	p a ɪ	-0.5958412
-0.6812413	p a ʊ	-0.4909095
-0.01034083	s a ɪ	-0.543334
-1.628389	s a ʊ	-0.4700594
-0.01258913	t a ɪ	-0.9476348
-1.544068	t a ʊ
-0.04575749	t͡ʃ a ɪ	-0.6529986
-0.0211893	v a ɪ	-0.6839591
-0.146128	w a ɪ	-0.716632
-0.544068	w a ʊ	-0.2939681
-0.30103	ɪ a ɪ	-0.4523731
-0.30103	ɪ a ʊ	-0.3614232
-0.07519076	ɹ a ɪ	-0.6017391
-0.7986729	ɹ a ʊ	-1.20412
-0.1810547	<s> a1 ɪ	-1.38972
-0.4673614	<s> a1 ʊ	-0.5634596
-0.5163479	b a1 ɪ	-0.6162237
-0.1577312	b a1 ʊ	-0.713835
-1.102662	d a1 ɪ	-0.6138685
-0.03571555	d a1 ʊ	-1.001557
-0.154902	d͡ʒ a1 ɪ	-0.3490914
-0.5228788	d͡ʒ a1 ʊ	-0.4712065
-0.1620805	f a1 ɪ	-0.9572498
-0.5065762	f a1 ʊ	-0.7093755
-0.2284793	g a1 ɪ	-1.261389
-0.3881802	g a1 ʊ	-0.08059329
-0.1264652	h a1 ɪ	-0.7236046
-0.5975124	h a1 ʊ	-1.123413
-0.1760913	i2ː a1 ɪ	-0.4611506
-0.04575749	iː a1 ʊ	-0.9373832
-0.1760913	j a1 ʊ	-0.4716474
-0.9917797	k a1 ɪ	-0.3256855
-0.04668054	k a1 ʊ	-0.3023769
-0.1488172	l a1 ɪ	-0.8953933
-0.5374172	l a1 ʊ	-0.6597394
-0.1981414	m a1 ɪ	-1.418342
-0.4361196	m a1 ʊ	-0.4218561
-0.2771178	n a1 ɪ	-0.6868364
-0.3263358	n a1 ʊ	-0.8757569
-0.2781671	p a1 ɪ	-0.9567545
-0.3251637	p a1 ʊ	-0.7154508
-0.08986453	s a1 ɪ	-1.148005
-0.7283537	s a1 ʊ	-0.2819027
-0.5054241	t a1 ɪ	-0.7835082
-0.1626028	t a1 ʊ	-1.025068
-0.30103	t͡ʃ a1 ɪ	-0.2821446
-0.30103	t͡ʃ a1 ʊ	-0.497107
-0.1249387	u2ː a1 ʊ	-0.3210158
-0.1569983	v a1 ɪ	-0.6039459
-0.5180262	v a1 ʊ	-0.7721813
-0.01271196	w a1 ɪ	-0.7186055
-1.539912	w a1 ʊ	-0.2721301
-0.4306639	z a1 ɪ	-1.145287
-0.2013271	z a1 ʊ	-0.7702469
-0.06694679	ð a1 ʊ	-0.5640538
-0.008272526	ŋ a1 ʊ	-1.443232
-0.0234811	ɪ a1 ʊ	-0.9742283
-0.3268693	ɹ a1 ɪ	-0.568451
-0.2766421	ɹ a1 ʊ	-0.5980738
-0.4259687	ʃ a1 ɪ	-0.4077409
-0.20412	ʃ a1 ʊ	-0.8925183
-0.04575749	ʊ a1 ʊ	-0.7189558
-0.1760913	θ a1 ɪ	-0.2990655
-0.4771213	θ a1 ʊ	-0.4681075
-0.8667092	<s> a2 ɪ	-0.6452569
-0.06344722	<s> a2 ʊ	-1.634189
-0.7923917	b a2 ɪ	-0.09041172
-0.07638834	b a2 ʊ	-0.6112679
-0.03950854	d a2 ɪ	-0.985351
-1.060698	d a2 ʊ	-0.5305656
-0.1760913	d͡ʒ a2 ɪ	-0.4172826
-0.0854302	f a2 ɪ	-1.063864
-0.748188	f a2 ʊ	-0.6028348
-0.30103	g a2 ɪ	-0.4695304
-0.30103	g a2 ʊ	-0.474008
-0.04420366	h a2 ɪ	-0.5174703
-1.01424	h a2 ʊ	-0.3087168
-0.01296498	k a2 ʊ	-0.7277734
-0.07638834	l a2 ɪ	-0.4386805
-0.7923917	l a2 ʊ	-0.9921746
-0.3424227	m a2 ɪ	-0.6532125
-0.2632414	m a2 ʊ	-0.6766936
-0.07918125	n a2 ɪ	-0.6031337
-0.1296338	p a2 ɪ	-1.170029
-0.5882717	p a2 ʊ	-0.8675516
-0.06366908	s a2 ɪ	-0.9511257
-0.8653014	s a2 ʊ	-0.667453
-0.1139434	t a2 ɪ	-0.6708457
-0.6368221	t a2 ʊ	-0.8211859
-0.1249387	t͡ʃ a2 ɪ	-0.3812849
-0.06694679	v a2 ɪ	-0.6430616
-0.01336396	w a2 ɪ	-1.076485
-0.1760913	ð a2 ʊ	-0.157068
-0.1249387	ŋ a2 ɪ	-0.5422213
-0.1760913	ɪ a2 ɪ	-0.4539387
-0.1823402	ɹ a2 ɪ	-1.208665
-0.4648868	ɹ a2 ʊ	-0.7343996
-0.1760913	ʃ a2 ʊ	-0.474008
-2.417472	<s> b a	0.3748161
-1.54971	<s> b a1	0
-2.206618	<s> b a2	0
-1.63932	<s> b e1	0
-2.475464	<s> b e2	0
-1.8292	<s> b i1ː	-0.3350143
-2.116442	<s> b i2ː	0.0746336
-2.54241	<s> b iː	-0.6802878
-2.279169	<s> b j	-0.7906678
-0.8687752	<s> b l	-2.198779
-1.707778	<s> b o1	0
-2.320562	<s> b o2	0
-1.677109	<s> b u1ː	-0.2202066
-2.417472	<s> b u2ː	0
-2.621592	<s> b æ	-0.5835766
-1.127437	<s> b æ1	0.313303
-1.63932	<s> b æ2	0.03407991
-3.019532	<s> b ɑ	-0.3369426
-1.507648	<s> b ɑ1	-0.603886
-1.612991	<s> b ɑ1ː	-0.391028
-2.019532	<s> b ɑ2	-0.2676061
-2.718502	<s> b ɑ2ː	-0.30103
-2.320562	<s> b ɔ1	0
-1.789083	<s> b ɔ1ː	-0.4522976
-2.279169	<s> b ɔ2	0
-2.019532	<s> b ɔ2ː	0.03950846
-2.366319	<s> b ə	-0.5751023
-1.352079	<s> b ɛ1	-0.3396595
-1.707778	<s> b ɛ2	0.02996349
-1.564687	<s> b ɜ1ː	0.119186
-1.889198	<s> b ɜ2ː	-0.1602969
-2.475464	<s> b ɜː	-0.6232493
-1.103078	<s> b ɪ	-1.089791
-1.422935	<s> b ɪ1	-0.119476
-2.206618	<s> b ɪ2	-0.3606157
-0.7511877	<s> b ɹ	-1.728957
-1.802048	<s> b ʊ1	-0.33667
-2.475464	<s> b ʊ2	0
-1.24868	<s> b ʌ1	-0.3846489
-1.564687	<s> b ʌ2	-0.7220351
-0.7439371	d b a	0.2498775
-1.08636	d b a1	-0.62042
-0.9402318	d b l	-0.5410708
-1.4843	d b æ	-0.3832168
-0.5065762	d b æ1	-0.6938304
-1.4843	d b ɔː	-0.1760913
-1.4843	d b ɪ	-0.449171
-1.18327	d b ɹ	-0.281204
-1.308209	d b ʊ	-0.09017664
-0.9294189	i1ː b e	0
-0.9294189	i1ː b l
-0.9294189	i1ː b o	0
-0.7533277	i1ː b ɔː	-0.30103
-0.6283889	i1ː b ɹ	-0.581311
-0.146128	i2ː b ʌ1	-0.6452069
-1.066947	k b a	0.7269986
-1.243038	k b l	-0.4662331
-1.066947	k b æ
-0.69897	k b æ1	-0.6191968
-0.845098	k b ɔː	0.7781509
-1.066947	k b ɪ	-0.3872162
-1.066947	k b ɹ
-1.243038	k b ʊ	0.03476211
-1.09108	l b a	0.8519374
-0.7900504	l b o	0
-0.7231037	l b æ1	-0.6191968
-1.267172	l b ɑ2	-0.2762064
-1.267172	l b ə
-1.267172	l b ɪ	-0.4246427
-1.571126	m b a	0.3748161
-1.696065	m b a1	0
-1.775246	m b e1	0
-2.173186	m b i1ː
-1.696065	m b j	-0.3679768
-0.5151749	m b l	-1.321522
-1.997095	m b o	0
-1.775246	m b o1	0
-2.173186	m b u1ː	-0.4249432
-1.872156	m b æ	-0.4607309
-1.519974	m b æ1	-0.4258007
-2.173186	m b ɑ
-1.474216	m b ɑ1	-0.9482371
-1.395035	m b ɑ1ː	-0.85158
-0.6291182	m b ə	-0.3625814
-1.519974	m b ɛ1	-0.7925001
-1.872156	m b ɜ1ː	-0.6232493
-1.519974	m b ɪ	-0.5159385
-1.872156	m b ɪ1	-0.5597357
-1.094005	m b ɹ	-1.258976
-1.997095	m b ʊ	-0.4881167
-2.173186	m b ʌ	-0.2730013
-1.997095	m b ʌ1	-0.524067
-1.168792	n b a1	-0.08571213
-1.071882	n b e	0
-0.4486327	n b æ1	-0.9855084
-1.469822	n b ɑ
-1.293731	n b ɛ	-0.30103
-1.293731	n b ɛ1	-0.3959153
-1.168792	n b ɪ	-0.2253653
-1.469822	n b ɹ
-1.469822	n b ʊ1
-1.469822	n b ʌ1	-0.4398732
-0.5642715	p b ɪ	-0.5495814
-0.7403627	p b ɹ
-1	s b æ1	-0.5567505
-0.8239087	s b ɑ	-0.4966434
-1.124939	s b ɑ1ː	-0.4158516
-1.30103	s b ɔː	-0.1760913
-0.8239087	s b ɜ1ː	-0.6421347
-0.7569619	s b ɪ	-0.7641984
-1.124939	s b ɹ	-0.4691197
-1.30103	s b ʌ1	-0.4557832
-1.194977	t b a	0.4839606
-1.018885	t b a1	-0.8422688
-1.496007	t b æ
-0.3199154	t b æ1	-1.305843
-1.496007	t b ɔː	-0.1760913
-0.8269998	t b ɪ	-0.5628783
-1.672098	t b ɪ1	-0.4244149
-1.496007	t b ɹ
-0.60206	t͡ʃ b l	-0.4698929
-0.60206	t͡ʃ b æ	-0.3832168
-0.916454	u1ː b </s>
-1.041393	u1ː b d	-0.2326755
-1.217484	u1ː b z	0
-1.217484	u1ː b ɔː	-0.1995724
-0.916454	u1ː b ə	-0.5282076
-0.4771213	u1ː b ɪ	-0.5350641
-0.39794	u2ː b l
-0.39794	u2ː b æ1	-0.193228
-0.5118834	v b æ1	-0.3181668
-0.5118834	v b ɑ	-0.5587913
-0.8129134	v b ɪ
-0.50515	z b æ1	-0.494258
-0.4259687	z b ɪ	-0.2111249
-0.3679768	æ b s	-0.2495202
-0.544068	æ b z	0
-0.9344984	æ1 b </s>
-0.9064697	æ1 b d	-0.7858133
-1.633469	æ1 b j	-0.4896378
-0.7488618	æ1 b l	-1.093479
-1.50853	æ1 b n	-0.3309932
-1.332438	æ1 b s	-0.5505502
-1.80956	æ1 b æ	-0.3357921
-0.8095597	æ1 b ə	-0.3815495
-0.6481917	æ1 b ɪ	-0.6981454
-1.265492	æ1 b ɹ	-0.523319
-0.6532125	æ2 b ɑ	-0.4296966
-0.6532125	æ2 b ə
-0.6532125	æ2 b ɹ
-1.021189	ŋ b a	0.8519374
-0.845098	ŋ b æ	-0.4121805
-0.4191293	ŋ b æ1	-0.6703492
-0.30103	ɑ b </s>
-0.8239087	ɑ1 b </s>
-1.057992	ɑ1 b d	-0.5337055
-0.455932	ɑ1 b l	-1.170237
-1.60206	ɑ1 b n	-0.3309932
-1.124939	ɑ1 b s	-0.748596
-1.425969	ɑ1 b v	-0.359022
-1.30103	ɑ1 b z	-0.2218488
-1	ɑ1 b ə	-0.6330942
-1.057992	ɑ1 b ɪ	-0.3375089
-1.30103	ɑ1ː b a	0.8519374
-1.30103	ɑ1ː b j	-0.3646991
-1.30103	ɑ1ː b l	-0.4278316
-0.30103	ɑ1ː b ə	-0.850427
-0.60206	ɑ1ː b ɪ	-0.8723061
-0.90309	ɑ2 b d	-0.4555101
-0.60206	ɑ2 b l	-0.765319
-0.90309	ɑ2 b z	-0.4586379
-0.7781513	ɑ2 b ɑ1	-0.6738593
-0.7781513	ɑ2 b ɪ
-0.1249387	ɑ2ː b ə	-0.5366001
-0.5698753	ɔ1ː b </s>
-1.113943	ɔ1ː b d	-0.1077367
-0.7160034	ɔ1ː b l	-0.6164545
-0.9378521	ɔ1ː b z	-0.1249388
-1.113943	ɔ1ː b ɑ	-0.1286666
-1.113943	ɔ1ː b ɹ	-0.4563722
-0.5228788	ɔː b o1	0
-0.69897	ɔː b ɔ1ː
-0.69897	ɔː b ɛ1	-0.4079242
-0.69897	ɔː b ɹ	-0.4517273
-2.079905	ə b a	0.6300886
-0.6996932	ə b a1	0
-1.088678	ə b a2	-0.8978043
-1.933776	ə b d	-0.8587357
-1.875785	ə b d͡ʒ	-0.4471581
-1.933776	ə b e	0
-1.699693	ə b e1	0
-2.301753	ə b h	0
-2.176815	ə b i1ː	-0.2586261
-2.477844	ə b iː	-0.4288166
-1.933776	ə b j	-0.6523651
-0.6649311	ə b l	-1.390185
-1.875785	ə b m	0
-2.477844	ə b o	0
-2.079905	ə b o1	0
-2.301753	ə b p	0
-1.062871	ə b s	-0.9226435
-1.699693	ə b t	-0.4993976
-2.079905	ə b u1ː	-0.637452
-1.824632	ə b z	-0.8985422
-2.000723	ə b æ	-0.3357921
-1.548426	ə b æ1	-0.7424356
-2.301753	ə b ɑ	-0.2536054
-2.079905	ə b ɑ1	-0.6686581
-2.000723	ə b ɔ1ː	-0.60206
-2.079905	ə b ɔː	-0.4771213
-2.079905	ə b ɛ	-0.2566109
-1.875785	ə b ɛ1	-0.7656281
-2.176815	ə b ɜ1ː	-0.1968207
-2.176815	ə b ɪ	-0.2111249
-1.155625	ə b ɪ1	-0.8573327
-1.398663	ə b ɹ	-0.6205984
-2.176815	ə b ʌ1	-0.2506205
-1.933776	ə b ʌ2	-0.509854
-0.7596679	ɛ1 b </s>
-0.6627578	ɛ1 b l	-0.2010476
-0.8846066	ɛ1 b z	-0.1249388
-0.6627578	ɛ1 b ɪ	-0.3080349
-1.060698	ɛ1 b ɹ	-0.4691197
-0.7269987	ɜ1ː b </s>
-0.90309	ɜ1ː b d	-0.3295855
-0.90309	ɜ1ː b l	-0.5032042
-0.4637573	ɜ1ː b ə	-0.5826431
-0.7269987	ɜ1ː b ɪ	-0.8331661
-0.1760913	ɜ2ː b ə
-0.39794	ɜː b e1	0
-1.365147	ɪ b </s>
-1.70757	ɪ b a	0.5509074
-1.561442	ɪ b a1	-0.3287501
-1.10551	ɪ b d	-0.814532
-1.561442	ɪ b e1	0
-1.327359	ɪ b j	-0.5041965
-0.8044802	ɪ b l	-1.001788
-2.10551	ɪ b o	0
-1.929419	ɪ b z	0
-1.70757	ɪ b æ1	-0.4150768
-2.10551	ɪ b ɑ
-1.628389	ɪ b ɑ1ː	-0.5875337
-2.10551	ɪ b ɑ2	-0.4436975
-2.10551	ɪ b ɑː
-1.929419	ɪ b ɔ	0
-1.80448	ɪ b ɔː	-0.4214211
-0.8502377	ɪ b ə	-0.4613491
-1.929419	ɪ b ɛ	-0.4259687
-1.628389	ɪ b ɛ1	-0.7122319
-1.084321	ɪ b ɪ	-1.099585
-1.50345	ɪ b ɪ1	-0.1371732
-1.0086	ɪ b ɹ	-0.7973458
-1.929419	ɪ b ʊ1	-0.4536402
-1.929419	ɪ b ʌ	-0.39794
-1.452298	ɪ b ʌ1	-0.8730735
-0.9672075	ɪ1 b </s>
-1.054358	ɪ1 b d	-0.5434654
-0.8946568	ɪ1 b j	-0.8526512
-0.6863809	ɪ1 b l	-1.050262
-1.40654	ɪ1 b z	-0.1249388
-0.7075702	ɪ1 b ə	-0.8908556
-0.6468723	ɪ1 b ɪ	-1.159538
-0.1760913	ɪ2 b ə	-0.4312976
-0.3521825	ʃ b æ1	-0.4150768
-0.6532125	ʃ b æ2	-0.4249432
-1.234686	ʊ b </s>
-1.313867	ʊ b a	0.5509074
-1.711807	ʊ b a1	-0.31939
-1.313867	ʊ b d	-0.4087667
-0.8988939	ʊ b e	0
-1.711807	ʊ b e1	0
-1.410777	ʊ b i1ː
-1.711807	ʊ b i2ː	0.1995724
-1.410777	ʊ b iː	-0.5341598
-1.167739	ʊ b l	-0.4920934
-1.711807	ʊ b t	-0.312311
-1.313867	ʊ b æ1	-0.494258
-1.711807	ʊ b ɑ1
-1.711807	ʊ b ɑː
-1.410777	ʊ b ɔː	-0.4214211
-1.109747	ʊ b ə	-0.3303971
-1.535716	ʊ b ɛ1	-0.41961
-0.836746	ʊ b ɪ	-0.6716468
-1.535716	ʊ b ɹ
-0.9294189	ʌ b </s>
-0.9294189	ʌ b v	-0.2340832
-0.9294189	ʌ b z	0
-0.3853509	ʌ b ɔ1ː	-0.8289883
-0.9294189	ʌ1 b </s>
-1.10551	ʌ1 b d	-0.5646546
-1.40654	ʌ1 b d͡ʒ	-0.50515
-1.531479	ʌ1 b k	-0.359022
-0.5314789	ʌ1 b l	-0.8732653
-1.230449	ʌ1 b s	-0.5770683
-1.70757	ʌ1 b t
-1.230449	ʌ1 b z	-0.3679768
-0.8325089	ʌ1 b ə	-0.2271775
-0.9294189	ʌ1 b ɪ	-1.0227
-1.236789	ʌ2 b a1	-0.1826221
-0.6627578	ʌ2 b d	-1.055348
-1.139879	ʌ2 b d͡ʒ	-0.60206
-1.537819	ʌ2 b k	-0.3309932
-0.3617278	ʌ2 b l	-0.5329171
-1.537819	ʌ2 b z
-1.361728	ʌ2 b ə	-0.4607309
-1.537819	ʌ2 b ɪ	-0.4639779
-1.844027	<s> d a	-0.371611
-1.473916	<s> d a1	0
-1.683176	<s> d a2	0
-3.005395	<s> d e	0
-1.844027	<s> d e1	0
-2.607455	<s> d e2	0
-1.944697	<s> d i1ː	-0.8846067
-1.169704	<s> d i2ː	0.009405613
-2.027671	<s> d iː	-0.6924881
-1.984206	<s> d j	-0.6993091
-2.403335	<s> d o	0
-2.051152	<s> d o1	0
-2.461327	<s> d o2	0
-2.160297	<s> d u1ː	0.1962945
-2.403335	<s> d u2ː	0
-2.102305	<s> d w	-1.131279
-3.005395	<s> d æ
-1.528274	<s> d æ1	-0.5422916
-2.192482	<s> d æ2	-0.2846396
-2.829304	<s> d ɑ	-0.4698627
-1.48035	<s> d ɑ1	-1.180746
-2.051152	<s> d ɑ1ː	-0.6159958
-2.227244	<s> d ɑ2	-0.3869447
-1.891452	<s> d ɔ1ː	-0.4497355
-1.257207	<s> d ɛ1	-0.2908101
-1.944697	<s> d ɛ2	-0.08505717
-2.403335	<s> d ɜ1ː	-0.2596374
-3.005395	<s> d ɜ2ː	0
-0.5239524	<s> d ɪ	-1.961892
-1.277041	<s> d ɪ1	-0.1226887
-1.070897	<s> d ɪ2	-1.167531
-0.9015913	<s> d ɹ	-1.66984
-2.607455	<s> d ʌ	-0.03891805
-1.616229	<s> d ʌ1	-0.9243954
-1.774946	<s> d ʌ2	0.0241338
-0.2419852	b d </s>
-1.535716	b d a1	0.5006023
-1.711807	b d d	0.531479
-1.711807	b d f	-0.08241025
-1.711807	b d j	-0.2024202
-1.234686	b d t	-0.04346567
-1.410777	b d æ	-0.3195134
-1.313867	b d ɑ1	-0.4507533
-1.711807	b d ə	-0.4567455
-1.167739	b d ɪ	-0.811942
-1.711807	b d ɪ1	-0.294703
-1.109747	b d ʌ1	-0.3174205
-0.04481234	d d a1	-0.8658206
-1.70757	d d ɪ	-0.4753155
-0.1128644	d͡ʒ d </s>
-1.604226	d͡ʒ d a1	0.3245111
-1.604226	d͡ʒ d f	-0.3834403
-1.826075	d͡ʒ d o1	0
-1.826075	d͡ʒ d w	-0.04830474
-1.303196	d͡ʒ d ɑ	-0.4649554
-1.604226	d͡ʒ d ə	-0.7283537
-1.826075	d͡ʒ d ɪ	-0.5817708
-1.525045	d͡ʒ d ɪ1	-0.6626798
-1.701136	d͡ʒ d ɪ2	-0.5777915
-0.1249387	f d ɹ	-0.5855449
-0.1096988	g d </s>
-1.20412	g d a1	0.1995723
-1.748188	g d d	0.531479
-1.447158	g d ɑ1	-0.241967
-1.350248	g d ə	-0.5929166
-1.447158	g d ɪ1	-0.5165518
-0.4481575	i1ː d </s>
-1.638489	i1ː d f	-0.304259
-1.161368	i1ː d j	-1.036117
-1.337459	i1ː d l	-0.06563868
-1.763428	i1ː d o	0
-1.939519	i1ː d t
-1.462398	i1ː d w	-0.2009148
-1.240549	i1ː d z	-0.2534816
-1.638489	i1ː d ɑ	-0.02562273
-1.337459	i1ː d ə	-0.3881801
-0.5684514	i1ː d ɪ	-1.440618
-1.939519	i1ː d ɪ2	-0.3559427
-1.939519	i1ː d ɹ	-0.4594825
-1.574031	i2ː d a	0.628389
-1.39794	i2ː d l
-1.574031	i2ː d o1	0
-1.273001	i2ː d z
-1.39794	i2ː d ɑ1	-0.3538433
-1.176091	i2ː d ə	-0.731723
-1.029963	i2ː d ɛ1	-0.7768869
-0.3435823	i2ː d ɪ	-1.040409
-1.39794	i2ː d ɹ	-0.5601268
-1.029963	i2ː d ʌ1	-0.3227492
-0.30103	iː d </s>
-1.146128	iː d j	-0.2024202
-0.60206	iː d z	-0.0571869
-0.845098	iː d ɪ	-0.474021
-0.845098	k d a	-0.5665877
-0.2808266	k d a1	0.02348113
-0.845098	k d e1	0
-0.208304	l d </s>
-1.275841	l d a1	-0.7035177
-2.172092	l d b	-0.3849319
-1.871062	l d d	-0.2218487
-1.774152	l d f	-0.07701516
-2.598061	l d h
-2.774152	l d iː
-2.297031	l d j	-0.7985859
-2.774152	l d k
-2.376212	l d l	-0.1245814
-2.774152	l d o	0
-1.899091	l d o1	0
-2.774152	l d s	-0.3409015
-1.732759	l d t	0.01551223
-1.796428	l d w	-0.4239683
-1.819909	l d z	0.1870866
-2.230084	l d æ	-0.08543009
-2.033789	l d ɑ	-0.5027439
-1.628024	l d ɑ1	-1.005395
-2.774152	l d ɑ2	-0.4191293
-1.194368	l d ə	-1.156264
-1.421969	l d ɪ	-0.6154941
-2.120939	l d ɪ1	-0.8175818
-2.120939	l d ɪ2	-0.8788214
-2.120939	l d ɹ	-0.9275084
-1.495398	l d ʌ1	-1.098466
-2.297031	l d θ	0.4101745
-0.1437467	m d </s>
-1.141674	m d a1	-0.2397604
-1.764923	m d d	0.230449
-1.986772	m d f	-0.3543378
-2.162863	m d o1	0
-1.764923	m d w	-0.224396
-1.986772	m d ɑ	-0.02562273
-1.861833	m d ɑ1	-0.4507533
-1.384712	m d ə	-0.4419569
-1.685742	m d ɪ2	-0.7239195
-2.162863	m d ɹ
-1.233444	m d ʌ1	-0.7739551
-0.4040932	n d </s>
-2.080787	n d a	-0.1497623
-1.41178	n d a1	0
-2.057306	n d b	-0.09548378
-1.888901	n d d	-0.1375278
-2.557908	n d e	0
-2.733999	n d e1	0
-1.888901	n d f	-0.1651513
-2.294667	n d h	-0.5295093
-2.858938	n d i1ː	-0.4175356
-2.01384	n d j	-0.5372286
-2.294667	n d k	-0.5362427
-1.572631	n d l	-0.2912783
-2.858938	n d n
-2.189931	n d o	0
-2.432969	n d o1	0
-2.256878	n d p	-0.2925968
-2.858938	n d s
-1.654818	n d t	-0.04346573
-2.057306	n d w	0.1558153
-1.460998	n d z	-0.04575741
-2.490961	n d æ	-0.5247629
-1.791991	n d ɑ	-0.6086088
-1.830909	n d ɑ1	-0.8773015
-2.490961	n d ɔ1ː	-0.447158
-0.8503379	n d ə	0.3701878
-2.637089	n d ɛ	0.30103
-1.993637	n d ɛ1	-0.7601066
-0.867712	n d ɪ	-1.338143
-1.921086	n d ɪ1	-0.4897958
-2.381817	n d ɪ2	-0.8788214
-1.955848	n d ɹ	-0.5808059
-3.035029	n d ʃ
-3.035029	n d ʌ	-0.4191293
-1.572631	n d ʌ1	-0.6584393
-0.39794	p d a1	0.06126964
-1.09691	p d i2ː	-0.4645321
-1.09691	p d ɪ	-0.4589847
-0.4436975	p d ɹ	-0.5766164
-0.60206	s d a1	0.2575643
-0.7781513	s d e1	0
-0.90309	s d i1ː
-1.079181	s d ə
-0.6812412	s d ɪ	-0.7637563
-1.724276	t d a	-0.441649
-0.1222159	t d a1	-0.8058227
-1.122216	t d e1	0
-1.724276	t d u1ː	-0.3388186
-1.724276	t d ɑ1
-1.423246	t d ɪ1	-0.6183507
-1.724276	t d ɹ	-0.4716857
-0.1760913	t͡ʃ d a1
-0.3570506	u1ː d </s>
-0.9406272	u1ː d l	-0.5127615
-1.718778	u1ː d n	-0.3538061
-1.49693	u1ː d uː	-0.09691003
-1.49693	u1ː d w	-0.2009148
-1.49693	u1ː d z	0.009759843
-1.49693	u1ː d ə	-0.2021047
-0.5726504	u1ː d ɪ	-1.306225
-0.7781513	u2ː d a1	0.6255411
-0.7781513	u2ː d o1	0
-0.60206	u2ː d ɪ1	-0.4196418
-0.60206	u2ː d ʌ1	0.004196107
-0.08130494	uː d </s>
-1.135663	uː d z	0.1858511
-1.311754	uː d ɪ1	-0.43375
-0.1890562	v d </s>
-1.531479	v d a1	0.2575643
-1.832509	v d d	0.4065402
-2.0086	v d f	-0.08241025
-0.9874108	v d ɑ	-0.1261368
-1.531479	v d ɑ1	-0.5299346
-1.230449	v d ə	-0.5461311
-1.70757	v d ɪ1	-0.5165518
-1.70757	v d ɪ2	-0.5777915
-1.70757	v d ɹ	-0.5855449
-1.464532	v d ʌ1	-0.4217726
-0.07324754	z d </s>
-2.452553	z d a	0.628389
-1.373372	z d a1	-0.2952777
-2.054613	z d t	-0.219557
-2.452553	z d w	0.07663402
-1.975432	z d ɑ	-0.2686607
-1.975432	z d ɑ1	-0.5968813
-1.523134	z d ə	-1.10551
-2.452553	z d ɪ
-2.452553	z d ɪ1	-0.294703
-1.975432	z d ɹ	-0.7683178
-1.850493	z d ʌ1	-0.4729252
-2.452553	z d θ	0.7781513
-0.6368221	æ d </s>
-0.4149733	æ d g	-0.4259688
-0.5118834	æ d v	-0.60206
-1.050079	æ1 d </s>
-1.5272	æ1 d j	-0.5242338
-0.7738724	æ1 d l	-0.4196733
-1.703291	æ1 d m	-0.4007329
-1.050079	æ1 d n	-0.4962142
-1.050079	æ1 d o	0
-1.050079	æ1 d v	-0.8573325
-1.5272	æ1 d z
-1.703291	æ1 d ɑ	0.09931603
-0.7738724	æ1 d ə	-0.5520934
-0.8282301	æ1 d ɪ	-0.3525256
-1.305351	æ1 d ʌ	-0.4191293
-0.8016323	æ2 d l	-0.4713689
-1.278754	æ2 d ɑ1
-1.102662	æ2 d ə	-0.3448833
-0.3756636	æ2 d ɪ	-0.49727
-0.9777236	æ2 d ʌ1	-0.2176526
-0.1249387	ð d </s>
-0.80618	ð d ɹ	-0.7627569
-0.3748162	ŋ d </s>
-0.5274264	ŋ d a1	-0.1983677
-1.50515	ŋ d f	-0.08241025
-1.329059	ŋ d ɑ1	-0.4714687
-1.329059	ŋ d ə	-0.4386742
-1.329059	ŋ d ɹ	-0.4716857
-0.69897	ɑ d z	0.3107899
-0.2218488	ɑ d ɹ	-0.4572264
-0.8772827	ɑ1 d </s>
-1.389166	ɑ1 d j	-0.5242338
-0.4860761	ɑ1 d l	-0.7124722
-1.146128	ɑ1 d z	-0.0571869
-1.036984	ɑ1 d ə	-0.4707412
-0.5598623	ɑ1 d ɪ	-0.6748061
-0.5211381	ɑ1ː d </s>
-1.618048	ɑ1ː d f	-0.3543378
-0.6886292	ɑ1ː d n	-0.8251268
-1.618048	ɑ1ː d o	0
-1.618048	ɑ1ː d z	0.3107899
-1.220108	ɑ1ː d ə	-0.566732
-0.5211381	ɑ1ː d ɪ	-0.8864105
-1.618048	ɑ1ː d ɹ	-0.4738681
-0.90309	ɑ2 d d	0.4065402
-0.90309	ɑ2 d l	-0.33864
-1.079181	ɑ2 d ɑ1	-0.2289046
-0.90309	ɑ2 d ə	-0.3448833
-0.90309	ɑ2 d ɪ	-0.4640549
-0.7781513	ɑ2 d ɹ	-0.6641179
-1.079181	ɑ2 d ʌ	-0.3869447
-0.8129134	ɑ2ː d b	-0.4399795
-0.5118834	ɑ2ː d ɪ
-0.3452336	ɑː d </s>
-1.01424	ɑː d o	0
-0.5882717	ɑː d z	-0.1663314
-0.8893017	ɑː d ɪ	-0.526468
-0.3542755	ɔ1ː d </s>
-1.348027	ɔ1ː d k	-0.737888
-1.494155	ɔ1ː d l	-0.2614194
-1.290035	ɔ1ː d n	-0.4308212
-1.591065	ɔ1ː d w	-0.04830474
-1.151732	ɔ1ː d z	-0.2912701
-1.892095	ɔ1ː d ɑ	0.09931603
-0.9626757	ɔ1ː d ə	-0.9837767
-0.7307266	ɔ1ː d ɪ	-0.8697602
-1.454845	ɔ2ː d </s>
-0.6419315	ɔ2ː d a1	-0.04346573
-0.5797836	ɔ2ː d z	-0.4162089
-1.278754	ɔ2ː d ɑ1	-0.2289046
-0.8527849	ɔ2ː d ə	-0.6911796
-0.7144822	ɔ2ː d ɪ	-0.5373225
-0.3840042	ɔː d </s>
-0.7085153	ɔː d e1	0
-0.9637879	ɔː d u1ː	-0.6118199
-0.9637879	ɔː d z	0.009759843
-1.060698	ɔː d ɪ1	-0.6555988
-0.2217044	ə d </s>
-1.700271	ə d a	-0.216709
-1.62109	ə d a1	-0.2952777
-2.700271	ə d b	-0.3150407
-2.302331	ə d d	0.230449
-2.047058	ə d e	0
-2.302331	ə d e1	0
-2.047058	ə d f	-0.5595315
-2.302331	ə d h	-0.6853972
-1.746028	ə d j	-0.9568734
-2.700271	ə d l
-1.700271	ə d m	-0.8722503
-2.302331	ə d n	-0.2746248
-2.700271	ə d o	0
-2.700271	ə d o2	0
-2.700271	ə d p
-2.001301	ə d t	-0.4414057
-1.538903	ə d v	-0.8653013
-2.399241	ə d w	-0.1452147
-2.001301	ə d z	-0.2534816
-2.302331	ə d æ	-0.2666611
-2.399241	ə d æ1	-0.2688453
-1.887358	ə d ɑ	-0.5012333
-2.047058	ə d ɑ1	-0.4972396
-2.52418	ə d ɑ1ː	-0.5413622
-2.399241	ə d ɑ2ː	0.3424227
-2.700271	ə d ɑː	-0.1760913
-2.52418	ə d ɔ1ː
-2.302331	ə d ɔː	0.2218487
-1.554143	ə d ə	-0.3547486
-2.399241	ə d ɛ1	-0.2959504
-1.367832	ə d ɪ	-0.7727765
-1.679082	ə d ɪ1	-0.8304987
-2.156203	ə d ɪ2	-0.7819114
-1.639573	ə d ɹ	-0.5121049
-1.444998	ə d ʌ1	-0.81441
-2.700271	ə d ʌ2	-0.4274335
-0.1760913	ɛ d </s>
-0.6532125	ɛ d z	-0.1663314
-1.079181	ɛ d ɪ	-0.429558
-0.6144104	ɛ1 d </s>
-1.853292	ɛ1 d b	-0.4476663
-2.029384	ɛ1 d f
-1.631444	ɛ1 d j	-0.6440691
-0.9502025	ɛ1 d l	-0.4223824
-1.631444	ɛ1 d n	-0.09853356
-1.728354	ɛ1 d s	-0.6264194
-1.853292	ɛ1 d t	-0.04346573
-1.853292	ɛ1 d w	-0.04830474
-1.427324	ɛ1 d z	-0.1151789
-2.029384	ɛ1 d ɑ	0.09931603
-1.289021	ɛ1 d ə	-0.5732262
-0.3908945	ɛ1 d ɪ	-0.9760405
-1.414973	ɛ2 d </s>
-1.113943	ɛ2 d a1	0.4036923
-1.414973	ɛ2 d b	-0.3150407
-1.238882	ɛ2 d d	0.531479
-1.238882	ɛ2 d k	-0.4490925
-1.017033	ɛ2 d ɑ1	-0.6727347
-1.414973	ɛ2 d ə
-0.4607309	ɛ2 d ɪ	-0.5796075
-1.238882	ɛ2 d ʌ1	-0.1207426
-0.3550118	ɜ1ː d </s>
-1.585461	ɜ1ː d b
-1.041393	ɜ1ː d l	-0.5052393
-0.8073095	ɜ1ː d n	-0.8018891
-1.409369	ɜ1ː d z	0.3107899
-1.585461	ɜ1ː d ə
-0.845098	ɜ1ː d ɪ	-0.4835944
-1.585461	ɜ1ː d ɹ	-0.4606062
-0.7403627	ɜ2ː d ɪ	-0.3046193
-0.7403627	ɜ2ː d ʌ1	0.004196107
-0.3424227	ɜː d </s>
-0.3424227	ɜː d z	0.009759843
-0.1550253	ɪ d </s>
-2.316217	ɪ d a	-0.1497623
-1.622387	ɪ d a1	-0.821617
-2.400538	ɪ d b	-0.5511299
-2.166455	ɪ d d	-0.371611
-2.084268	ɪ d e	0
-2.768515	ɪ d e1	0
-1.893453	ɪ d f	-0.3712059
-3.069545	ɪ d i1ː	-0.4542584
-2.944606	ɪ d iː	-0.2498775
-2.267912	ɪ d j	-0.7736036
-3.245636	ɪ d k
-1.893453	ɪ d l	-0.7614036
-2.291394	ɪ d n	-0.8856661
-2.400538	ɪ d o1	0
-2.546666	ɪ d o2	0
-2.467485	ɪ d s	-0.2284793
-1.85647	ɪ d t	-0.6932179
-1.955601	ɪ d w	-0.7362794
-1.933882	ɪ d z	0.04042864
-2.342546	ɪ d æ	-0.6205433
-3.069545	ɪ d æ1	-0.4645321
-2.847696	ɪ d æ2	-0.6368221
-1.806303	ɪ d ɑ	-0.7131327
-1.913198	ɪ d ɑ1	-0.5580152
-3.245636	ɪ d ɑ1ː
-2.847696	ɪ d ɑ2ː	0.2632414
-3.245636	ɪ d ɔ1ː	-0.3802113
-3.245636	ɪ d ɔː
-1.505273	ɪ d ə	-0.810743
-3.069545	ɪ d ɛ	-0.3679768
-2.224447	ɪ d ɛ1	-0.8425657
-3.245636	ɪ d ɛ2
-1.311138	ɪ d ɪ	-1.192537
-2.002598	ɪ d ɪ1	-0.8323505
-2.505273	ɪ d ɪ2	-0.9202141
-2.148726	ɪ d ɹ	-0.7218537
-1.790791	ɪ d ʌ1	-1.017461
-2.701568	ɪ d θ	0.3521825
-0.6457245	ɪ1 d </s>
-1.458638	ɪ1 d j	-0.6211438
-0.5835766	ɪ1 d l	-0.8575704
-1.458638	ɪ1 d n	-0.1440317
-1.458638	ɪ1 d w	-0.1452147
-1.458638	ɪ1 d z	0.0889411
-1.583577	ɪ1 d ɑ	-0.5204727
-0.8846066	ɪ1 d ə	-0.9690661
-0.7384785	ɪ1 d ɪ	-0.6016093
-0.7533277	ɪ2 d a1	0.5006023
-0.9294189	ɪ2 d f	-0.4705904
-0.9294189	ɪ2 d l
-0.9294189	ɪ2 d n
-0.7533277	ɪ2 d w	0.07663402
-0.4259687	ʃ d a	0.5034502
-0.60206	ʃ d o	0
-0.60206	ʃ d ɹ	-0.4583559
-0.3344538	ʊ d </s>
-1.732394	ʊ d a	0
-1.607455	ʊ d a1	0.1484198
-1.908485	ʊ d b	-0.5157002
-2.209515	ʊ d d	0.531479
-2.209515	ʊ d f	-0.08241025
-2.033424	ʊ d h
-2.033424	ʊ d j	-0.5242338
-1.556303	ʊ d l	-0.3185302
-2.209515	ʊ d o2	0
-2.209515	ʊ d s
-2.033424	ʊ d t	-0.04346573
-2.209515	ʊ d w	0.07663402
-1.556303	ʊ d z	-0.2120889
-1.732394	ʊ d ɑ	0.1821315
-1.908485	ʊ d ɑ1	-0.5935534
-1.112605	ʊ d ə	-0.4972562
-2.033424	ʊ d ɜ1ː	-0.4637573
-0.7701823	ʊ d ɪ	-0.9430001
-1.811575	ʊ d ɪ1	-0.5165518
-1.908485	ʊ d ɪ2	-0.5777915
-2.033424	ʊ d ɹ	-0.4606062
-1.732394	ʊ d ʌ1	-0.2904627
-0.4175356	ʊ1 d </s>
-0.9294189	ʊ1 d f	-0.304259
-1.230449	ʊ1 d k
-0.5314789	ʊ1 d ɪ	-0.172991
-0.69897	ʊ2 d d	0.531479
-0.69897	ʊ2 d ɑ1	-0.2289046
-0.5228788	ʊ2 d ʌ1	-0.1207426
-1.034762	ʌ1 d </s>
-0.5118834	ʌ1 d l	-0.1671099
-1.511883	ʌ1 d s
-1.210853	ʌ1 d ə	-0.5609688
-0.3815496	ʌ1 d ɪ	-0.8813991
-0.2218488	ʌ2 d l	-0.3406007
-0.5228788	ʌ2 d ɪ	-0.429558
-0.06694679	ʒ d </s>
-1.711204	<s> d͡ʒ a1	0
-2.255272	<s> d͡ʒ a2	0
-1.410174	<s> d͡ʒ e1	0
-1.954242	<s> d͡ʒ i1ː	-0.50515
-2.255272	<s> d͡ʒ i2ː	0
-1.711204	<s> d͡ʒ o1	0
-1.194575	<s> d͡ʒ u1ː	-0.07542109
-2.079181	<s> d͡ʒ u2ː	0
-2.079181	<s> d͡ʒ uː
-1.176091	<s> d͡ʒ æ1	-0.4423589
-1.442359	<s> d͡ʒ æ2	0.08432078
-1.037789	<s> d͡ʒ ɑ1	-0.163126
-2.079181	<s> d͡ʒ ɑ1ː
-1.477121	<s> d͡ʒ ɑ2	0
-1.477121	<s> d͡ʒ ɔ1	0
-1.556303	<s> d͡ʒ ɔ1ː	0
-1.954242	<s> d͡ʒ ɔ2	0
-1.778151	<s> d͡ʒ ə	-0.4487259
-1.954242	<s> d͡ʒ ɛ	-0.30103
-0.8750613	<s> d͡ʒ ɛ1	-0.8573323
-1.60206	<s> d͡ʒ ɛ2	-0.1303338
-1.60206	<s> d͡ʒ ɜ1ː	0.1461282
-2.079181	<s> d͡ʒ ɜ2ː	0.1249388
-1.778151	<s> d͡ʒ ɪ	-0.1171438
-0.9881008	<s> d͡ʒ ɪ1	-0.8123266
-1.711204	<s> d͡ʒ ɪ2	0.2340832
-0.922834	<s> d͡ʒ ʌ1	-0.4973242
-1.857332	<s> d͡ʒ ʌ2	0
-0.69897	b d͡ʒ ɔ1	0
-1	b d͡ʒ ɛ	-0.2730013
-0.5228788	b d͡ʒ ɛ1	-0.7013324
-1	b d͡ʒ ɪ	-0.4405458
-0.69897	b d͡ʒ ʊ	-0.4771213
-0.30103	i1ː d͡ʒ ə	-0.4245922
-0.39794	i2ː d͡ʒ i1ː	-0.3521825
-0.5740313	i2ː d͡ʒ ɔ1	0
-0.5740313	i2ː d͡ʒ ʌ1	-0.5942346
-0.5740313	l d͡ʒ </s>
-0.8750613	l d͡ʒ d	0.03837818
-1.176091	l d͡ʒ i1ː	-0.3802113
-0.5228788	l d͡ʒ ə	-0.6900839
-1.176091	l d͡ʒ ɪ
-1	l d͡ʒ ɪ1	-0.5451552
-0.8428766	n d͡ʒ </s>
-0.6368221	n d͡ʒ d	-0.2393181
-1.687975	n d͡ʒ i1ː	-0.5314789
-1.989005	n d͡ʒ ɑ	0.3679768
-1.591065	n d͡ʒ ɔ1	0
-0.7459666	n d͡ʒ ə	-0.3990382
-1.210853	n d͡ʒ ɛ1	-0.4149733
-0.7459666	n d͡ʒ ɪ	-0.7725475
-1.812913	n d͡ʒ ɪ2	0
-1.687975	n d͡ʒ ʊ	-0.30103
-1.386945	n d͡ʒ ʊ1	0.2218488
-1.989005	n d͡ʒ ʌ1	-0.4382032
-0.4259687	s d͡ʒ ɔ1	0
-0.30103	s d͡ʒ ʌ1	-0.5942346
-0.1760913	t d͡ʒ ɛ1	-0.3802113
-0.4259687	u1ː d͡ʒ </s>
-0.60206	u1ː d͡ʒ d	0.1633169
-0.30103	uː d͡ʒ ɪ	-0.3409015
-1.311754	æ1 d͡ʒ </s>
-0.4086639	æ1 d͡ʒ ə	-0.9126053
-0.3340303	æ1 d͡ʒ ɪ	-1.126606
-1.135663	æ1 d͡ʒ ʊ	-0.4313638
-0.2218488	æ2 d͡ʒ ɪ	-0.4200827
-0.7900504	ɑ1 d͡ʒ </s>
-0.7900504	ɑ1 d͡ʒ d	-0.2046598
-0.7900504	ɑ1 d͡ʒ ə	-0.3924075
-1.267172	ɑ1 d͡ʒ ɜː	0
-0.3640817	ɑ1 d͡ʒ ɪ	-0.503057
-0.6342447	ɑ1ː d͡ʒ </s>
-0.3864602	ɑ1ː d͡ʒ d	-0.3257036
-0.9700368	ɑ1ː d͡ʒ ə	-0.6006835
-0.748188	ɑ1ː d͡ʒ ɪ	-0.468688
-0.544068	ɑ2ː d͡ʒ ə	-0.2996535
-0.3245111	ɔ1ː d͡ʒ d	-0.284515
-0.9777236	ɔ1ː d͡ʒ w	0
-0.9777236	ɔ1ː d͡ʒ ə
-0.8016323	ɔ1ː d͡ʒ ɪ	-0.3409015
-0.30103	ɔ2ː d͡ʒ d	-0.4661813
-0.8798602	ə d͡ʒ a	0
-1.658011	ə d͡ʒ u1ː	-0.357146
-1.18089	ə d͡ʒ ɔ1	0
-1.658011	ə d͡ʒ ə
-0.7829502	ə d͡ʒ ɛ1	-0.6260604
-1.356981	ə d͡ʒ ɜ1ː	-0.39794
-0.4966434	ə d͡ʒ ɪ	-1.099574
-1.658011	ə d͡ʒ ɪ1
-1.48192	ə d͡ʒ ʊ1	0.5740313
-0.9590414	ə d͡ʒ ʌ1	-0.752597
-0.1249387	ɛ d͡ʒ ɪ	-0.4658403
-0.9107768	ɛ1 d͡ʒ </s>
-0.5797836	ɛ1 d͡ʒ d	-0.5636818
-1.454845	ɛ1 d͡ʒ h	0
-0.3409015	ɛ1 d͡ʒ ɪ	-0.4273237
-1.056905	ɛ1 d͡ʒ ʊ	-0.6532125
-0.3802112	ɛ2 d͡ʒ d	-0.7537088
-0.30103	ɛ2 d͡ʒ ɪ	-0.1303338
-0.5672979	ɜ1ː d͡ʒ </s>
-0.6398485	ɜ1ː d͡ʒ d	-0.4009545
-0.6812412	ɜ1ː d͡ʒ ə	-0.4641006
-0.5672979	ɜ1ː d͡ʒ ɪ	-0.6459132
-0.544068	ɜ2ː d͡ʒ ɪ
-0.243038	ɜ2ː d͡ʒ ʌ1	-0.6734159
-0.5411035	ɪ d͡ʒ </s>
-2.164353	ɪ d͡ʒ b
-0.709508	ɪ d͡ʒ d	-0.9578289
-1.988262	ɪ d͡ʒ f	-0.1760913
-1.988262	ɪ d͡ʒ j	0.09691
-1.766413	ɪ d͡ʒ m	-0.2218487
-2.164353	ɪ d͡ʒ p
-2.164353	ɪ d͡ʒ s
-1.988262	ɪ d͡ʒ u1ː	-0.4296966
-1.766413	ɪ d͡ʒ æ	0.06694674
-1.620285	ɪ d͡ʒ ɔ1	0
-1.002985	ɪ d͡ʒ ə	-0.6951048
-1.103655	ɪ d͡ʒ ɛ1	-0.83018
-0.8121703	ɪ d͡ʒ ɪ	-0.7781513
-1.465383	ɪ d͡ʒ ɪ1	-0.5558789
-2.164353	ɪ d͡ʒ ɹ
-1.255273	ɪ1 d͡ʒ d	0.1633169
-0.3258536	ɪ1 d͡ʒ ə	-0.8447053
-0.4771213	ɪ1 d͡ʒ ɪ	-0.7745169
-0.9542425	ɪ1 d͡ʒ ʊ	-0.5118834
-0.39794	ɪ2 d͡ʒ d	-0.4705904
-0.39794	ɪ2 d͡ʒ ɪ
-0.6368221	ʊ d͡ʒ d	-0.4661813
-0.6368221	ʊ d͡ʒ ɛ1
-0.6368221	ʊ d͡ʒ ɪ	-0.4181738
-0.8129134	ʊ d͡ʒ ɪ1
-0.5118834	ʌ1 d͡ʒ </s>
-0.6746107	ʌ1 d͡ʒ d	-0.438743
-0.7617608	ʌ1 d͡ʒ ə	-0.7333091
-0.5399121	ʌ1 d͡ʒ ɪ	-0.8064408
0	<s> e ɪ
0	b e ɪ	-0.3501797
0	d e ɪ	-0.1326351
0	f e ɪ	-0.5285361
0	g e ɪ	-1.124421
0	k e ɪ	-0.5664456
0	l e ɪ	-0.8897758
0	m e ɪ	-0.3607552
0	n e ɪ	-0.9340209
0	p e ɪ	-0.6426099
0	s e ɪ	0.09550464
0	t e ɪ	-0.6972225
0	t͡ʃ e ɪ	-0.6825901
0	uː e ɪ	0.1706761
0	v e ɪ	-0.689662
0	w e ɪ	0.02131188
0	z e ɪ	-0.5901835
0	ɪ e ɪ	-0.9154456
0	ɹ e ɪ	-0.8131225
0	ʃ e ɪ	-0.9261048
0	ʊ e ɪ	-0.91746
0	<s> e1 ɪ	-0.7870248
0	b e1 ɪ	-0.7773409
0	d e1 ɪ	-0.744707
0	d͡ʒ e1 ɪ	-0.6502164
0	f e1 ɪ	-0.6995938
0	g e1 ɪ	-1.425526
0	h e1 ɪ	-1.171175
0	iː e1 ɪ	-0.421328
0	k e1 ɪ	-1.045315
0	l e1 ɪ	-0.7098937
0	m e1 ɪ	-0.9360973
0	n e1 ɪ	-1.357343
0	p e1 ɪ	-0.8948209
0	s e1 ɪ	-0.6474532
0	t e1 ɪ	-1.039403
0	t͡ʃ e1 ɪ	-1.488472
0	v e1 ɪ	-0.8809352
0	w e1 ɪ	-1.394438
0	z e1 ɪ	-1.318113
0	ɪ e1 ɪ	-1.201958
0	ɹ e1 ɪ	-0.8024427
0	ʃ e1 ɪ	-1.258325
0	ʊ e1 ɪ	-0.6474923
0	<s> e2 ɪ	-0.4079756
0	b e2 ɪ	-0.9034424
0	d e2 ɪ	-0.1916841
0	f e2 ɪ	-0.8198003
0	g e2 ɪ	-0.8832556
0	h e2 ɪ	-0.5729018
0	k e2 ɪ	-1.529817
0	l e2 ɪ	-0.8672196
0	m e2 ɪ	-0.5563025
0	n e2 ɪ	-0.5149098
0	p e2 ɪ	-0.7534937
0	s e2 ɪ	-0.9599494
0	t e2 ɪ	-1.242904
0	t͡ʃ e2 ɪ	-0.7388217
0	w e2 ɪ	-0.7257631
0	z e2 ɪ
0	ɹ e2 ɪ	-1.124938
0	ʃ e2 ɪ	-0.850702
-2.497759	<s> f a	1.596597
-1.390549	<s> f a1	0
-1.835001	<s> f a2	0
-1.543516	<s> f e1	0
-1.941456	<s> f e2	0
-1.56326	<s> f i1ː	-0.5316232
-2.293639	<s> f i2ː	-0.1249387
-1.798789	<s> f j	-0.3699111
-0.7464796	<s> f l	-0.84378
-2.418577	<s> f o	0
-1.628527	<s> f o1	0
-2.117548	<s> f o2	0
-2.196729	<s> f u1ː	-0.2218487
-2.293639	<s> f u2ː	0
-2.895699	<s> f æ
-1.440854	<s> f æ1	0.1341988
-2.117548	<s> f æ2	-0.2340832
-1.456366	<s> f ɑ1	-0.4637567
-1.835001	<s> f ɑ1ː	-0.7154643
-1.734331	<s> f ɑ2	0
-2.293639	<s> f ɑ2ː	0.09691
-2.594669	<s> f ɔ1	0
-1.179695	<s> f ɔ1ː	-0.6436616
-1.515487	<s> f ɔ2ː	-0.3829343
-1.506533	<s> f ɔː	-1.297396
-1.594669	<s> f ə	-1.36908
-2.719607	<s> f ɛ
-1.383815	<s> f ɛ1	-0.8834943
-1.616945	<s> f ɛ2	-0.5698752
-1.835001	<s> f ɜ1ː	-0.4309666
-2.895699	<s> f ɜ2ː	0
-2.050601	<s> f ɪ	-0.6281408
-1.219005	<s> f ɪ1	-0.5599741
-1.66525	<s> f ɪ2	0.02413356
-0.8935327	<s> f ɹ	-1.304671
-2.719607	<s> f ʊ	0.5282738
-1.874509	<s> f ʊ1	0.1047355
-2.719607	<s> f ʊ2	0.1760913
-1.640426	<s> f ʌ1	-0.5740314
-1.96628	<s> f ʌ2	0
-0.4771213	b f ʌ	0
-1.826075	d f l	-0.4225003
-1.282007	d f o	0
-1.428135	d f ɔ1ː	-0.7346856
-0.2240148	d f ɔː	-1.273592
-1.826075	d f ɛ1	-0.4390008
-0.6085908	d f ɹ	-0.9309802
-1.826075	d f ʊ	0.6532125
-0.30103	d͡ʒ f ɔː	0.1279032
-0.5698753	i1ː f </s>
-0.8129134	i1ː f s	-0.2218488
-0.7160034	i1ː f t	-0.5166298
-1.113943	i1ː f uː	0
-1.113943	i1ː f æ	-0.1760913
-1.113943	i1ː f ə
-1.39794	i2ː f e1	0
-1.39794	i2ː f j
-1	i2ː f l	-0.3510844
-1.39794	i2ː f o1	0
-1.39794	i2ː f t
-1	i2ː f æ1	-0.6513761
-1.39794	i2ː f ɑ1	-0.3687818
-1.09691	i2ː f ɔ1ː	-0.5838763
-0.9208187	i2ː f ɜ1ː	-0.7939455
-0.69897	i2ː f ɪ1	-0.7631416
-0.9208187	i2ː f ɹ	-0.8235208
-1.221849	i2ː f ʊ1	0.146128
-0.7403627	iː f s	0
-0.5642715	iː f ɑ1	-0.4937205
-0.4393327	iː f ʌ1	-0.5617968
-1.243038	k f a	1.897627
-1.066947	k f a1	-0.09548378
-1.243038	k f ɔ1ː	-0.4233759
-0.5898255	k f ɔː	-0.04818803
-1.066947	k f ə	-0.5745639
-0.4648868	k f ɹ	-0.9875249
-1.024134	l f </s>
-1.568202	l f iː
-1.39211	l f j	-0.5740313
-1.568202	l f k	-0.2552725
-1.024134	l f s	0.160297
-1.39211	l f t	-0.3405386
-0.9661418	l f ɔː	-0.3492181
-0.9661418	l f ə	-0.6731736
-1.09108	l f ɛ	-0.5407903
-1.267172	l f ɪ	-0.5956888
-1.09108	l f ɪ1	-0.1843116
-1.170262	l f ɹ	-0.2875275
-1.568202	l f ʊ	0.6532125
-1.255273	m f </s>
-1.079181	m f a1	-0.4399795
-1.255273	m f o	0
-1.255273	m f t	-0.2155998
-1.079181	m f ɔ1ː	-0.4233759
-1.255273	m f ɔː	0.1279032
-0.5149098	m f ə	-0.9814934
-1.255273	m f ɪ
-1.079181	m f ɹ	-0.4916475
-1.12926	n f a1	0
-2.004321	n f e1	0
-1.703291	n f iː	0.146128
-1.263959	n f j	-0.3869446
-0.8739876	n f l	-0.6229672
-1.82823	n f o	0
-1.5272	n f o1	0
-1.703291	n f æ1	-0.5617654
-2.004321	n f ɑ1ː
-0.9436235	n f ɔ1ː	-1.171626
-0.9436235	n f ɔː	-0.7567034
-1.703291	n f ə	-0.4429509
-1.82823	n f ɛ	-0.2397603
-1.050079	n f ɛ1	-0.7817856
-1.263959	n f ɜ1ː	-0.7447272
-1.074902	n f ɪ	-1.099768
-1.703291	n f ɪ1	-0.6301752
-1.026598	n f ɹ	-0.5585942
-1.703291	n f ʊ	0.4313638
-0.3802112	p f ɔː	-0.4363682
-0.3388186	p f ɹ	-0.851227
-1.079181	p f ʊ2	0.30103
-1.135663	s f a	1.52965
-1.214844	s f a1	-0.271575
-1.311754	s f e1	0
-1.311754	s f i1ː	-0.6605118
-1.612784	s f iː
-1.612784	s f j	-0.05115253
-1.135663	s f l	-0.7651264
-1.436693	s f æ	-0.30103
-1.311754	s f æ1	-0.2163163
-1.436693	s f ɑ1	-0.4937205
-1.436693	s f ɔ1ː	-0.3620275
-1.612784	s f ɔː	0.1279032
-1.010724	s f ə	-0.4429509
-1.311754	s f ɜ1ː	-0.2407341
-0.9595714	s f ɪ1	-0.5364941
-1.010724	s f ɹ	-0.7491366
-1.135663	s f ʊ	0.2852358
-1.829304	t f a1	0.02945498
-1.285236	t f e1	0
-1.829304	t f iː	-0.2340832
-1.352183	t f l	-0.7235304
-1.528274	t f ɑ1	-0.5448731
-1.829304	t f ɑ1ː	-0.3836996
-1.051152	t f ɔ1ː	-1.010668
-0.3821457	t f ɔː	-0.7983544
-1.653213	t f ɪ	-0.3859705
-0.8081145	t f ɹ	-0.9107769
-0.9262138	t f ʊ	-0.1001152
-0.06694679	t͡ʃ f ɔː	-0.1691424
-0.6627578	u1ː f </s>
-0.8846066	u1ː f s	-0.1249388
-0.7596679	u1ː f t	-0.4374486
-1.060698	u1ː f ɪ
-0.6627578	u1ː f ɹ
-0.3521825	u2ː f t	-0.5933564
-0.4771213	u2ː f ɪ1	-0.5705132
-0.455932	uː f </s>
-1	uː f l	-0.4731551
-0.5228788	uː f t	-0.5835766
-1	uː f ɔ1ː	-0.4336556
-0.9777236	z f l
-0.9777236	z f ɔ1ː	-0.4336556
-0.2373609	z f ɔː	-0.4741567
-0.9777236	z f ɹ	-0.3667088
-1.278754	æ1 f </s>
-1.278754	æ1 f a	1.897627
-0.5383909	æ1 f l	-0.9867718
-1.102662	æ1 f ə	-0.4467773
-0.3756636	æ1 f ɪ	-0.597823
-1.278754	æ1 f ɹ
-0.6532125	æ2 f e	0
-0.6532125	æ2 f ɪ
-0.4771213	æ2 f ɹ	-0.4726669
-0.7781513	ŋ f ɔ1ː	-0.5956945
-0.4259687	ŋ f ɔː	-0.3492181
-1.079181	ŋ f ɪ1	-0.4395841
-0.6812412	ŋ f ɹ	-0.6677388
-0.1058037	ɑ f </s>
-1.267172	ɑ f s	0
-1.267172	ɑ f ɪ	-0.4062921
-1.09108	ɑ f θ	-0.30103
-0.08093362	ɑ1 f </s>
-2.048248	ɑ1 f l	-0.6543078
-1.951338	ɑ1 f n	-0.2382392
-1.872156	ɑ1 f s	-0.2762064
-1.650308	ɑ1 f t	-0.4013731
-1.536364	ɑ1 f w	0
-1.951338	ɑ1 f ɑ	-0.4771213
-1.536364	ɑ1 f ə	-0.582997
-1.371554	ɑ1 f ɪ	-0.3994553
-1.033424	ɑ1ː f </s>
-1.255273	ɑ1ː f s	0
-0.1196099	ɑ1ː f t	-0.3335992
-1.041393	ɑ2 f h	-0.39794
-1.041393	ɑ2 f l	-0.4620575
-0.7403627	ɑ2 f n	-0.3253894
-0.6434527	ɑ2 f t	-0.6920211
-0.6434527	ɑ2 f ɪ	-0.6281409
-0.1249387	ɑ2ː f t	-1.439333
-1.342423	ɑ2ː f ɑ1	-0.4598623
-1.342423	ɑ2ː f ə	-0.4717595
-0.455932	ɑː f </s>
-1.30103	ɑː f e1	0
-1	ɑː f s	-0.2218488
-0.3467875	ɑː f t	-0.5166298
-0.8239087	ɔ1ː f ɔː	0.002964437
-1	ɔ1ː f ə	-0.4524544
-0.3467875	ɔ1ː f ɪ	-0.8335
-1.515211	ə f a	1.772688
-1.33912	ə f a1	-0.271575
-1.64015	ə f e1	0
-1.515211	ə f j	-0.1760913
-0.8619988	ə f l	-0.4949133
-1.418301	ə f ɔ1ː	-0.2828462
-1.163029	ə f ɔː	-0.2920752
-1.117271	ə f ə	-0.7921337
-0.9131513	ə f ɛ1	-0.6268836
-1.33912	ə f ɜ1ː	-0.7254881
-1.075879	ə f ɪ	-0.5848579
-0.8868224	ə f ɪ1	-0.9321762
-1.33912	ə f ɹ	-0.06567878
-1.515211	ə f ʊ	0.5282738
-0.1760913	ɛ f t	-0.4736607
-0.9420081	ɛ1 f </s>
-1.243038	ɛ1 f j
-0.3399481	ɛ1 f t	-0.8290484
-0.9420081	ɛ1 f ə	-0.281967
-0.845098	ɛ1 f ɪ	-0.6843921
-1.243038	ɛ1 f ɹ	-0.4704225
-0.8846066	ɛ2 f l	-0.5950952
-0.3203351	ɛ2 f t	-0.7044501
-0.5835766	ɛ2 f ə	-0.6782334
-1.161368	ɜ1ː f </s>
-0.763428	ɜ1ː f t	-0.5166298
-1.161368	ɜ1ː f ə
-0.258278	ɜ1ː f ɪ	-0.8093308
-0.9852768	ɜ1ː f ɹ
-0.1760913	ɜ2ː f t	-0.461327
-1.660175	ɪ f </s>
-0.3731884	ɪ f a	0.04433441
-1.379349	ɪ f a1	-0.815643
-1.85647	ɪ f e1	0
-2.224447	ɪ f g	0
-1.701568	ɪ f i1ː	-0.9332985
-1.660175	ɪ f j	-0.6154239
-1.224447	ɪ f l	-0.6571428
-2.002598	ɪ f n	-0.09691003
-1.85647	ɪ f o	0
-1.923417	ɪ f s	0
-1.497448	ɪ f t	-0.4701723
-2.400538	ɪ f æ1	-0.3924075
-2.099508	ɪ f ɑ	-0.4771213
-2.224447	ɪ f ɑ1	-0.5668277
-1.587625	ɪ f ɔ1ː	-0.7770008
-2.002598	ɪ f ɔ2ː	-0.7259732
-1.923417	ɪ f ɔː	-0.1829307
-1.525477	ɪ f ə	-0.8950223
-2.002598	ɪ f ɛ	-0.613341
-1.525477	ɪ f ɛ1	-0.9870349
-2.400538	ɪ f ɛ2
-2.224447	ɪ f ɜ1ː	-0.4259687
-1.196418	ɪ f ɪ	-1.02419
-1.85647	ɪ f ɪ1	-0.7597881
-1.1575	ɪ f ɹ	-0.8724685
-2.002598	ɪ f ʊ	0.9542425
-2.224447	ɪ f ʌ1
-0.845098	ɪ1 f </s>
-1.623249	ɪ1 f h	-0.39794
-0.845098	ɪ1 f l	-0.7410799
-1.623249	ɪ1 f n
-1.623249	ɪ1 f s	0
-0.544068	ɪ1 f t	-0.3937841
-1.623249	ɪ1 f æ	-0.3802113
-0.9700368	ɪ1 f ə	-0.4941033
-0.7201593	ɪ1 f ɪ	-0.9766126
-1.623249	ɪ1 f ɹ
-0.1760913	ɪ2 f t	-0.4510794
-0.60206	ɪ2 f ə	-0.4429509
-0.30103	ʃ f ɔː	0.002964437
-0.7403627	ʊ f a	1.675778
-1.041393	ʊ f æ1	-0.3924075
-1.041393	ʊ f ə
-0.5642715	ʊ f ɪ	-0.7219626
-0.69897	ʌ f </s>
-0.69897	ʌ f s	0
-0.30103	ʌ f ɔ1ː	-0.3909912
-0.6334684	ʌ1 f </s>
-1.633469	ʌ1 f d	0
-1.332438	ʌ1 f h	-0.4648868
-1.80956	ʌ1 f k	-0.2552725
-0.7303784	ʌ1 f l	-1.333126
-1.265492	ʌ1 f n	-0.3843673
-1.332438	ʌ1 f s	-0.3679768
-0.7488618	ʌ1 f t	-1.11235
-1.069197	ʌ1 f ə	-0.5013029
-1.031408	ʌ1 f ɪ	-0.7906196
-1.079181	ʌ2 f a1	-0.3150407
-1.079181	ʌ2 f s	-0.4522977
-0.4259687	ʌ2 f t	-0.9696672
-1.079181	ʌ2 f ə
-0.7781513	ʌ2 f ɪ	-0.2098792
-1.079181	ʌ2 f ʌ1	-0.4490925
-1.654177	<s> g a1	0
-2.353147	<s> g a2	0
-1.463845	<s> g e1	0
-2.052117	<s> g e2	0
-1.015687	<s> g l	-1.411752
-1.273965	<s> g o1	0
-1.492809	<s> g o2	0
-2.052117	<s> g u1ː	0.0871501
-1.135663	<s> g æ1	-0.09800804
-1.492809	<s> g æ2	0.0413928
-1.353147	<s> g ɑ1	-0.1734511
-1.508049	<s> g ɑ1ː	-0.4810165
-1.364142	<s> g ɑ2	0
-2.654176	<s> g ɑː
-1.492809	<s> g ɔ1ː	0.05611587
-1.724758	<s> g ə	-0.9332581
-1.676453	<s> g ɛ1	-1.086868
-1.450057	<s> g ɛ2	-1.351023
-2.052117	<s> g ɜ1ː	-0.2596373
-2.478085	<s> g ɜ2ː	0
-1.632987	<s> g ɪ1	0.1249387
-1.508049	<s> g ɪ2	-0.5329793
-0.5731895	<s> g ɹ	-1.01018
-2.052117	<s> g ʊ1	0
-2.256237	<s> g ʌ	-0.5440681
-1.331957	<s> g ʌ1	-0.7359537
-2.353147	<s> g ʌ2	-0.07918122
-0.2552725	d g ɑ1	-0.5940911
-0.1249387	f g ɑː	-0.3290587
-0.544068	i1ː g </s>
-1.021189	i1ː g d	0.1741568
-0.845098	i1ː g l
-0.845098	i1ː g o	0
-0.7201593	i1ː g ə	-0.5789202
-0.5228788	i2ː g a1	-0.3735807
-0.69897	i2ː g l
-0.39794	i2ː g ɹ	-0.6437147
-0.845098	l g l	-0.4672877
-0.447158	l g ə	-0.5723893
-0.6690068	l g ɹ
-0.4973246	n g e1	0
-0.9444827	n g l	-0.7582564
-0.3881802	n g ɹ	-0.3271328
-1.342423	n g ʌ1	-0.3679768
-0.39794	p g ɹ
-0.7781513	s g a1	-0.4569179
-1.255273	s g e1	0
-1.255273	s g l
-0.8573325	s g æ	-0.4357286
-0.9542425	s g ɔ1ː	-0.5228788
-1.079181	s g ɪ1	-0.3853509
-0.60206	s g ɹ	-0.8963114
-0.9542425	s g ʌ1	-0.6000447
-0.4771213	t g o1	0
-0.6532125	t g o2	0
-0.1760913	u1ː g ə
-0.1249387	u2ː g o	0
-0.1249387	v g ɑ1	-0.4179998
-0.50515	æ g </s>
-0.7269987	æ g d	0.049218
-0.90309	æ g m	-0.3723859
-0.7269987	æ g n	-0.462398
-0.90309	æ g z	-0.30103
-0.7686059	æ1 g </s>
-0.6118198	æ1 g d	-0.8672359
-1.352183	æ1 g j	-0.2552726
-1.176091	æ1 g l	-0.7450514
-1.829304	æ1 g m
-1.285236	æ1 g n	-0.7659168
-1.352183	æ1 g z	-0.6690068
-1.829304	æ1 g ɑː	-0.20412
-0.7686059	æ1 g ə	-0.3141456
-1.130334	æ1 g ɪ	-0.08894108
-1.176091	æ1 g ɹ	-0.9533875
-0.6232493	æ2 g d	-0.19382
-1.021189	æ2 g z
-1.021189	æ2 g ɒː	0
-0.6232493	æ2 g ə	-0.6797021
-1.021189	æ2 g ɪ
-1.89487	ŋ g e	0
-1.718778	ŋ g j	-0.07918131
-0.3038051	ŋ g l	-0.9111176
-1.49693	ŋ g o	0
-0.853477	ŋ g w	-0.5166298
-0.704538	ŋ g ə	-0.539163
-1.154507	ŋ g ɹ	-0.7257056
-1.89487	ŋ g ʌ	-0.1760913
-0.4771213	ɑ g </s>
-1	ɑ g d	0.049218
-0.5740313	ɑ g n	-0.840942
-0.69897	ɑ g z	-0.6690068
-0.8205551	ɑ1 g </s>
-0.7303784	ɑ1 g d	-0.5791709
-1.235528	ɑ1 g l	-0.5951177
-1.0894	ɑ1 g m	-0.5698752
-1.332438	ɑ1 g z	-0.5228788
-0.8931057	ɑ1 g ə	-0.794238
-1.031408	ɑ1 g ɪ	-0.07255065
-0.7584072	ɑ1 g ɹ	-1.157508
-0.4973246	ɑ1ː g j	-0.7683914
-0.7403627	ɑ1ː g l	-0.5261077
-0.8653014	ɑ1ː g o	0
-0.4973246	ɑ1ː g ɪ	-0.827839
-0.4771213	ɑ2 g a1	-0.2486419
-0.30103	ɑ2 g d	-0.4490925
-1.041393	ɔ1ː g j	0.04575744
-0.1663314	ɔ1ː g ə	-1.077642
-1.041393	ɔ1ː g ɪ
-1.041393	ɔ1ː g ɪ2	-0.1217336
-0.07918125	ɔ2ː g ə	-0.6797021
-2.049218	ə g a	0.1249388
-1.396006	ə g e	0
-1.572097	ə g e1	0
-1.873127	ə g l
-1.50515	ə g n	-0.8492146
-2.049218	ə g u1ː
-2.049218	ə g æ	-0.3388186
-1.748188	ə g æ1	-0.549531
-2.049218	ə g ɑ1
-1.572097	ə g ɑː	-0.60206
-1.50515	ə g ə	-0.5635258
-0.6781502	ə g ɛ1	-0.9500866
-0.5241732	ə g ɛ2	-1.351023
-2.049218	ə g ɜː	0.30103
-2.049218	ə g ɪ1	-0.2604122
-0.651278	ə g ɹ	-0.6100725
-0.3467875	ɛ g </s>
-0.60206	ɛ g m	-0.5942346
-1	ɛ g n	-0.447158
-0.8239087	ɛ g z	-0.4259688
-0.916454	ɛ1 g d	0.049218
-0.6734159	ɛ1 g j	-0.3222193
-1.217484	ɛ1 g l
-1.217484	ɛ1 g o	0
-1.217484	ɛ1 g w	0.01579425
-0.7403627	ɛ1 g ə	-0.5187622
-0.7403627	ɛ1 g ɹ	-0.4534266
-0.4973246	ɛ2 g d	-0.8002014
-0.8653014	ɛ2 g j	-0.07918131
-0.6434527	ɛ2 g z	-0.2139523
-1.041393	ɛ2 g ɑ1
-0.8653014	ɛ2 g ə
-0.1249387	ɜ1ː g l	-0.7247648
-0.7781513	ɜ1ː g ə
-1.558022	ɪ g a1	-0.5149099
-2.102091	ɪ g d	0.1741568
-0.6396925	ɪ g e	0
-1.403121	ɪ g e1	0
-2.102091	ɪ g e2	0
-1.289177	ɪ g l	-0.5097173
-2.102091	ɪ g m	-0.4101745
-1.704151	ɪ g n	-0.2071255
-1.925999	ɪ g o	0
-1.704151	ɪ g o1	0
-0.5969405	ɪ g z	-1.432954
-1.925999	ɪ g æ1
-2.102091	ɪ g ɑ
-1.558022	ɪ g ɑ1ː	-0.6136418
-1.361728	ɪ g ə	-0.2247073
-1.925999	ɪ g ɜ1ː	-0.4637573
-2.102091	ɪ g ɪ
-0.749908	ɪ g ɹ	-0.6829194
-1.102662	ɪ1 g </s>
-1.357935	ɪ1 g d	-0.1268733
-0.7558749	ɪ1 g l	-0.4961445
-1.211807	ɪ1 g m	-0.6320232
-0.7558749	ɪ1 g n	-0.9590414
-1.102662	ɪ1 g z	-0.7601779
-0.5128368	ɪ1 g ə	-1.023912
-1.579784	ɪ1 g ɪ
-1.755875	ɪ1 g ɪ2	-0.437004
-0.9852768	ɪ2 g a1	-0.3735807
-0.9852768	ɪ2 g d	-0.5822258
-0.860338	ɪ2 g l	-0.5696883
-0.763428	ɪ2 g n	-0.4771213
-0.6842467	ɪ2 g ə	-0.5048938
-0.9852768	ɪ2 g ʌ1	-0.5509075
-1.322219	ʊ g </s>
-0.6232493	ʊ g e	0
-1.322219	ʊ g i1ː	0.09691
-1.498311	ʊ g l
-1.498311	ʊ g ə
-0.3222193	ʊ g ɹ	-1.345729
-0.07918125	ʊ1 g ə	-0.04164094
-0.1249387	ʊ2 g ə	-0.2969134
-0.39794	ʌ g ʒ	0
-0.8293038	ʌ1 g </s>
-0.5019448	ʌ1 g d	-0.6039945
-0.6532125	ʌ1 g l	-0.5753257
-0.8293038	ʌ1 g z	-0.7781513
-1.130334	ʌ1 g ə	-0.4218522
-1.255273	ʌ1 g ɪ	-0.3388186
-0.5835766	ʌ2 g d	-0.7417704
-1.060698	ʌ2 g o1	0
-0.5166298	ʌ2 g ə	-0.5718406
-0.8846066	ʌ2 g ʌ1	-0.5509075
-2.429348	<s> h a	-0.5654311
-1.168086	<s> h a1	0
-1.669681	<s> h a2	0
-1.600045	<s> h e1	0
-2.429348	<s> h e2	0
-1.475106	<s> h i1ː	-0.1153933
-1.990016	<s> h i2ː	0
-1.827289	<s> h j	0.1119738
-1.323838	<s> h o1	0
-1.48734	<s> h o2	0
-1.688986	<s> h u1ː	-0.158506
-2.429348	<s> h u2ː	0
-2.128319	<s> h æ	-0.7579478
-0.9075568	<s> h æ1	0.08026576
-1.218495	<s> h æ2	-0.04575765
-2.429348	<s> h ɑ	-0.2138798
-1.387956	<s> h ɑ1	0.009760618
-1.350167	<s> h ɑ1ː	0.1448342
-1.709189	<s> h ɑ2	-0.1365828
-1.827289	<s> h ɑ2ː	-0.2498775
-2.730378	<s> h ɑː
-2.429348	<s> h ɔ1	0
-1.39794	<s> h ɔ1ː	-0.1421068
-1.855317	<s> h ɔ2ː	0
-1.730379	<s> h ə	0.03950834
-2.554287	<s> h ɛ
-1.117595	<s> h ɛ1	0.2323138
-1.440344	<s> h ɛ2	0.01099515
-1.88528	<s> h ɜ1ː	-0.4694344
-2.554287	<s> h ɜː	-0.2552725
-2.186311	<s> h ɪ	-0.2430381
-1.28322	<s> h ɪ1	-0.9078892
-1.616435	<s> h ɪ2	0.01639032
-2.031409	<s> h ʊ	-0.672641
-2.031409	<s> h ʊ1	0.1139436
-2.429348	<s> h ʊ2	0
-1.168086	<s> h ʌ1	0.005908489
-1.80096	<s> h ʌ2	0.04575741
-0.1249387	b h ɔ1ː	-0.4250923
-1.113943	d h o	0
-0.5118834	d h æ	-0.6910011
-1.113943	d h ɛ
-0.7160034	d h ɪ1	-0.6499836
-0.1760913	d͡ʒ h ɑ	-0.3388186
-0.2340832	f h a	-0.3258536
-0.7781513	f h æ1	-0.366423
-0.7781513	f h æ2	-0.3631779
-0.1760913	i1ː h o	0
-0.69897	i2ː h a1	-0.350656
-0.8750613	i2ː h i1ː	-0.3458424
-0.69897	i2ː h j	0.1383027
-0.5740313	i2ː h æ1	-0.6766936
-0.8750613	i2ː h ɔ1ː
-0.4771213	k h a	-0.02482361
-0.6532125	k h ɛ	-0.1497623
-0.8129134	l h a	0.1001152
-0.6368221	l h o	0
-0.4771213	m h i1ː	-0.3458424
-0.4771213	m h o	0
-1.491362	n h a	0.1001152
-1.491362	n h e1	0
-1.31527	n h o	0
-0.9472936	n h æ1	-0.6495783
-0.8893017	n h æ2	-0.7697181
-1.31527	n h ɑ1ː	-0.5683769
-1.093422	n h ɔ1ː	-0.6292123
-1.491362	n h ɔː	-0.3222193
-0.750999	n h ɛ1	-0.8864907
-0.6784483	n h ɪ1	-0.9985499
-1.31527	n h ʊ1	-0.3332147
-0.39794	p h o1	0
-0.69897	p h æ2
-1.113943	s h e1	0
-1.290035	s h j	0.2632414
-1.290035	s h o	0
-0.8920946	s h æ1	-0.5882717
-0.9890046	s h ɑ1ː	-0.5261077
-1.113943	s h ɔ1ː	-0.4998644
-0.8129134	s h ɪ1	-0.5984257
-0.7459666	s h ʌ	0.05115253
-1.146128	t h o	0
-1.146128	t h o1	0
-1.146128	t h æ1	-0.366423
-1.146128	t h ɑ1ː	-0.304259
-1.146128	t h ɔː
-1.146128	t h ɛ	-0.1497623
-0.845098	t h ɛ1	-0.5458371
-0.9700368	t h ʊ	-0.3258536
-0.1760913	t͡ʃ h a	-0.5654311
-0.07918125	u2ː h u1ː	-0.3309932
-0.1760913	ð h ɛ1	-0.3916911
-0.9542425	ə h a	-0.1217336
-1.176091	ə h æ	-0.4357286
-1.176091	ə h æ1	-0.4128804
-1.352183	ə h ɑ	-0.3899711
-1.352183	ə h ɑ1ː	-0.304259
-1.176091	ə h ɛ	-0.2747011
-0.3744589	ə h ɛ1	-1.167739
-1.176091	ə h ɪ1	-0.4738923
-1.556303	ɪ h a	0.1001152
-0.6532125	ɪ h a1	-0.6329365
-0.9542425	ɪ h a2	0.05999798
-0.90309	ɪ h e1	0
-1.255273	ɪ h o1	0
-1.255273	ɪ h ɑ1ː	-0.4856791
-0.6268836	ɪ h ɛ1	-1.084321
-1.380211	ɪ h ɜ1ː	-0.5274264
-1.556303	ɪ h ʊ	-0.3258536
-0.69897	ʊ h i1ː
-0.8750613	ʊ h iː
-0.8750613	ʊ h æ1	-0.4519782
-0.5740313	ʊ h ɪ1	-0.5708023
-0.8893017	<s> i1ː g	-0.552842
-0.5882717	<s> i1ː k	-0.8962506
-1.190332	<s> i1ː l	-0.4700015
-1.01424	<s> i1ː s	-0.2533883
-0.4913617	<s> i1ː v	-0.9330531
-1.031408	b i1ː </s>
-1.031408	b i1ː d	-0.5191186
-1.156347	b i1ː f
-1.156347	b i1ː k	-0.4332158
-1.031408	b i1ː m	-0.3309932
-0.9344984	b i1ː n
-0.7303784	b i1ː t	-0.4057654
-1.031408	b i1ː t͡ʃ	-0.1908145
-0.9344984	b i1ː z	-0.7599773
-1.290035	d i1ː f	-0.4423591
-1.290035	d i1ː k
-0.8920946	d i1ː l	-0.1693701
-1.290035	d i1ː m	-0.3309932
-1.290035	d i1ː n
-0.8129134	d i1ː p	-0.3916911
-0.6368221	d i1ː t	-0.9738472
-0.9890046	d i1ː v	-0.539116
-0.60206	d͡ʒ i1ː d	-0.5076388
-0.8239087	d͡ʒ i1ː l	-0.3267354
-0.69897	d͡ʒ i1ː n	-0.5770777
-0.69897	d͡ʒ i1ː z
-1	d͡ʒ i1ː ə
-1.469822	f i1ː b	-0.4227636
-0.925754	f i1ː d	-0.3369426
-0.5947608	f i1ː l	-0.528143
-1.071882	f i1ː m	-0.3309932
-0.9927008	f i1ː n	-0.5676911
-1.168792	f i1ː s	-0.4752371
-0.925754	f i1ː t	-0.4057654
-0.925754	f i1ː t͡ʃ	-0.8209032
-1.168792	f i1ː v	-0.6478175
-0.09691001	g i1ː z	-0.3669586
-0.8846066	h i1ː d	-0.1642845
-0.4586379	h i1ː l	-0.5766127
-1.185637	h i1ː p	-0.4449366
-0.5835766	h i1ː t	-0.1627273
-1.060698	h i1ː v
-0.8239087	k i1ː </s>
-1.124939	k i1ː b	-0.3928004
-1.30103	k i1ː d	-0.28579
-1.124939	k i1ː l
-1	k i1ː m	-0.5563025
-0.60206	k i1ː n	-0.6413632
-0.90309	k i1ː p	-0.2060545
-1.30103	k i1ː v	-0.4486327
-1.30103	k i1ː ɑ	0
-2	l i1ː </s>
-0.9788107	l i1ː d	-0.7739711
-1.823909	l i1ː d͡ʒ
-1.823909	l i1ː f	-0.3409015
-1.60206	l i1ː g	-0.6071997
-1.09691	l i1ː k	-0.4808174
-0.9788107	l i1ː n	-0.8055894
-1.022276	l i1ː p	-0.2989569
-1.124939	l i1ː s	-0.5217493
-0.90309	l i1ː t	-0.6083593
-1.39794	l i1ː t͡ʃ	-0.6448119
-0.7212464	l i1ː v	-0.7459662
-1.154902	l i1ː z	-0.6460339
-2	l i1ː ɹ
-1.60206	l i1ː ʃ
-0.5762527	m i1ː d	-0.9340919
-0.7359536	m i1ː l	-0.5633074
-0.6110148	m i1ː n	-0.1997143
-0.9120448	m i1ː t	-0.1704141
-0.845098	m i1ː z	-0.007936567
-1.20412	n i1ː b	-0.4855545
-0.6812412	n i1ː d	-0.5567182
-0.90309	n i1ː k	-0.2752227
-0.9822713	n i1ː l	-0.5011595
-1.20412	n i1ː s	-0.5788922
-1.380211	n i1ː t	-0.4627868
-1.380211	n i1ː v	-0.4486327
-0.5672979	n i1ː z	-0.7435869
-0.9890046	p i1ː d	-0.5504392
-0.7459666	p i1ː k	-0.9072459
-0.6702458	p i1ː l	-0.697201
-1.290035	p i1ː n	-0.7749928
-1.113943	p i1ː p	-0.359022
-0.9542425	p i1ː s	0.09585375
-1.369216	p i1ː t	-0.2596373
-1.068186	p i1ː t͡ʃ	0.03642935
-0.9890046	p i1ː z	-0.4321541
-1.081587	s i1ː </s>
-0.5587085	s i1ː d	-0.8294885
-1.780557	s i1ː d͡ʒ
-1.956649	s i1ː f	-0.4423591
-1.41258	s i1ː k	-0.1376949
-1.655619	s i1ː l	-0.1506441
-1.111551	s i1ː m	0.03621218
-1.655619	s i1ː n	-0.2956012
-1.956649	s i1ː o2	0
-1.780557	s i1ː p
-1.143735	s i1ː s	-0.6575773
-1.178497	s i1ː t	-0.5729017
-1.780557	s i1ː t͡ʃ
-0.8263148	s i1ː v	-0.6210278
-1.956649	s i1ː w
-1.178497	s i1ː z	-0.2103052
-1.956649	s i1ː ə	-0.3802113
-1.956649	s i1ː ɪ	0.1249388
-1.274158	t i1ː </s>
-1.672098	t i1ː b	-0.4227636
-1.496007	t i1ː d	-0.28579
-1.496007	t i1ː g	-0.3309932
-1.371068	t i1ː k	-0.2925968
-1.12803	t i1ː l	0.004257828
-0.8269998	t i1ː m	-0.69897
-0.6307052	t i1ː n	-0.5505701
-0.9317352	t i1ː p	-0.4692959
-1.496007	t i1ː s	-0.2533883
-1.194977	t i1ː t	-0.4509685
-1.274158	t i1ː t͡ʃ	-0.4771212
-1.274158	t i1ː z	-0.3529729
-1.672098	t i1ː ð
-1.113943	t͡ʃ i1ː f
-0.9378521	t͡ʃ i1ː k	-0.3843672
-0.4149733	t͡ʃ i1ː p	-0.3874745
-0.8129134	t͡ʃ i1ː t	-0.1221094
-0.9378521	t͡ʃ i1ː v	-0.3357921
-0.9378521	t͡ʃ i1ː z
-0.7231037	v i1ː l	-0.6794723
-0.2459824	v i1ː n	-0.6272768
-0.9661418	v i1ː t	-0.5877256
-1.267172	v i1ː z	-0.4438399
-1.39794	w i1ː </s>
-1.029963	w i1ː d	-0.3604237
-0.8750613	w i1ː k	-0.6989698
-0.9208187	w i1ː l	-0.2535035
-0.8336686	w i1ː n	-0.7861692
-1.273001	w i1ː p	-0.5038555
-0.79588	w i1ː t	-0.1135092
-1.176091	w i1ː v	-0.5898256
-1.39794	w i1ː w	-0.30103
-0.9719713	w i1ː z	-0.1908673
-1.574031	w i1ː ð
-1.69897	ɹ i1ː </s>
-1.875061	ɹ i1ː b	-0.2466723
-1.014723	ɹ i1ː d	-0.2730012
-2.176091	ɹ i1ː d͡ʒ	-0.1760913
-1.330993	ɹ i1ː f	-0.6342448
-1.875061	ɹ i1ː g	-0.455932
-2.176091	ɹ i1ː h
-1.115393	ɹ i1ː k	-0.3554184
-1.522879	ɹ i1ː l	-0.3828515
-1.09691	ɹ i1ː m	-0.3132645
-0.9857596	ɹ i1ː n	-0.08289045
-1.632023	ɹ i1ː p	-0.2566109
-1.221849	ɹ i1ː s	-0.09578049
-0.8860567	ɹ i1ː t	-0.6746106
-1.154902	ɹ i1ː t͡ʃ	-0.03591245
-1.198368	ɹ i1ː v	-0.9187458
-1.045758	ɹ i1ː z	-0.4057018
-1.69897	ɹ i1ː ð	-0.30103
-2	ɹ i1ː ə	-0.1760913
-2	ɹ i1ː ɪ	0.1249388
-1.632023	ɹ i1ː ʃ	-0.3590218
-0.9777236	ʃ i1ː </s>
-0.9777236	ʃ i1ː l
-0.5797836	ʃ i1ː n	-0.1289662
-0.5006024	ʃ i1ː p	-0.4559319
-0.9777236	ʃ i1ː t
-0.544068	θ i1ː d	-0.4721005
-0.243038	θ i1ː v	-0.5228788
-0.860338	<s> i2ː k	-0.2575643
-1.161368	<s> i2ː t
-0.3832167	<s> i2ː v	-0.8527848
-0.559308	<s> i2ː z	-0.4036923
-0.1026623	b i2ː t	-0.3490914
-0.9777236	b i2ː v	-0.4191293
-1.845098	d i2ː a1	0
-1.367977	d i2ː b	-0.2340832
-1.845098	d i2ː d
-1	d i2ː f	-0.9912262
-1.669007	d i2ː g	-0.4471581
-1.447158	d i2ː h	-0.30103
-0.69897	d i2ː k	-1.106321
-1.544068	d i2ː l	-0.251056
-0.8239087	d i2ː m	-0.9700366
-1.544068	d i2ː n	-0.5631419
-1.104735	d i2ː p	-0.6434526
-1	d i2ː s	-0.9797965
-1.367977	d i2ː t	-0.7293026
-1.544068	d i2ː v	-0.6251838
-1.845098	d i2ː ɛ
-1.669007	d i2ː ɛ1	-0.4259688
-1.146128	d i2ː ɹ	-0.4130037
-0.1760913	d͡ʒ i2ː n
-0.4771213	f i2ː d
-0.4771213	f i2ː l	-0.4271473
-0.2632414	h i2ː l	-0.4054281
-0.5642715	h i2ː v	-0.4490925
-1.021189	k i2ː d	-0.4345689
-0.845098	k i2ː l	-0.394147
-0.146128	k i2ː p	-0.2852357
-0.6585413	l i2ː d	-0.5843313
-1.311754	l i2ː f	-0.4593925
-1.311754	l i2ː g	-0.3802113
-1.010724	l i2ː k	-0.5642715
-0.7676858	l i2ː n	-0.7739953
-0.7676858	l i2ː p	-0.3222193
-0.9138138	l i2ː v	-0.19382
-1.311754	l i2ː ʃ
-0.6532125	m i2ː l	-0.4054281
-0.1760913	m i2ː t	-0.095058
-0.39794	n i2ː k	-0.4393327
-0.39794	n i2ː o	0
