
\data\
ngram 1=76
ngram 2=2170
ngram 3=11561
ngram 4=23671
ngram 5=26739
ngram 6=22070
ngram 7=15729
ngram 8=10337
ngram 9=6316

\1-grams:
-0.9060277	</s>
-99	<s>	-1.857579
-2.33047	a	-2.698099
-2.01265	a1	-3.015713
-2.759914	a2	-2.269304
-1.711805	b	-0.3787036
-1.520317	d	-0.08674598
-2.173917	d͡ʒ	-0.4519219
-2.389727	e	-2.949535
-1.975603	e1	-3.36366
-3.017676	e2	-2.321587
-1.800078	f	-0.5456274
-1.982625	g	-0.2485787
-2.174185	h	-1.351416
-2.100768	i1ː	-1.064348
-2.758881	i2ː	-0.4541284
-2.842834	iː	-0.3568528
-2.086498	j	-1.691672
-1.393269	k	-0.6429136
-1.280558	l	-0.2620394
-1.58777	m	-0.4966187
-1.242687	n	-0.8296136
-2.247713	o	-3.126381
-2.224198	o1	-3.149896
-2.863336	o2	-2.510758
-1.569316	p	-0.2668089
-1.279428	s	-0.5620165
-1.244009	t	-0.7358652
-2.358268	t͡ʃ	-0.1063242
-2.229348	u1ː	-0.9901384
-3.181767	u2ː	-0.5692539
-2.745674	uː	-0.4845315
-1.97323	v	-0.3937056
-2.058059	w	-1.487996
-2.050321	z	-0.5026429
-2.506946	æ	-1.375986
-1.842084	æ1	-1.926456
-4.906046	æ1ː	-0.2716674
-2.534974	æ2	-1.286907
-2.958282	ð	-0.6028342
-2.086937	ŋ	-1.027798
-2.673893	ɑ	-1.152045
-1.994352	ɑ1	-1.717269
-2.298587	ɑ1ː	-1.133441
-2.684193	ɑ2	-1.119719
-3.069296	ɑ2ː	-0.7317047
-2.769322	ɑː	-0.8347598
-5.082139	ɒ1ː	-0.2754546
-4.906046	ɒ2ː	-0.4657532
-4.428922	ɒː	-0.5227343
-3.438681	ɔ	-1.900582
-3.060944	ɔ1	-2.278318
-2.220898	ɔ1ː	-1.143509
-4.383164	ɔ2	-0.9560992
-3.115992	ɔ2ː	-0.7467897
-2.77038	ɔː	-0.9546386
-1.194404	ə	-2.291074
-2.618987	ɛ	-1.192284
-1.778074	ɛ1	-1.91152
-2.506368	ɛ2	-1.192916
-2.388846	ɜ1ː	-1.294521
-3.249624	ɜ2ː	-0.6738878
-3.118345	ɜː	-0.8362563
-1.017077	ɪ	-1.326552
-1.770803	ɪ1	-1.893981
-2.413748	ɪ2	-1.214413
-1.298909	ɹ	-2.12063
-1.964034	ʃ	-0.3574078
-1.684715	ʊ	-0.7518512
-2.790987	ʊ1	-1.002889
-3.318706	ʊ2	-0.8811081
-2.820871	ʌ	-1.164242
-2.079751	ʌ1	-1.712049
-2.714777	ʌ2	-1.115407
-3.25283	ʒ	-0.6710438
-2.513345	θ	-0.4266472

\2-grams:
-2.933993	<s> a	1.484874
-2.325773	<s> a1	1.212327
-2.921759	<s> a2	1.044497
-1.227154	<s> b	-0.6520354
-1.233289	<s> d	-0.9693611
-1.839572	<s> d͡ʒ	-0.573022
-3.478061	<s> e	1.952044
-2.585967	<s> e1	1.509934
-3.046697	<s> e2	0.9183301
-1.300813	<s> f	-0.9834203
-1.607657	<s> g	-0.7201585
-1.426137	<s> h	-0.2341605
-2.69991	<s> i1ː	-0.1737054
-2.909859	<s> i2ː	-0.5263731
-3.523819	<s> iː	-0.2703705
-2.145623	<s> j	-0.3699687
-1.035895	<s> k	-1.208035
-1.461028	<s> l	-0.8943781
-1.284102	<s> m	-0.8738669
-1.619524	<s> n	-1.126079
-3.273941	<s> o	1.905002
-2.465224	<s> o1	1.141932
-2.341341	<s> o2	0.3799491
-1.08256	<s> p	-0.9735103
-0.9209151	<s> s	-1.186442
-1.338182	<s> t	-1.070513
-2.038728	<s> t͡ʃ	-0.8173697
-3.632963	<s> u1ː	-0.2735982
-4.478061	<s> u2ː
-1.834609	<s> v	-0.6722265
-1.537047	<s> w	-0.7625573
-2.729873	<s> z	-0.4589571
-2.523819	<s> æ	-0.01312017
-1.988103	<s> æ1	0.2707356
-2.183595	<s> æ2	0.009923697
-2.824849	<s> ð	-0.5016047
-3.116333	<s> ɑ	-0.2175667
-2.413603	<s> ɑ1	-0.2592344
-2.51902	<s> ɑ1ː	-0.2053722
-2.707209	<s> ɑ2	-0.3631535
-2.9867	<s> ɑ2ː	-0.2369562
-3.09785	<s> ɑː	-0.3420122
-4.177031	<s> ɒ2ː	0
-3.135638	<s> ɔ1	0.9604915
-2.482426	<s> ɔ1ː	-0.1717542
-3.015663	<s> ɔ2ː	-0.0697439
-2.834609	<s> ɔː	-0.246647
-1.666486	<s> ə	-0.1436744
-2.815303	<s> ɛ	-0.520778
-2.08361	<s> ɛ1	-0.2703419
-2.36079	<s> ɛ2	0.1680856
-2.933993	<s> ɜ1ː	-0.2727646
-4.478061	<s> ɜ2ː
-4.00094	<s> ɜː	-0.5680248
-1.446653	<s> ɪ	-1.416466
-2.129756	<s> ɪ1	-0.6401606
-1.933993	<s> ɪ2	-1.362596
-1.284102	<s> ɹ	-1.041823
-1.90172	<s> ʃ	-0.8430164
-3.779091	<s> ʊ1	-0.09733766
-2.456872	<s> ʌ	-0.8361253
-2.533579	<s> ʌ1	-0.3862309
-2.064761	<s> ʌ2	-1.017154
-4.177031	<s> ʒ
-2.199308	<s> θ	-0.655717
-0.07856675	a ɪ	-0.5838774
-0.7859067	a ʊ	-0.7122167
-0.1394835	a1 ɪ	-0.6902056
-0.5624871	a1 ʊ	-0.7091366
-0.1603891	a2 ɪ	-0.5061106
-0.5170721	a2 ʊ	-0.7903616
-1.492733	b </s>
-1.929236	b a	1.289648
-1.718383	b a1	1.402207
-2.200303	b a2	1.119131
-2.473305	b d	0.07113087
-2.355205	b d͡ʒ	-0.3177308
-2.398671	b e	1.692406
-1.704297	b e1	1.429837
-2.774334	b e2	1.411246
-3.677424	b f
-3.376395	b g
-3.075364	b h
-1.78533	b i1ː	-0.0225448
-2.636032	b i2ː	-0.1269491
-2.297213	b iː	-0.03600994
-1.779797	b j	-0.1994261
-2.531296	b k	-0.3109923
-0.6566489	b l	-0.1663234
-2.978454	b m	-0.03636209
-2.677424	b n	-0.2379812
-1.820092	b o	1.272128
-1.85135	b o1	1.326456
-3.200303	b o2	1.917768
-3.376395	b p	-0.4675789
-1.737905	b s	-0.4353725
-2.501333	b t	-0.2156007
-1.987228	b u1ː	-0.2291267
-2.774334	b u2ː	-0.4649553
-2.978454	b uː	-0.118527
-2.899273	b v	-0.239619
-2.774334	b w	-0.2651764
-2.598243	b z	-0.3374593
-1.832326	b æ	-0.301443
-1.394123	b æ1	-0.2058557
-2.215026	b æ2	-0.1531082
-2.064641	b ɑ	-0.4754794
-1.616727	b ɑ1	0.106852
-1.790934	b ɑ1ː	0.1767609
-2.531296	b ɑ2	-0.1981166
-2.978454	b ɑ2ː	-0.1264734
-2.279485	b ɑː	-0.3291841
-3.376395	b ɒː	-0.3899711
-2.355205	b ɔ	0.60206
-2.230266	b ɔ1	0.8598213
-1.814102	b ɔ1ː	-0.1200007
-3.677424	b ɔ2
-2.899273	b ɔ2ː	-0.2827326
-1.774334	b ɔː	-0.861117
-1.186063	b ə	-0.1555915
-2.158911	b ɛ	-0.08323735
-1.560153	b ɛ1	-0.309049
-2.186063	b ɛ2	-0.3528553
-1.945031	b ɜ1ː	-0.3272847
-2.978454	b ɜ2ː	-0.3384216
-2.215026	b ɜː	-0.449335
-1.179114	b ɪ	-0.1862676
-1.378571	b ɪ1	-0.4643999
-2.531296	b ɪ2	-0.2256931
-1.043956	b ɹ	-0.4762257
-3.677424	b ʃ
-2.215026	b ʊ	-0.6046685
-1.953149	b ʊ1	-0.142907
-2.899273	b ʊ2	-0.1795518
-2.315697	b ʌ	-0.1516045
-1.556851	b ʌ1	-0.05364126
-2.446975	b ʌ2	-0.2129931
-3.677424	b θ
-0.5602757	d </s>
-1.947623	d a	1.123657
-1.871066	d a1	1.366369
-2.18546	d a2	0.9253106
-2.074309	d b	-0.02386969
-2.752757	d d	-0.05596244
-3.866701	d d͡ʒ
-2.142425	d e	1.261043
-1.922218	d e1	1.458171
-3.264641	d e2	1.666518
-2.176505	d f	-0.3016512
-3.021603	d g	-0.1716952
-2.419543	d h	-0.1140675
-2.047157	d i1ː	-0.2126414
-2.047157	d i2ː	-0.1410992
-2.524278	d iː	-0.1070336
-1.628655	d j	-0.4725357
-2.233232	d k	-0.2355605
-1.299674	d l	-0.6428807
-2.18546	d m	-0.353476
-1.711365	d n	-0.390801
-2.021603	d o	1.284192
-2.322633	d o1	1.602663
-3.38958	d o2	1.917768
-2.524278	d p	-0.1504749
-2.159131	d s	-0.2218949
-2.720573	d t	-0.2152389
-3.565671	d t͡ʃ
-2.468761	d u1ː	-0.2979576
-3.866701	d u2ː
-3.021603	d uː	-0.1107016
-2.275636	d v	-0.268366
-2.18546	d w	-0.2344192
-2.015442	d z	-0.5611013
-2.48649	d æ	-0.2404777
-1.958216	d æ1	-0.2206441
-3.38958	d æ2	-0.5792459
-3.866701	d ð
-2.611428	d ɑ	-0.4332816
-1.893573	d ɑ1	-0.1136861
-2.404303	d ɑ1ː	-0.3430091
-2.662581	d ɑ2	-0.326176
-3.565671	d ɑ2ː	-0.4674051
-2.825308	d ɑː	-0.2475788
-3.565671	d ɔ	1.467361
-3.565671	d ɔ1	1.845098
-2.310398	d ɔ1ː	-0.2914356
-3.565671	d ɔ2ː
-2.787519	d ɔː	-0.482917
-1.049135	d ə	0.3386703
-2.587947	d ɛ	-0.09226966
-1.548637	d ɛ1	0.1037332
-2.243451	d ɛ2	0.1051947
-2.787519	d ɜ1ː	-0.2424915
-3.38958	d ɜ2ː	-0.5505502
-3.38958	d ɜː	-0.1830671
-0.7554383	d ɪ	0.1985599
-1.536287	d ɪ1	0.5297995
-1.739596	d ɪ2	-0.6796126
-1.380979	d ɹ	-0.3474246
-2.636252	d ʃ	-0.232408
-3.38958	d ʊ	-0.1945659
-2.544482	d ʌ	-0.3712385
-1.780341	d ʌ1	-0.27552
-2.524278	d ʌ2	-0.6460552
-3.167731	d θ	-0.5194734
-0.7107972	d͡ʒ </s>
-2.378917	d͡ʒ a	-0.1218532
-1.945261	d͡ʒ a1	2.048471
-3.224015	d͡ʒ a2
-2.746894	d͡ʒ b	-0.1807116
-2.077887	d͡ʒ d	-0.5871881
-3.224015	d͡ʒ e
-2.320925	d͡ʒ e1	2.453318
-2.378917	d͡ʒ f	-0.2777535
-2.922985	d͡ʒ g	-0.3814743
-2.922985	d͡ʒ h
-1.655813	d͡ʒ i1ː	-0.2954852
-2.144834	d͡ʒ i2ː	-0.295903
-2.746894	d͡ʒ iː	-0.5471673
-2.922985	d͡ʒ j	-0.3706539
-2.746894	d͡ʒ k
-2.320925	d͡ʒ l	-0.2157181
-1.993566	d͡ʒ m	-0.7288499
-2.922985	d͡ʒ n
-2.445863	d͡ʒ o	2.290353
-2.110071	d͡ʒ o1	2.012837
-3.224015	d͡ʒ o2
-2.621955	d͡ʒ p
-2.746894	d͡ʒ s
-1.644231	d͡ʒ u1ː	-0.3487223
-2.621955	d͡ʒ u2ː
-2.224015	d͡ʒ uː	-0.4408616
-3.224015	d͡ʒ v
-2.621955	d͡ʒ w	-0.1315991
-2.269772	d͡ʒ æ	-0.4677854
-1.590546	d͡ʒ æ1	-0.2779039
-2.110071	d͡ʒ æ2	-0.6297883
-1.746894	d͡ʒ ɑ1	-0.1031992
-2.320925	d͡ʒ ɑ1ː	-0.1743672
-2.922985	d͡ʒ ɑ2
-2.746894	d͡ʒ ɑ2ː	-0.5943046
-3.224015	d͡ʒ ɔ
-1.881592	d͡ʒ ɔ1	0.9604915
-1.993566	d͡ʒ ɔ1ː	-0.2710668
-2.621955	d͡ʒ ɔː	-0.06735249
-0.8737668	d͡ʒ ə	-0.2372389
-2.077887	d͡ʒ ɛ	-0.1497148
-1.103441	d͡ʒ ɛ1	-0.5863333
-2.144834	d͡ʒ ɛ2	-0.348132
-2.019895	d͡ʒ ɜ1ː	-0.5638394
-2.621955	d͡ʒ ɜ2ː	-0.2714747
-0.7188649	d͡ʒ ɪ	-0.2512156
-1.348954	d͡ʒ ɪ1	-0.2608824
-2.922985	d͡ʒ ɪ2
-2.922985	d͡ʒ ɹ
-3.224015	d͡ʒ ʃ
-1.679947	d͡ʒ ʊ	-0.6313731
-2.378917	d͡ʒ ʊ1	-0.7128652
-2.922985	d͡ʒ ʊ2	-0.2833012
-2.621955	d͡ʒ ʌ	-0.2870568
-1.483652	d͡ʒ ʌ1	-0.768822
-2.746894	d͡ʒ ʌ2	-0.2035214
-0.0004411321	e ɪ	-0.6165452
-0.000169945	e1 ɪ	-0.7236201
-0.001876005	e2 ɪ	0.1730014
-1.144345	f </s>
-1.66567	f a	1.118578
-1.510768	f a1	1.28433
-2.311196	f a2	1.302061
-2.38583	f b	-0.02855681
-2.744852	f d	-0.21716
-2.26773	f e	1.651014
-1.660531	f e1	1.473062
-2.89098	f e2	1.587337
-2.443822	f g	-0.4186184
-2.58995	f h	-0.1540766
-1.819098	f i1ː	0.01142949
-2.811798	f i2ː	-0.07949721
-2.28892	f iː	-0.3098211
-1.66567	f j	0.01489711
-2.311196	f k	-0.2014965
-1.028848	f l	-0.156119
-2.89098	f m	-0.100379
-2.26773	f n	-0.3342723
-1.882379	f o	1.419447
-1.849587	f o1	1.410777
-2.38583	f o2	1.289379
-2.58995	f p	-0.04615737
-2.0848	f s	0.08207694
-1.380435	f t	-0.2145713
-2.443822	f u1ː	-0.326087
-3.58995	f uː
-2.58995	f w	-0.2059203
-2.476006	f æ	0.01554301
-1.507164	f æ1	-0.2332884
-2.58995	f æ2	-0.01324213
-3.112828	f ð	-0.3144399
-2.89098	f ɑ	-0.09498598
-1.819098	f ɑ1	-0.5719953
-2.142792	f ɑ1ː	-0.4688269
-2.548557	f ɑ2	-0.2940001
-2.443822	f ɑ2ː	-0.3125432
-2.68686	f ɑː	-0.3639462
-2.89098	f ɔ	1.166331
-3.28892	f ɔ1	1.845098
-1.332271	f ɔ1ː	0.1204082
-2.38583	f ɔ2ː	-0.141382
-1.797558	f ɔː	-0.2439483
-1.224462	f ə	0.1711872
-2.311196	f ɛ	-0.3161598
-1.38583	f ɛ1	-0.2004622
-2.510768	f ɛ2	-0.1383027
-1.857556	f ɜ1ː	-0.214886
-2.68686	f ɜ2ː	-0.4448389
-3.58995	f ɜː
-1.061033	f ɪ	-0.3555014
-1.320437	f ɪ1	-0.4216002
-2.098588	f ɪ2	-0.4294752
-1.080747	f ɹ	-0.4303902
-2.89098	f ʃ	-0.1975989
-1.282454	f ʊ	-1.87948
-2.010166	f ʊ1	-1.181055
-2.311196	f ʊ2	-0.9242793
-3.58995	f ʌ
-1.811798	f ʌ1	-0.306726
-3.112828	f ʌ2
-2.68686	f θ	-0.09490353
-1.099023	g </s>
-2.632626	g a	2.149986
-1.948379	g a1	1.879328
-2.565679	g a2	-0.3927513
-2.632626	g b	-0.08052802
-2.264649	g d	-0.4842398
-3.410777	g d͡ʒ
-1.787528	g e	1.359968
-1.597864	g e1	1.588017
-2.933656	g e2	1.763428
-2.933656	g f
-2.632626	g h	-0.301226
-2.808717	g i1ː	-0.2695825
-3.410777	g iː
-1.738679	g j	-0.7517041
-2.808717	g k
-0.9544112	g l	-0.06063175
-1.879298	g m	-0.4806904
-1.424006	g n	-0.6794015
-1.618386	g o	1.33611
-1.711807	g o1	1.451395
-2.369385	g o2	1.440647
-2.632626	g p	-0.2172038
-2.808717	g s
-2.711807	g t	-0.06934598
-2.264649	g u1ː	-0.1946842
-3.410777	g uː
-1.797993	g w	-0.5626707
-1.529964	g z	-0.2027156
-2.369385	g æ	-0.1620805
-1.496963	g æ1	-0.2714249
-2.331596	g æ2	-0.172674
-2.369385	g ɑ	-0.2302423
-1.703207	g ɑ1	-0.2847506
-1.720581	g ɑ1ː	-0.4354019
-2.808717	g ɑ2	-0.02202529
-2.711807	g ɑ2ː	-0.1722308
-2.088558	g ɑː	-0.3463259
-3.410777	g ɔ
-3.410777	g ɔ1
-1.879298	g ɔ1ː	-0.1660371
-3.109747	g ɔ2ː	-0.457427
-0.9264774	g ə	-0.08321309
-3.410777	g ɛ
-1.892263	g ɛ1	-0.2221297
-3.410777	g ɛ2
-2.296834	g ɜ1ː	-0.2794007
-3.109747	g ɜ2ː
-2.507687	g ɜː	-0.4981835
-1.496963	g ɪ	-0.248095
-1.777309	g ɪ1	-0.2952439
-2.410777	g ɪ2	-0.5801261
-0.7040594	g ɹ	-0.6814969
-3.109747	g ʃ
-2.933656	g ʊ	-0.2037322
-2.331596	g ʊ1	-0.3118582
-2.410777	g ʊ2	-1.00518
-2.296834	g ʌ	-0.173217
-1.720581	g ʌ1	-0.3924456
-3.410777	g ʌ2
-2.933656	g ʒ	-0.5932861
-1.421291	h a	1.240163
-1.191247	h a1	1.333263
-1.513061	h a2	0.9000047
-3.220631	h e
-1.53939	h e1	1.717365
-3.220631	h e2
-1.457203	h i1ː	-0.1978556
-2.618571	h i2ː	-0.2746418
-2.521661	h iː	-0.1010482
-1.597382	h j	-0.6249694
-3.220631	h m
-1.629566	h o	1.533391
-1.363299	h o1	1.295642
-1.898412	h o2	1.177405
-1.789267	h u1ː	-0.1259233
-2.74351	h u2ː
-2.919601	h uː
-1.789267	h æ	-0.3955206
-1.024731	h æ1	-0.09241468
-1.773473	h æ2	-0.3228641
-2.14145	h ɑ	-0.26853
-1.312146	h ɑ1	-0.2299908
-1.183205	h ɑ1ː	-0.3137513
-2.14145	h ɑ2	-0.4193922
-1.607847	h ɑ2ː	-0.656676
-2.106688	h ɑː	-0.328781
-2.618571	h ɔ1	1.623249
-1.449779	h ɔ1ː	-0.1778898
-3.220631	h ɔ2
-2.44248	h ɔ2ː	-0.06968874
-1.919601	h ɔː	-0.3999647
-1.965358	h ə	-0.5644791
-1.587163	h ɛ	-0.4186953
-1.059263	h ɛ1	-0.394659
-1.74351	h ɛ2	-0.2742414
-1.878208	h ɜ1ː	-0.1981548
-2.266388	h ɜː	-0.1544653
-1.878208	h ɪ	-0.4188947
-1.407718	h ɪ1	-0.2216005
-1.941877	h ɪ2	-0.1880985
-1.822691	h ʊ	-0.5891465
-2.220631	h ʊ1	-0.4030444
-2.74351	h ʌ	-0.2078756
-1.281112	h ʌ1	-0.1955412
-2.618571	h ʌ2	-0.3384071
-1.058917	i1ː </s>
-1.826968	i1ː b	-0.1615296
-1.058917	i1ː d	-0.3902501
-1.812245	i1ː d͡ʒ	-0.2085901
-3.289366	i1ː e
-1.617268	i1ː f	-0.2206669
-1.709582	i1ː g	-0.12795
-2.511215	i1ː h	-0.1477887
-3.289366	i1ː j
-1.071882	i1ː k	-0.5283219
-1.143238	i1ː l	-0.3322472
-1.380881	i1ː m	-0.3259925
-0.9201501	i1ː n	-0.445628
-2.335124	i1ː o	2.135451
-1.359947	i1ː p	-0.3088991
-1.113275	i1ː s	-0.2137944
-1.066649	i1ː t	-0.2642141
-1.59917	i1ː t͡ʃ	-0.2505674
-1.335123	i1ː v	-0.481362
-2.113275	i1ː w	-0.321055
-1.155827	i1ː z	-0.3991597
-3.289366	i1ː æ2
-2.687306	i1ː ð	0.1414921
-2.988336	i1ː ɑ
-1.812245	i1ː ə	-0.3959584
-3.289366	i1ː ɜ2ː
-2.210185	i1ː ɪ	-0.6174736
-2.444268	i1ː ɹ	-0.03738846
-1.874393	i1ː ʃ	0.1231855
-3.289366	i1ː ʌ
-2.687306	i1ː ʒ	0.004657343
-2.143238	i1ː θ	-0.2560673
-2.058805	i2ː a	0.08226681
-2.359835	i2ː a1	0.08401707
-1.706623	i2ː b	-0.07034978
-1.245892	i2ː d	-0.2289799
-1.757776	i2ː d͡ʒ	-0.1499999
-2.058805	i2ː e	2.294466
-1.338646	i2ː f	-0.1255031
-1.882714	i2ː g	-0.1443172
-1.706623	i2ː h	-0.1009674
-2.660866	i2ː i1ː
-2.359835	i2ː iː
-1.961895	i2ː j	-0.3297166
-0.9618955	i2ː k	-0.2540393
-1.484774	i2ː l	-0.07195395
-1.229502	i2ː m	-0.1006268
-1.245892	i2ː n	-0.07785642
-1.882714	i2ː o	2.290353
-1.081082	i2ː p	-0.2724932
-1.142352	i2ː s	-0.1329753
-1.129387	i2ː t	-0.211006
-2.660866	i2ː t͡ʃ
-1.405593	i2ː v	-0.111401
-2.058805	i2ː w	-0.2802128
-1.706623	i2ː z	-0.4800069
-2.660866	i2ː æ
-2.660866	i2ː ɑ1
-2.660866	i2ː ɑ1ː
-2.660866	i2ː ɑː
-2.660866	i2ː ɔ1ː
-2.660866	i2ː ɔː
-1.484774	i2ː ə	-0.07413243
-2.058805	i2ː ɛ	-0.2037567
-1.757776	i2ː ɛ1	-0.3628247
-1.882714	i2ː ɪ	-0.2136298
-2.359835	i2ː ɪ1	-0.4538335
-1.660865	i2ː ɹ	-0.2241589
-1.961895	i2ː ʃ	-0.2701875
-1.882714	i2ː θ	-0.2083395
-0.9254267	iː </s>
-1.976579	iː a1	-0.1620563
-2.578639	iː b
-1.163666	iː d	-0.3239467
-2.277609	iː d͡ʒ	-0.4674203
-1.624397	iː e1	2.407561
-1.578639	iː f	-0.5697379
-2.277609	iː g	-0.4630663
-2.578639	iː h
-1.879669	iː k
-1.087278	iː l	-0.8151822
-1.180699	iː m	-0.3834175
-0.8304512	iː n	-0.6443055
-1.733541	iː p	-0.3316857
-1.131481	iː s	-0.4922247
-1.180699	iː t	-0.3067119
-1.402548	iː v	-0.1623758
-1.147275	iː z	-0.6354151
-2.578639	iː æ
-2.277609	iː æ1
-2.578639	iː ɑ1
-2.578639	iː ɑ2
-2.578639	iː ɔ1ː
-2.578639	iː ɔ2ː
-1.879669	iː ɛ1	-0.2260543
-2.578639	iː ɪ
-2.101518	iː ɪ1	-0.1829274
-2.101518	iː ɪ2
-2.277609	iː ɹ	-0.4674278
-2.277609	iː ʃ	-0.4258271
-2.578639	iː ʌ
-2.277609	iː ʒ	-0.4712917
-2.578639	iː θ
-2.826075	j a1	-0.4630863
-3.002166	j e	2.516315
-2.701136	j e1	2.708591
-3.303196	j e2
-2.458098	j i1ː	-0.3226227
-2.604226	j o	2.357299
-2.400106	j o1	2.204723
-3.303196	j o2
-0.5740313	j u1ː	-0.01758277
-1.510804	j u2ː	0.007801175
-0.9104991	j uː	0.02618724
-3.303196	j æ
-2.348953	j æ1	-0.1872109
-3.303196	j æ2
-2.157068	j ɑ1	-0.3703335
-2.400106	j ɑ1ː	-0.5977517
-2.348953	j ɑː	-0.5154945
-3.303196	j ɒː
-2.189253	j ɔ1ː	-0.1827743
-2.701136	j ɔː	-0.3809716
-0.6627146	j ə	-0.5104484
-2.826075	j ɛ	-0.1718748
-2.002166	j ɛ1	-0.4249255
-2.826075	j ɛ2	-0.5760466
-2.701136	j ɜ1ː	-0.4080105
-2.303196	j ɪ1	-0.3767436
-3.002166	j ɪ2	-0.4561817
-0.6717523	j ʊ	-0.7596513
-1.303196	j ʊ1	-1.123642
-1.811834	j ʊ2	-1.31133
-2.604226	j ʌ1	-0.3440081
-0.8219262	k </s>
-2.650352	k a	1.672865
-1.899353	k a1	1.27032
-2.762326	k a2	1.345527
-2.359306	k b	-0.05339122
-2.846646	k d	-0.05148138
-3.691744	k d͡ʒ
-2.010503	k e	1.006665
-1.718616	k e1	1.131099
-3.147676	k e2	1.462398
-2.788654	k f	-0.09969217
-3.691744	k g
-2.631047	k h	-0.3957203
-2.40171	k i1ː	-0.1653346
-3.147676	k i2ː	-0.2634138
-3.515653	k iː	-0.166956
-1.598323	k j	-0.8413188
-2.846646	k k	-0.125176
-1.125307	k l	-0.2693824
-2.631047	k m	-0.2245033
-2.200383	k n	-0.466684
-1.882185	k o	1.021507
-1.997139	k o1	1.158965
-2.530376	k o2	1.042707
-2.714021	k p	-0.1749163
-1.161545	k s	-0.3178573
-1.223397	k t	-0.3092046
-2.330017	k t͡ʃ	-0.687553
-2.260381	k u1ː	-0.3021705
-3.691744	k u2ː	-0.4649554
-2.992774	k uː	-0.08905198
-1.371598	k w	-0.09211868
-2.229346	k æ	-0.2403291
-1.53793	k æ1	-0.2081476
-2.2369	k æ2	-0.1089442
-2.117713	k ɑ	-0.1804396
-1.382114	k ɑ1	0.1493069
-1.951382	k ɑ1ː	-0.04453099
-1.892404	k ɑ2	-0.304572
-2.992774	k ɑ2ː	-0.1741653
-2.2369	k ɑː	-0.6426573
-3.992774	k ɒ1ː
-3.691744	k ɔ	1.467361
-2.913593	k ɔ1	1.208276
-1.785949	k ɔ1ː	-0.2297927
-3.038532	k ɔ2ː	0.006466053
-2.436472	k ɔː	-0.003730536
-0.8640521	k ə	-0.1547476
-3.147676	k ɛ	-0.1463207
-2.193434	k ɛ1	-0.4025801
-3.691744	k ɛ2
-2.276771	k ɜ1ː	-0.1616061
-3.691744	k ɜ2ː
-3.293804	k ɜː	-0.1458161
-1.37999	k ɪ	-0.2035117
-2.019646	k ɪ1	-0.2991691
-2.951382	k ɪ2	-0.2246562
-1.168648	k ɹ	-0.6507802
-1.796875	k ʃ	-0.6034948
-3.691744	k ʊ
-2.762326	k ʊ1	-0.363561
-3.390714	k ʊ2	-0.4593925
-2.390714	k ʌ	-0.6219376
-1.676804	k ʌ1	-0.1712947
-2.501413	k ʌ2	-0.06458169
-3.293804	k θ	-0.05091415
-0.6807027	l </s>
-1.791064	l a	0.735013
-1.641038	l a1	0.9038224
-2.492147	l a2	0.9908119
-2.21844	l b	-0.0767585
-1.644033	l d	-0.2370345
-2.599781	l d͡ʒ	-0.115559
-2.011509	l e	0.8965263
-1.659327	l e1	0.9604027
-2.900811	l e2	1.135039
-1.961916	l f	-0.2208204
-2.743203	l g	-0.1576494
-2.743203	l h	-0.2306948
-1.793177	l i1ː	-0.09921396
-2.874482	l i2ː	-0.2335009
-2.613569	l iː	-0.2808812
-1.981079	l j	-0.4130221
-2.104931	l k	-0.1485814
-2.782712	l l	-0.1760702
-2.165411	l m	-0.3348439
-2.141143	l n	-0.7454238
-1.91741	l o	0.9451189
-1.861893	l o1	0.9134526
-2.849658	l o2	1.241074
-2.32678	l p	-0.1851814
-2.127207	l s	-0.09433329
-1.68829	l t	-0.002393901
-2.849658	l t͡ʃ	-0.2664914
-1.852078	l u1ː	-0.06357354
-2.874482	l u2ː	-0.07250965
-2.762508	l uː	-0.3032367
-2.405961	l v	-0.1993304
-2.689957	l w	-0.2964984
-2.30559	l z	-0.2713321
-2.341503	l æ	-0.0303179
-1.552263	l æ1	-0.3760875
-4.104931	l æ1ː
-2.536729	l æ2	-0.08471885
-2.292017	l ɑ	-0.370735
-1.782711	l ɑ1	0.2862221
-1.971392	l ɑ1ː	-0.113054
-2.673567	l ɑ2	-0.3811632
-2.990987	l ɑ2ː	-0.2787825
-2.586417	l ɑː	-0.4146646
-3.62781	l ɒː	0.04139265
-3.259833	l ɔ	1.041393
-2.762508	l ɔ1	0.9604915
-2.207304	l ɔ1ː	-0.2513535
-3.104931	l ɔ2ː	-0.2207777
-2.803901	l ɔː	-0.2588375
-1.080856	l ə	0.1426028
-2.380655	l ɛ	0.3619366
-1.609386	l ɛ1	-0.1973239
-2.502871	l ɛ2	-0.3423755
-2.743203	l ɜ1ː	-0.2675725
-4.104931	l ɜ2ː
-3.62781	l ɜː	-0.5437562
-0.5968052	l ɪ	-0.139856
-1.456571	l ɪ1	0.5740838
-2.513866	l ɪ2	0.2165694
-2.613569	l ɹ	-0.141225
-2.743203	l ʃ	0.05259347
-3.063538	l ʊ	-0.7639089
-2.826177	l ʊ1	-0.7389991
-3.62781	l ʊ2	-0.02802874
-2.782712	l ʌ	-0.2131152
-1.722914	l ʌ1	0.1217651
-3.259833	l ʌ2	-0.1216738
-2.958803	l θ	-0.3079259
-0.8498763	m </s>
-2.127656	m a	1.36288
-1.731568	m a1	1.295143
-2.799754	m a2	1.545099
-1.37815	m b	-0.2524855
-2.21997	m d	-0.4779744
-3.799754	m d͡ʒ
-2.127656	m e	1.312195
-1.758361	m e1	1.362238
-2.36839	m e2	0.9183301
-2.118513	m f	-0.212734
-3.498724	m g
-2.845511	m h	-0.0248981
-1.924693	m i1ː	-0.478902
-2.544482	m i2ː	-0.5531301
-2.758361	m iː	-0.2841734
-1.699383	m j	-0.1249387
-2.720573	m k	-0.09697182
-1.865255	m l	-0.4455198
-3.197694	m m	-0.1384855
-2.156301	m n	-0.5103854
-1.967245	m o	1.296602
-1.762327	m o1	1.117573
-2.845511	m o2	1.519828
-1.024508	m p	0.05990648
-2.231552	m s	-0.2208142
-2.758361	m t	-0.2807325
-3.799754	m t͡ʃ
-2.21997	m u1ː	-0.3602151
-3.197694	m uː	-0.1049225
-3.799754	m v
-2.623663	m w	-0.06356583
-2.294604	m z	-0.154507
-1.967245	m æ	-0.256402
-1.337356	m æ1	-0.1135197
-2.000413	m æ2	-0.159978
-2.544482	m ɑ	-0.2840877
-1.685811	m ɑ1	-0.181802
-1.778565	m ɑ1ː	-0.4027997
-2.419543	m ɑ2	-0.4424621
-2.36839	m ɑ2ː	-0.2356178
-2.176505	m ɑː	-0.4636439
-3.799754	m ɔ
-3.197694	m ɔ1	1.623249
-1.88594	m ɔ1ː	0.07287174
-2.623663	m ɔ2ː	-0.1074773
-2.954656	m ɔː	-0.2770413
-0.8116411	m ə	0.1363339
-2.176505	m ɛ	-0.4438111
-1.40008	m ɛ1	-0.2043725
-2.176505	m ɛ2	-0.06401432
-2.156301	m ɜ1ː	-0.3617076
-3.322633	m ɜː	-0.1188953
-1.049246	m ɪ	-0.2199609
-1.398353	m ɪ1	-0.4318039
-1.826626	m ɪ2	-0.5894489
-2.896664	m ɹ	-0.208029
-2.954656	m ʃ	-0.07060461
-3.322633	m ʊ1	-0.2175488
-3.498724	m ʊ2	-0.2833012
-3.197694	m ʌ
-1.672649	m ʌ1	-0.1672056
-2.268275	m ʌ2	-0.19118
-3.498724	m θ	-0.4301882
-0.6619015	n </s>
-2.233998	n a	1.133998
-2.101091	n a1	1.321472
-2.996355	n a2	1.420161
-2.461242	n b	-0.01057988
-1.008306	n d	-0.1063468
-1.87297	n d͡ʒ	-0.3147683
-2.285151	n e	1.130113
-1.941086	n e1	1.203441
-3.364332	n e2	1.52039
-1.832853	n f	-0.3159018
-2.509015	n g	-0.2769159
-2.336303	n h	-0.151522
-2.081785	n i1ː	-0.2386972
-3.540423	n i2ː	-0.1375089
-3.02854	n iː	-0.1522898
-1.644173	n j	-0.03674769
-1.830729	n k	-0.3789139
-1.712731	n l	-0.3209081
-2.379055	n m	-0.3928651
-2.71112	n n	-0.3407116
-2.202964	n o	1.190968
-2.250389	n o1	1.261338
-3.188241	n o2	1.519828
-2.394295	n p	-0.2089962
-1.115542	n s	-0.03034794
-0.836917	n t	-0.05640721
-2.031894	n t͡ʃ	-0.1875995
-2.72751	n u1ː	-0.1576858
-4.142483	n u2ː
-3.665362	n uː	-0.5608545
-2.070601	n v	-0.3479514
-2.574282	n w	0.02009699
-2.070601	n z	-0.2671717
-2.744543	n æ	-0.04139268
-2.042113	n æ1	0.1591331
-2.938363	n æ2	-0.2193185
-3.665362	n ð	-0.3144399
-2.938363	n ɑ	-0.08923841
-2.063302	n ɑ1	-0.148618
-2.665362	n ɑ1ː	-0.09504855
-2.461242	n ɑ2	-0.4688928
-4.142483	n ɑ2ː
-3.239393	n ɑː	-0.05618281
-3.841453	n ɔ	1.467361
-3.02854	n ɔ1	1.176091
-2.461242	n ɔ1ː	-0.2336907
-2.744543	n ɔ2ː	-0.5968589
-2.841453	n ɔː	-0.366161
-1.263387	n ə	0.4456975
-2.912035	n ɛ	-0.4453386
-1.963506	n ɛ1	0.1113526
-3.239393	n ɛ2	-0.1221418
-2.800061	n ɜ1ː	-0.31579
-4.142483	n ɜː
-0.9287	n ɪ	-0.04813075
-1.896971	n ɪ1	-0.2295837
-2.86373	n ɪ2	0.007012516
-2.402121	n ɹ	-0.1237081
-1.917174	n ʃ	-0.4858778
-2.762272	n ʌ	-0.5930872
-2.285151	n ʌ1	-0.4767219
-3.364332	n ʌ2	0.01251656
-3.665362	n ʒ
-2.26167	n θ	-0.4892274
-0.000318048	o ʊ	0.2408491
-0.0003012796	o1 ʊ	-0.307372
-0.001314054	o2 ʊ	-0.3646595
-0.9889221	p </s>
-2.274158	p a	1.484874
-1.772903	p a1	1.317612
-2.496006	p a2	1.262553
-2.587777	p b	-0.0715525
-2.863983	p d	-0.1228677
-3.818226	p d͡ʒ
-2.299712	p e	1.461957
-1.714422	p e1	1.300351
-2.403253	p e2	0.9341244
-2.562953	p f	-0.2684171
-2.915136	p g	-0.1384363
-2.739045	p h	-0.2218801
-1.66289	p i1ː	-0.1645636
-2.456498	p i2ː	-0.06876206
-2.456498	p iː	-0.3309168
-1.700955	p j	0.1932802
-2.642135	p k	-0.07072163
-1.072371	p l	-0.1242151
-2.562953	p m	-0.2321323
-2.420286	p n	-0.4228377
-2.102222	p o	1.411175
-1.805389	p o1	1.141932
-2.587777	p o2	1.264556
-3.119256	p p	-0.1056987
-1.784802	p s	-0.07660905
-1.51073	p t	-0.07289189
-2.614106	p t͡ʃ	-0.5597665
-2.386862	p u1ː	-0.2858328
-3.517196	p u2ː
-2.915136	p uː	-0.3716052
-3.818226	p v
-2.704283	p w	-0.04637691
-2.355828	p æ	-0.1909961
-1.409986	p æ1	-0.3206646
-2.012046	p æ2	-0.2755851
-2.12803	p ɑ	-0.2125925
-1.590339	p ɑ1	-0.2648543
-1.765147	p ɑ1ː	-0.3547307
-2.326864	p ɑ2	-0.1443712
-2.274158	p ɑ2ː	-0.3897147
-2.517196	p ɑː	-0.3407783
-2.614106	p ɔ	0.7140337
-2.371068	p ɔ1	0.8598213
-1.831454	p ɔ1ː	-0.4402945
-3.119256	p ɔ2	0.2218487
-2.587777	p ɔ2ː	-0.1833049
-2.438015	p ɔː	-0.4046525
-1.020958	p ə	0.3703994
-2.286747	p ɛ	-0.2609644
-1.388474	p ɛ1	-0.3558844
-2.227161	p ɛ2	-0.2670504
-1.728321	p ɜ1ː	-0.1004784
-2.403253	p ɜ2ː	-0.2149368
-2.915136	p ɜː	-0.101397
-1.258319	p ɪ	-0.2179146
-1.425529	p ɪ1	0.05051374
-2.341105	p ɪ2	0.04673707
-0.8252308	p ɹ	-0.8953461
-2.184757	p ʃ	-0.2295833
-3.216166	p ʊ	-0.1041061
-2.205442	p ʊ1	-0.5552315
-3.517196	p ʊ2
-2.587777	p ʌ	-0.1275353
-1.765147	p ʌ1	0.04647136
-3.040075	p ʌ2	0.2734128
-3.818226	p θ
-0.6699492	s </s>
-2.080647	s a	1.019652
-1.809288	s a1	1.06966
-2.424711	s a2	0.9253107
-2.54965	s b	-0.2197076
-2.929862	s d	-0.272937
-3.406983	s d͡ʒ	-0.283031
-2.783733	s e	1.651014
-2.005582	s e1	1.303757
-3.026772	s e2	1.251545
-2.15171	s f	-0.04884791
-2.690979	s g	-0.2836023
-2.628832	s h	-0.1314743
-1.811487	s i1ː	0.3138008
-3.105953	s i2ː	-0.1928327
-2.658795	s iː	-0.03246891
-2.537751	s j	0.01410902
-1.221724	s k	-0.4507624
-1.317784	s l	-0.3354706
-1.926976	s m	-0.4079832
-1.512667	s n	-0.656149
-2.424711	s o	1.445255
-2.254694	s o1	1.301633
-3.260855	s o2	1.616738
-1.262097	s p	-0.264643
-2.804923	s s	-0.05226493
-0.6888134	s t	0.3111576
-2.381677	s t͡ʃ	-0.4726034
-2.614591	s u1ː	-0.06887046
-2.537751	s u2ː	-0.6975279
-2.827199	s uː	-0.5013898
-3.628832	s v
-1.822652	s w	-0.1419102
-2.959825	s æ	0.07561791
-2.030406	s æ1	0.08584809
-2.600803	s æ2	0.08399606
-2.929862	s ɑ	-0.1792482
-2.146911	s ɑ1	0.272306
-2.725742	s ɑ1ː	-0.3385202
-2.76353	s ɑ2	-0.4595101
-3.406983	s ɑ2ː	-0.1864713
-2.929862	s ɑː	-0.2465344
-3.503893	s ɔ	1.245513
-3.327801	s ɔ1	1.477121
-2.273444	s ɔ1ː	-0.1294549
-3.804923	s ɔ2ː
-2.992009	s ɔː	-0.2305171
-1.387451	s ə	0.318378
-2.202863	s ɛ	-0.3864602
-1.580908	s ɛ1	-0.5795469
-1.956734	s ɛ2	-0.4787392
-2.026772	s ɜ1ː	-0.2790034
-2.725742	s ɜ2ː	-0.5218162
-3.15171	s ɜː	-0.1709689
-1.126404	s ɪ	-0.2829018
-1.591405	s ɪ1	-0.1976665
-2.286409	s ɪ2	0.1940259
-2.708013	s ɹ	-0.1203946
-3.406983	s ʃ	-0.08210705
-3.503893	s ʊ	-0.127742
-3.327801	s ʊ1	-0.082113
-4.105953	s ʊ2
-2.875504	s ʌ	-0.07786968
-1.924109	s ʌ1	-0.2774872
-2.587439	s ʌ2	-0.4571267
-2.901833	s θ	-0.2646408
-0.5513296	t </s>
-2.119978	t a	1.023692
-1.998153	t a1	1.221471
-3.027224	t a2	1.448189
-2.296069	t b	-0.06746981
-2.818948	t d	-0.3201426
-2.249073	t e	1.095809
-1.727868	t e1	0.9925876
-2.77944	t e2	0.9852768
-2.136846	t f	-0.3782219
-2.910718	t g	-0.1018309
-2.385293	t h	-0.2438213
-1.926324	t i1ː	0.01686817
-3.141167	t i2ː	-0.09011736
-2.818948	t iː	-0.2523342
-1.787059	t j	-0.4296319
-2.5971	t k	-0.2587942
-1.42433	t l	-0.4945076
-2.348776	t m	-0.3991229
-1.908171	t n	-0.166069
-1.9798	t o	0.9710977
-2.227354	t o1	1.239887
-2.995039	t o2	1.343737
-2.649806	t p	-0.1176726
-1.8273	t s	-0.06717521
-2.818948	t t	-0.184225
-3.539108	t t͡ʃ	-0.1285623
-2.315093	t u1ː	-0.2379161
-3.363016	t u2ː	-0.0225962
-2.743227	t uː	-0.1540119
-4.141168	t v
-2.030578	t w	0.02328146
-2.459926	t æ	0.03275061
-1.777555	t æ1	-0.18842
-2.550103	t æ2	-0.1977667
-2.497715	t ɑ	-0.4465723
-2.027224	t ɑ1	0.00695312
-2.17738	t ɑ1ː	0.04350799
-2.910718	t ɑ2	-0.4713652
-3.664046	t ɑ2ː	-0.1940762
-2.743227	t ɑː	-0.0924862
-4.141168	t ɔ
-3.363016	t ɔ1	1.477121
-2.124134	t ɔ1ː	-0.2541847
-3.664046	t ɔ2ː	-0.2021544
-2.709804	t ɔː	-0.3306241
-0.9158582	t ə	0.4319491
-2.487955	t ɛ	-0.0212009
-1.598342	t ɛ1	-0.2276417
-2.609689	t ɛ2	-0.4208893
-2.014063	t ɜ1ː	-0.03835028
-2.798745	t ɜ2ː	-0.2608104
-2.965076	t ɜː	-0.3719227
-0.7878284	t ɪ	0.02736413
-1.58366	t ɪ1	-0.02281237
-2.743227	t ɪ2	-0.2135011
-1.057665	t ɹ	-0.9141735
-3.099775	t ʃ	-0.2211167
-3.664046	t ʊ
-3.363016	t ʊ1	-0.6548733
-3.442198	t ʊ2	-0.5843313
-3.099775	t ʌ	-0.3378147
-2.12833	t ʌ1	-0.1435906
-3.296069	t ʌ2	-0.1540037
-2.995039	t θ	-0.4441587
-0.6742551	t͡ʃ </s>
-2.200225	t͡ʃ a	0.3041156
-1.766569	t͡ʃ a1	-0.2839597
-2.568202	t͡ʃ a2	-0.0917213
-1.841203	t͡ʃ b	-0.148775
-2.142233	t͡ʃ d	-0.05823424
-2.346353	t͡ʃ e	2.215285
-1.582925	t͡ʃ e1	1.93044
-2.267172	t͡ʃ e2	1.52039
-2.200225	t͡ʃ f	-0.3672984
-2.346353	t͡ʃ g
-2.568202	t͡ʃ h
-1.613959	t͡ʃ i1ː	-0.3254786
-3.045323	t͡ʃ i2ː
-3.045323	t͡ʃ j
-2.200225	t͡ʃ k	-0.1216142
-2.045323	t͡ʃ l	-0.3756689
-1.790051	t͡ʃ m	-0.4892847
-2.443263	t͡ʃ n	-0.3949579
-2.744293	t͡ʃ o	2.658329
-3.045323	t͡ʃ o1
-2.267172	t͡ʃ p	-0.07585005
-2.568202	t͡ʃ s
-2.142233	t͡ʃ t	-0.1991656
-3.045323	t͡ʃ t͡ʃ
-2.346353	t͡ʃ u1ː	-0.3193557
-3.045323	t͡ʃ uː
-2.142233	t͡ʃ w	-0.2371248
-2.443263	t͡ʃ æ	-0.119304
-1.465539	t͡ʃ æ1	-0.1855933
-2.443263	t͡ʃ æ2	-0.3447102
-3.045323	t͡ʃ ɑ
-1.899195	t͡ʃ ɑ1	-0.8193093
-1.364082	t͡ʃ ɑ1ː	-0.3722204
-2.744293	t͡ʃ ɑ2	-0.4377322
-3.045323	t͡ʃ ɑ2ː
-2.443263	t͡ʃ ɑː	-0.1062372
-2.568202	t͡ʃ ɔ1	1.720159
-2.200225	t͡ʃ ɔ1ː	-0.2327735
-0.7293527	t͡ʃ ə	-0.6163284
-2.346353	t͡ʃ ɛ	-0.05917051
-1.40187	t͡ʃ ɛ1	-0.2915748
-2.346353	t͡ʃ ɛ2	-0.3804216
-2.045323	t͡ʃ ɜ1ː	-0.3875597
-1.142233	t͡ʃ ɪ	-0.3822956
-1.422074	t͡ʃ ɪ1	-0.2686474
-3.045323	t͡ʃ ɪ2
-1.814874	t͡ʃ ɹ	-0.5509921
-1.30496	t͡ʃ ʊ	-0.8143157
-2.744293	t͡ʃ ʌ	-0.3799247
-1.814874	t͡ʃ ʌ1	-0.3022051
-3.045323	t͡ʃ ʌ2
-0.9750437	u1ː </s>
-1.370173	u1ː b	-0.1982062
-1.194081	u1ː d	-0.4009402
-2.208322	u1ː d͡ʒ	-0.07017577
-3.162565	u1ː e
-1.631086	u1ː f	-0.2133494
-2.162565	u1ː g	-0.1597657
-3.162565	u1ː h
-2.259475	u1ː j	-0.3320363
-1.715406	u1ː k	-0.2775783
-1.293333	u1ː l	-0.3045121
-1.065654	u1ː m	-0.5336598
-0.9807208	u1ː n	-0.6145645
-3.162565	u1ː o
-3.162565	u1ː o2
-1.281751	u1ː p	-0.2397545
-1.076205	u1ː s	-0.3233624
-0.9398479	u1ː t	-0.3219488
-2.162565	u1ː t͡ʃ	-0.1474303
-1.631086	u1ː v	-0.3076011
-1.213174	u1ː z	-0.1197827
-2.162565	u1ː ð	-0.299261
-2.685443	u1ː ɑː	-0.5697982
-3.162565	u1ː ɔː
-1.582781	u1ː ə	-0.204113
-1.657414	u1ː ɪ	-0.1516016
-3.162565	u1ː ɹ
-1.529096	u1ː ʃ	-0.17382
-1.747591	u1ː ʒ	-0.05605742
-1.883811	u1ː θ	-0.2138798
-1.303436	u2ː b	-0.1606777
-1.655619	u2ː d	-0.1055021
-2.257679	u2ː d͡ʒ
-1.956649	u2ː f
-1.303436	u2ː g	-0.4103431
-1.780557	u2ː h	-0.2147355
-1.558709	u2ː k	-0.2152368
-1.558709	u2ː l
-1.143735	u2ː m	-0.3986171
-1.143735	u2ː n	-0.2700192
-2.257679	u2ː o
-0.6344293	u2ː p	-0.4353108
-1.354589	u2ː s	-0.2003436
-0.8597386	u2ː t	-0.2985314
-2.257679	u2ː t͡ʃ
-1.655619	u2ː v	-0.03693633
-1.780557	u2ː z	-0.1558879
-2.257679	u2ː ə
-1.780557	u2ː ɛ	-0.2137857
-1.956649	u2ː ɛ1
-1.956649	u2ː ʃ	-0.2538138
-2.257679	u2ː ʒ
-2.257679	u2ː θ
-0.7474399	uː </s>
-2.365488	uː a1	-0.3381476
-1.666518	uː b	-0.17074
-1.013305	uː d	-0.3510332
-1.763428	uː d͡ʒ	-0.2484198
-2.666518	uː e
-2.666518	uː e1
-1.268578	uː f	-0.4128944
-1.82142	uː g	-0.6367118
-2.189397	uː h	-0.5726005
-2.666518	uː i1ː
-2.666518	uː iː
-1.712276	uː k	-0.3517201
-1.268578	uː l	-0.6396815
-1.098316	uː m	-0.3462748
-1.043269	uː n	-0.287191
-2.666518	uː o
-1.268578	uː p	-0.2158408
-1.462398	uː s	-0.2016463
-0.9261553	uː t	-0.0692938
-2.666518	uː v
-2.365488	uː w
-1.666518	uː z	-0.188238
-2.666518	uː æ1
-2.666518	uː ð
-1.82142	uː ɛ1	-0.122613
-2.365488	uː ɜ1ː
-2.189397	uː ɪ	-0.128838
-2.064458	uː ɪ1	-0.2777422
-2.666518	uː ɹ
-2.064458	uː θ	-0.5909363
-0.7720771	v </s>
-2.243369	v a	0.02790916
-1.538646	v a1	1.478596
-2.305517	v a2	-0.1886313
-2.942339	v b
-2.21534	v d	-0.2281662
-3.41946	v d͡ʒ
-2.164188	v e	1.714683
-1.71189	v e1	1.691558
-2.8174	v e2	1.666518
-2.72049	v f	-0.103413
-3.11843	v h
-1.785992	v i1ː	-0.447588
-2.72049	v i2ː	-0.1005253
-3.41946	v iː
-1.747362	v j	-0.03004956
-2.942339	v k
-1.095178	v l	-0.5896382
-2.465218	v m	-0.3154037
-1.378067	v n	-0.3327271
-2.273332	v o	1.959359
-1.988096	v o1	1.711807
-3.11843	v p
-2.942339	v s
-2.8174	v t	-0.1436737
-3.11843	v u1ː	-0.448415
-3.11843	v uː	-0.3915282
-2.8174	v w	-0.1435039
-2.574362	v z	-0.2529633
-2.273332	v æ	-0.2162484
-1.62012	v æ1	-0.3261764
-2.378067	v æ2	-0.3928404
-2.942339	v ð	-0.3144399
-3.41946	v ɑ
-2.077037	v ɑ1	-0.4319666
-2.273332	v ɑ1ː	-0.1729302
-2.8174	v ɑ2	-0.6677498
-2.641309	v ɑː	-0.3100872
-2.574362	v ɔ	1.041393
-2.305517	v ɔ1	1.176091
-2.41946	v ɔ1ː	-0.3102874
-3.41946	v ɔ2
-3.41946	v ɔ2ː
-2.942339	v ɔː	-0.1562528
-0.6530472	v ə	0.4598045
-2.51637	v ɛ	-0.09370272
-1.355002	v ɛ1	-0.4819953
-2.164188	v ɛ2	-0.1782058
-1.450977	v ɜ1ː	-0.5880209
-2.8174	v ɜ2ː	-0.3559755
-2.039249	v ɜː	-0.8197424
-1.019786	v ɪ	0.06436181
-1.358762	v ɪ1	-0.2614127
-2.340279	v ɪ2	-0.06376106
-2.305517	v ɹ	-0.7241677
-3.41946	v ʊ
-2.273332	v ʌ1	-0.6908796
-3.41946	v ʌ2
-1.802572	w a	1.496774
-1.21678	w a1	1.246839
-2.5559	w a2	-0.3347593
-1.482793	w e	1.136104
-1.277147	w e1	1.346863
-2.379809	w e2	1.365488
-1.32973	w i1ː	-0.23373
-2.334051	w i2ː	-0.2288363
-2.055298	w iː	-0.5824292
-3.033021	w o	2.658329
-2.078779	w o1	1.880212
-3.033021	w o2	2.042707
-2.25487	w u1ː	-0.1254984
-3.334051	w uː
-2.430961	w æ	-0.4263926
-1.609776	w æ1	-0.8118747
-3.334051	w æ1ː
-2.5559	w æ2	-0.5531542
-1.828901	w ɑ	-0.5948822
-1.146531	w ɑ1	-0.3945128
-2.055298	w ɑ1ː	-0.2253183
-2.129931	w ɑ2	-0.2570355
-3.033021	w ɑ2ː	-0.417479
-2.220108	w ɑː	-0.2620544
-3.033021	w ɔ	1.467361
-3.334051	w ɔ1
-1.237141	w ɔ1ː	-0.2423439
-1.919078	w ɔ2ː	-0.6041942
-2.334051	w ɔː	-0.307076
-1.21678	w ə	-0.6509553
-1.754268	w ɛ	-0.7400325
-0.9838035	w ɛ1	-0.7034163
-1.754268	w ɛ2	-0.5384565
-1.399553	w ɜ1ː	-0.2067447
-2.055298	w ɜ2ː	-0.436055
-1.585863	w ɜː	-0.5999939
-1.334051	w ɪ	-0.1659328
-0.8642294	w ɪ1	0.3630482
-2.15796	w ɪ2	-0.01329318
-2.033021	w ʊ	-0.8308514
-1.789983	w ʊ1	-0.7664421
-1.936111	w ʊ2	-1.313699
-2.85693	w ʌ	-0.4466667
-1.972324	w ʌ1	-0.7317594
-2.488953	w ʌ2	-0.5425271
-0.3944991	z </s>
-2.643453	z a	2.207978
-2.138303	z a1	2.115418
-3.342423	z a2
-1.980695	z b	-0.1584774
-1.719173	z d	-0.457664
-2.740363	z e	2.294466
-1.550031	z e1	1.60822
-2.740363	z f	-0.1403966
-2.740363	z g	-0.1320731
-2.740363	z h
-2.564271	z i1ː	-0.03154158
-3.342423	z i2ː
-3.342423	z iː
-1.810944	z j	-0.2164351
-2.564271	z k	-0.1852908
-1.564271	z l	-0.1726816
-1.433938	z m	-0.496033
-1.516348	z n	-0.03223336
-2.439333	z o	2.181208
-2.263242	z o1	2.045022
-2.643453	z p	-0.2979167
-3.342423	z s
-3.041393	z t	-0.4763361
-2.865301	z u1ː
-2.740363	z v	-0.1265147
-2.228479	z w	-0.1974766
-2.30103	z æ	-0.2338946
-1.837273	z æ1	-0.484403
-3.041393	z æ2
-2.228479	z ɑ1	-0.2179956
-2.342423	z ɑ1ː	-0.3228022
-2.564271	z ɑː	-0.4260941
-3.342423	z ɔ
-2.228479	z ɔ1ː	-0.4301142
-0.851061	z ə	-0.6558312
-2.865301	z ɛ	-0.1245755
-1.679665	z ɛ1	0.03142416
-3.342423	z ɛ2
-1.774221	z ɜ1ː	-0.6182814
-3.342423	z ɜ2ː
-3.342423	z ɜː
-0.9941178	z ɪ	-0.1898113
-1.536243	z ɪ1	-0.4465775
-3.041393	z ɪ2
-2.564271	z ɹ	-0.2023151
-3.342423	z ʃ
-3.342423	z ʌ
-2.30103	z ʌ1	-0.7089941
-1.584331	æ b	-0.2562653
-1.654912	æ d	-0.555232
-1.931119	æ f	-0.3017829
-1.305578	æ g	-0.7276473
-0.7006698	æ k	-0.8082332
-1.366847	æ l	-0.3255022
-1.028029	æ m	-0.752146
-0.5217493	æ n	-0.6575392
-1.213263	æ p	-0.5677019
-1.394	æ s	-0.053855
-1.222603	æ t	-0.3642826
-2.186391	æ t͡ʃ	-0.6748363
-1.982271	æ z	-0.3543486
-1.630089	æ ŋ	-0.2562317
-2.885361	æ ɹ
-1.654912	æ ʃ	-0.4991727
-2.186391	æ θ	-0.09608625
-1.422997	æ1 b	-0.5004687
-1.482874	æ1 d	-0.3471205
-1.952507	æ1 d͡ʒ	-0.3252337
-1.651477	æ1 f	-0.5471626
-1.432982	æ1 g	-0.42025
-0.9141618	æ1 k	-0.513963
-1.109002	æ1 l	-0.5373969
-1.11706	æ1 m	-0.6933135
-0.7373915	æ1 n	-0.5332246
-1.300533	æ1 p	-0.4381062
-1.318262	æ1 s	-0.3136269
-1.010817	æ1 t	-0.5147095
-1.698473	æ1 t͡ʃ	-0.3841755
-1.692313	æ1 v	-0.4483447
-2.096413	æ1 z	0.004364729
-2.698473	æ1 ð	-0.6154698
-1.231818	æ1 ŋ	-0.4519331
-1.293151	æ1 ɹ	-1.492655
-1.494353	æ1 ʃ	-0.2110603
-2.76542	æ1 ʒ	-0.3990966
-2.339452	æ1 θ	-0.5142296
-0.60206	æ1ː n
-0.60206	æ1ː ŋ
-1.444165	æ2 b	-0.2522805
-1.49741	æ2 d	-0.2761152
-1.956048	æ2 d͡ʒ	-0.1420077
-1.745195	æ2 f	-0.1997144
-1.536919	æ2 g	-0.171646
-1.00788	æ2 k	-0.04468083
-0.9297194	æ2 l	-0.364151
-1.290937	æ2 m	-0.6375208
-0.6744469	æ2 n	-0.588477
-1.290937	æ2 p	-0.4140839
-1.31507	æ2 s	-0.5017529
-1.11095	æ2 t	-0.2933982
-1.859138	æ2 t͡ʃ	-0.255707
-2.01404	æ2 v	-0.2185297
-2.257078	æ2 z	-0.4032765
-1.302836	æ2 ŋ	-0.5404882
-1.046225	æ2 ɹ	-1.19289
-1.779957	æ2 ʃ	-0.09824556
-2.160168	æ2 θ	-0.5159281
-1.227433	ð </s>
-1.855822	ð a1	2.592539
-2.457882	ð b
-1.679731	ð d	-0.2861581
-1.855822	ð e1	2.708591
-2.457882	ð f
-2.156852	ð i1ː	-0.4374427
-1.855822	ð l	-0.1743254
-1.679731	ð m	-0.3853536
-1.980761	ð n	-0.1151553
-1.855822	ð o1	2.459995
-1.980761	ð s	-0.2036774
-1.416489	ð z	-0.004965886
-1.503639	ð æ1	-0.5973292
-0.3148671	ð ə	-0.09951371
-2.457882	ð ɛ
-1.281791	ð ɛ1	-0.4982646
-1.758912	ð ɛ2	-0.3383741
-1.059942	ð ɪ	-0.5879984
-1.980761	ð ɪ1	-0.1644289
-2.457882	ð ɹ
-2.457882	ð ʌ1
-0.3646763	ŋ </s>
-3.303196	ŋ a
-3.002166	ŋ a1	-0.3381476
-3.002166	ŋ a2	0.03321746
-1.980977	ŋ b	-0.2106955
-2.099076	ŋ d	-0.08930136
-3.303196	ŋ d͡ʒ
-3.303196	ŋ e
-2.224015	ŋ f	-0.09246062
-0.9358401	ŋ g	-0.6370441
-2.099076	ŋ h	-0.1946206
-0.7110193	ŋ k	-0.3663425
-1.055223	ŋ l	-1.343313
-2.024442	ŋ m	-0.1390458
-2.604226	ŋ n
-3.303196	ŋ o2
-1.856038	ŋ p	-0.3167476
-1.734994	ŋ s	-0.282972
-2.224015	ŋ t	-0.07750915
-2.157068	ŋ w	-0.1623246
-1.690412	ŋ z	-0.9365137
-3.303196	ŋ ɑ2ː
-3.303196	ŋ ɑː
-3.303196	ŋ ɔ
-3.303196	ŋ ɔ1ː
-2.002166	ŋ ə	-0.2321483
-2.224015	ŋ ɪ	-0.5235403
-3.303196	ŋ ɪ1
-2.024442	ŋ ɹ	-0.1969216
-2.458098	ŋ ʃ	-0.1692572
-3.303196	ŋ ʌ
-2.701136	ŋ ʌ1	-0.6797232
-2.261803	ŋ θ	-0.07991175
-1.821186	ɑ b	-0.6764917
-1.402057	ɑ d	-0.8952195
-2.247155	ɑ d͡ʒ	-0.1297732
-1.469003	ɑ f	-0.9667147
-1.122216	ɑ g	-0.6477923
-0.7330498	ɑ k	-0.8138384
-1.362548	ɑ l	-0.1784739
-1.445522	ɑ m	-0.2694922
-0.8492146	ɑ n	-0.3261667
-1.144492	ɑ p	-0.6755806
-1.205762	ɑ s	-0.4562959
-0.9760879	ɑ t	-1.000267
-2.122216	ɑ t͡ʃ	-0.5956551
-2.025306	ɑ v	-0.02873814
-2.025306	ɑ z	-0.4590839
-1.309303	ɑ ŋ	-0.1892848
-1.493827	ɑ ɹ	-0.1745224
-1.724276	ɑ ʃ	-0.4653119
-1.645095	ɑ θ	-1.00591
-1.478531	ɑ1 b	-0.5926352
-1.305985	ɑ1 d	-0.3111736
-1.644157	ɑ1 d͡ʒ	-0.5199302
-1.529022	ɑ1 f	-0.6084092
-1.324159	ɑ1 g	-0.3313763
-1.026857	ɑ1 k	-0.4361789
-0.9152239	ɑ1 l	-0.7709981
-1.078478	ɑ1 m	-0.6878174
-0.8408952	ɑ1 n	-0.3468542
-1.089149	ɑ1 p	-0.6453767
-1.149307	ɑ1 s	-0.3101189
-1.132274	ɑ1 t	-0.3264406
-1.836043	ɑ1 t͡ʃ	-0.145832
-1.945187	ɑ1 v	-0.2211318
-2.030617	ɑ1 z	-0.3038503
-3.091315	ɑ1 ð	-0.1895011
-1.462926	ɑ1 ŋ	-0.01672149
-3.392345	ɑ1 ə
-1.350953	ɑ1 ɹ	-1.284137
-1.769096	ɑ1 ʃ	-0.2952777
-2.137073	ɑ1 θ	-0.3416493
-1.732044	ɑ1ː </s>
-1.440559	ɑ1ː b	-0.4634762
-1.093772	ɑ1ː d	-0.197538
-1.549704	ɑ1ː d͡ʒ	-0.2957607
-1.248674	ɑ1ː f	-0.6189522
-1.771552	ɑ1ː g	-0.290294
-3.093772	ɑ1ː h
-1.13473	ɑ1ː k	-0.2973493
-1.32292	ɑ1ː l	-0.370479
-1.116048	ɑ1ː m	-0.3213676
-0.8951147	ɑ1ː n	-0.4199106
-2.491712	ɑ1ː o	2.436481
-1.732044	ɑ1ː p	-0.2981825
-0.8923746	ɑ1ː s	-0.3888743
-0.8762878	ɑ1ː t	-0.2835623
-1.917681	ɑ1ː t͡ʃ	-0.1775117
-1.616651	ɑ1ː v	-0.3291709
-2.394802	ɑ1ː w	-0.1769223
-2.248674	ɑ1ː z	-0.09294379
-1.917681	ɑ1ː ð	-0.2686823
-2.394802	ɑ1ː ŋ	-0.0411962
-2.491712	ɑ1ː ɑ	-0.2927575
-2.616651	ɑ1ː ə	-0.5152373
-1.353409	ɑ1ː ɹ	-0.6941735
-2.014591	ɑ1ː ʃ	-0.1840437
-2.616651	ɑ1ː ʒ	-0.5399121
-2.052379	ɑ1ː θ	-0.04621878
-1.635986	ɑ2 b	-0.2280167
-1.484718	ɑ2 d	-0.2431289
-2.238046	ɑ2 d͡ʒ	-0.5099845
-1.113107	ɑ2 f	-0.4625739
-1.937016	ɑ2 g	-0.03239879
-1.061955	ɑ2 k	-0.2859975
-1.158865	ɑ2 l	-0.5272912
-0.9748046	ɑ2 m	-0.5791416
-0.6045777	ɑ2 n	-0.4151682
-1.171099	ɑ2 p	-0.5262057
-1.183688	ɑ2 s	-0.1396035
-1.459895	ɑ2 t	-0.1765115
-2.414137	ɑ2 t͡ʃ	-0.4446355
-2.016197	ɑ2 v	-0.09492826
-1.937016	ɑ2 z	-0.5374756
-2.715167	ɑ2 ð
-1.334956	ɑ2 ŋ	-0.4270046
-1.300194	ɑ2 ɹ	-0.9952343
-2.113107	ɑ2 ʃ	-0.2739925
-2.715167	ɑ2 θ
-1.399866	ɑ2ː b	-0.4402776
-1.149988	ɑ2ː d	-0.2001467
-1.575957	ɑ2ː d͡ʒ	-0.09255455
-0.9561684	ɑ2ː f	-0.3420775
-1.655138	ɑ2ː g	-0.1011443
-2.354108	ɑ2ː h
-1.031889	ɑ2ː k	-0.7796646
-1.50901	ɑ2ː l	-0.4394846
-1.20798	ɑ2ː m	-0.2544281
-1.655138	ɑ2ː n	-0.4606556
-1.752048	ɑ2ː p
-0.7859067	ɑ2ː s	-0.3299161
-0.8917105	ɑ2ː t	-0.3352064
-1.655138	ɑ2ː t͡ʃ	-0.2009786
-1.752048	ɑ2ː v	-0.1918383
-2.354108	ɑ2ː z
-1.752048	ɑ2ː ð	-0.4113499
-2.354108	ɑ2ː ŋ
-1.50901	ɑ2ː ɹ
-2.053078	ɑ2ː ʃ
-2.053078	ɑ2ː θ
-1.595095	ɑː </s>
-1.595095	ɑː b	-0.2015108
-0.9737301	ɑː d	-0.5707835
-2.159367	ɑː d͡ʒ
-0.8961252	ɑː f	-0.8228048
-2.636488	ɑː g
-2.034428	ɑː h	-0.2856033
-2.636488	ɑː j
-1.013239	ɑː k	-0.4931244
-2.335458	ɑː l
-1.256277	ɑː m	-0.6624283
-1.145126	ɑː n	-0.4983767
-2.034428	ɑː p	-0.2992443
-0.9832754	ɑː s	-0.4982661
-1.056704	ɑː t	-0.2932737
-1.937518	ɑː t͡ʃ	-0.6748363
-2.159367	ɑː v	-0.2146812
-2.034428	ɑː z	-0.1435542
-1.682245	ɑː ŋ	-0.3957305
-2.335458	ɑː ɪ1	-0.4388915
-1.003019	ɑː ɹ	-0.8202626
-1.595095	ɑː ʒ	-1.017033
-1.460397	ɑː θ	-0.7451888
-0.30103	ɒ1ː n
-0.1760913	ɒ2ː m	-0.458548
-0.7403627	ɒː m	-0.4340034
-1.041393	ɒː n
-0.3424227	ɒː ŋ	-0.1224468
-0.004963419	ɔ ɪ	-0.5252987
-0.002073009	ɔ1 ɪ	-0.2943009
-1.650572	ɔ1ː </s>
-1.589303	ɔ1ː b	-0.1438998
-0.9872428	ɔ1ː d	-0.3594058
-2.089905	ɔ1ː d͡ʒ	-0.4011689
-1.721928	ɔ1ː f	-0.1783301
-1.706688	ɔ1ː g	-0.3740979
-2.169086	ɔ1ː h	-0.3012539
-1.343011	ɔ1ː k	-0.2858357
-0.8790517	ɔ1ː l	-0.4900619
-1.195958	ɔ1ː m	-0.4882145
-1.068716	ɔ1ː n	-0.2722276
-1.706688	ɔ1ː p	-0.2272535
-1.276992	ɔ1ː s	-0.06667128
-0.8073585	ɔ1ː t	-0.2653024
-1.868056	ɔ1ː t͡ʃ	-0.06315185
-1.992995	ɔ1ː w	-0.4064579
-1.826664	ɔ1ː z	-0.2439145
-2.567026	ɔ1ː ð	-0.01340982
-2.868056	ɔ1ː ə
-2.691965	ɔ1ː ɪ	-0.5806515
-0.8306299	ɔ1ː ɹ	-0.937582
-1.754113	ɔ1ː ʃ	-0.2605485
-2.868056	ɔ1ː ʒ	-0.4683473
-1.890333	ɔ1ː θ	-0.2482339
-0.04575749	ɔ2 ɪ	-0.2208367
-2.307496	ɔ2ː b
-1.161368	ɔ2ː d	-0.4947249
-2.307496	ɔ2ː d͡ʒ
-1.830375	ɔ2ː f
-1.353253	ɔ2ː g	-0.6696327
-2.307496	ɔ2ː h
-1.353253	ɔ2ː k	-0.2504291
-1.103376	ɔ2ː l	-0.3374027
-1.307496	ɔ2ː m	-0.1881108
-1.161368	ɔ2ː n	-0.1878746
-1.608526	ɔ2ː p	-0.16063
-1.404406	ɔ2ː s	-0.08042432
-0.6262548	ɔ2ː t	-0.3335647
-1.830375	ɔ2ː t͡ʃ	-0.5799895
-2.307496	ɔ2ː w
-2.307496	ɔ2ː z
-1.131405	ɔ2ː ɹ	-0.3461053
-2.006466	ɔ2ː ʒ
-0.9457682	ɔ2ː θ	-0.620833
-1.309224	ɔː </s>
-1.853292	ɔː b	-0.2033891
-0.7801854	ɔː d	-0.431726
-2.631444	ɔː d͡ʒ
-1.728354	ɔː g	-0.3438157
-1.400995	ɔː k	-0.4330206
-0.8252638	ɔː l	-0.7656286
-1.269716	ɔː m	-0.355339
-1.063242	ɔː n	-0.4557872
-2.154323	ɔː p	-0.2123064
-1.233504	ɔː s	-0.2367155
-0.9879911	ɔː t	-0.149072
-2.154323	ɔː t͡ʃ	-0.1185338
-2.631444	ɔː v
-1.728354	ɔː w	-0.230141
-1.932474	ɔː z	0.02003798
-0.8532925	ɔː ɹ	-0.3252176
-2.330414	ɔː ʃ
-1.631444	ɔː θ	-0.357769
-1.577739	ə </s>
-1.232334	ə b	-0.07611823
-1.505515	ə d	-0.1152102
-2.025109	ə d͡ʒ	-0.4157393
-1.83728	ə f	-0.1833179
-2.019201	ə g	-0.2665445
-2.344364	ə h	-0.2062555
-4.189462	ə j
-1.73007	ə k	0.1475394
-0.9991305	ə l	-0.3808523
-1.263635	ə m	0.141819
-0.7418392	ə n	0.1696402
-1.698101	ə p	0.07079577
-1.115744	ə s	-0.2489212
-1.131036	ə t	-0.1839788
-2.758098	ə t͡ʃ	-0.1792101
-2.125004	ə v	0.2617822
-2.23522	ə w	-0.2393062
-2.092552	ə z	-0.3635626
-4.189462	ə æ1
-4.189462	ə ð
-3.888432	ə ŋ
-3.888432	ə ɪ1	-0.4197015
-0.5389605	ə ɹ	-0.6320922
-2.4491	ə ʃ	-0.3030626
-2.576678	ə θ	-0.1527543
-0.9441923	ɛ d	-0.7388983
-2.475671	ɛ d͡ʒ
-1.735309	ɛ f	-0.1676258
-1.546252	ɛ g	-0.6607918
-0.7473174	ɛ k	-0.9084007
-1.174641	ɛ l	-0.3368744
-1.60061	ɛ m	-0.2531467
-0.69752	ɛ n	-0.2498235
-1.497948	ɛ p	-0.5922545
-0.9985499	ɛ s	-0.2008939
-1.245222	ɛ t	-0.4330722
-2.475671	ɛ v	-0.3679295
-2.776701	ɛ z
-2.077731	ɛ ŋ	-0.2448246
-0.9637879	ɛ ə	-0.736978
-1.931603	ɛ ɹ	-0.1788435
-2.776701	ɛ ʃ
-1.99855	ɛ θ	-0.4824636
-2.285129	ɛ1 b	-0.2136047
-1.249413	ɛ1 d	-0.4081905
-1.93525	ɛ1 d͡ʒ	-0.3212098
-1.94459	ɛ1 f	-0.6743427
-1.836496	ɛ1 g	-0.12622
-0.9464823	ɛ1 k	-0.6919416
-1.028709	ɛ1 l	-0.7622551
-1.34253	ɛ1 m	-0.7413943
-0.6945945	ɛ1 n	-0.7032652
-1.531801	ɛ1 p	-0.5365085
-0.9352499	ɛ1 s	-0.6493939
-1.127341	ɛ1 t	-0.4099058
-2.16019	ɛ1 t͡ʃ	-0.4217669
-1.577964	ɛ1 v	-0.861505
-1.926107	ɛ1 z	-0.7089283
-2.051045	ɛ1 ð	-0.8150421
-2.565955	ɛ1 ŋ	-0.447158
-1.008557	ɛ1 ə	0.2902609
-1.448985	ɛ1 ɹ	-1.107593
-1.726534	ɛ1 ʃ	-0.3439658
-2.352075	ɛ1 ʒ	-1.15188
-2.115986	ɛ1 θ	-0.2523899
-2.189771	ɛ2 b	-0.1748603
-1.332438	ɛ2 d	-0.1891261
-1.684621	ɛ2 d͡ʒ	-0.5732527
-1.546318	ɛ2 f	-0.4052027
-1.658292	ɛ2 g	-0.1335727
-0.8634351	ɛ2 k	-0.7339261
-0.7520204	ɛ2 l	-0.534998
-1.216643	ɛ2 m	-0.6099045
-0.959322	ɛ2 n	-0.5312096
-1.308957	ɛ2 p	-0.61076
-1.297676	ɛ2 s	-0.3510809
-1.235528	ɛ2 t	-0.4344687
-2.888741	ɛ2 t͡ʃ
-1.320539	ɛ2 v	-0.5323699
-1.80956	ɛ2 z	-0.3786291
-2.043643	ɛ2 ð	-0.6154698
-2.888741	ɛ2 ŋ
-1.181171	ɛ2 ə	-0.437363
-1.265492	ɛ2 ɹ	-0.9002588
-2.189771	ɛ2 ʃ	-0.3085957
-2.888741	ɛ2 ʒ
-2.587711	ɛ2 θ	-0.4681317
-3.002598	ɜ1ː </s>
-1.434396	ɜ1ː b	-0.5660955
-1.33984	ɜ1ː d	-0.105453
-1.349385	ɜ1ː d͡ʒ	-0.6730072
-1.511236	ɜ1ː f	-0.4511824
-1.747325	ɜ1ː g	-0.5643557
-1.127537	ɜ1ː k	-0.3849305
-1.217268	ɜ1ː l	-0.2524121
-1.048355	ɜ1ː m	-0.5288703
-1.024874	ɜ1ː n	-0.2547279
-1.497448	ɜ1ː p	-0.4446048
-0.9855646	ɜ1ː s	-0.4983751
-0.93814	ɜ1ː t	-0.4097758
-1.446295	ɜ1ː t͡ʃ	-0.2716468
-1.121784	ɜ1ː v	-0.2836955
-2.048356	ɜ1ː z	-0.4353665
-2.224447	ɜ1ː ð	0.01579425
-1.278322	ɜ1ː ɹ	-0.9168392
-1.571234	ɜ1ː ʃ	-0.6126101
-1.55544	ɜ1ː θ	-0.2685457
-1.579784	ɜ2ː b	-0.2944078
-1.403692	ɜ2ː d	-0.06870013
-1.880814	ɜ2ː d͡ʒ	-0.3850458
-2.181844	ɜ2ː f
-2.181844	ɜ2ː g
-0.9265711	ɜ2ː k	-0.3818961
-1.579784	ɜ2ː l	-0.2910593
-0.9513947	ɜ2ː m	-0.3644629
-1.181844	ɜ2ː n	-0.4149185
-1.181844	ɜ2ː p	-0.2517063
-0.7839036	ɜ2ː s	-0.4824926
-1.102662	ɜ2ː t	-0.2088867
-1.704722	ɜ2ː t͡ʃ	-0.5695742
-1.227601	ɜ2ː v	-0.5742406
-1.227601	ɜ2ː ð	-0.9604194
-1.704722	ɜ2ː ɹ	-0.1707809
-2.181844	ɜ2ː ʃ
-1.122762	ɜː b	-0.3383264
-0.9009131	ɜː d	-1.275163
-1.997823	ɜː d͡ʒ
-1.599883	ɜː g	-0.07311559
-0.6756038	ɜː k	-0.7050388
-1.25746	ɜː l	-0.4287651
-1.068404	ɜː m	-0.3395043
-1.122762	ɜː n	-0.1741331
-1.821732	ɜː p
-1.18491	ɜː s	-0.08260797
-0.9009131	ɜː t	-0.240532
-1.997823	ɜː t͡ʃ	-0.4579228
-1.821732	ɜː v	-0.2133345
-2.298853	ɜː ð
-2.298853	ɜː ɹ
-1.821732	ɜː θ	-0.4940263
-0.7149267	ɪ </s>
-3.765016	ɪ a	2.274925
-4.066046	ɪ a1	-0.3381476
-1.916827	ɪ b	-0.2265561
-1.304118	ɪ d	-0.200987
-1.866017	ɪ d͡ʒ	-0.2564087
-2.611201	ɪ e	1.230008
-2.810774	ɪ e1	1.839359
-1.742794	ɪ f	0.06452966
-1.930914	ɪ g	-0.05917364
-2.634682	ɪ h	-0.210411
-3.668106	ɪ i1ː	-0.1835659
-3.889955	ɪ iː	-0.166956
-3.588925	ɪ j	-0.2917763
-1.086043	ɪ k	-0.3075855
-1.398127	ɪ l	0.03803182
-1.502565	ɪ m	-0.1110371
-1.038901	ɪ n	0.04787469
-2.521978	ɪ o	1.284192
-3.088323	ɪ o1	1.857935
-4.066046	ɪ o2	2.042707
-1.694055	ɪ p	-0.1475945
-0.9665383	ɪ s	-0.2467822
-1.052366	ɪ t	-0.1115276
-2.733608	ɪ t͡ʃ	-0.1233709
-1.460741	ɪ v	-0.1963069
-2.596224	ɪ w	-0.04072666
-1.463986	ɪ z	-0.114666
-2.835597	ɪ æ	-0.3339987
-2.588925	ɪ æ1	-0.249695
-2.904678	ɪ ð	-0.04429683
-1.317858	ɪ ŋ	-0.2129862
-4.066046	ɪ ɑ
-2.560896	ɪ ɑ1	-0.2635089
-3.588925	ɪ ɑ1ː	-0.1383769
-4.367076	ɪ ɑ2ː
-3.668106	ɪ ɑː	-0.1598088
-4.367076	ɪ ɒː
-3.765016	ɪ ɔ1ː	-0.2316243
-4.367076	ɪ ɔ2ː
-4.367076	ɪ ɔː
-1.368381	ɪ ə	-0.2116107
-3.889955	ɪ ɛ	-0.1718748
-2.935713	ɪ ɛ1	-0.2384198
-4.367076	ɪ ɛ2
-2.503753	ɪ ɪ	-0.5029659
-3.765016	ɪ ɪ1	-0.2621086
-4.367076	ɪ ɪ2
-2.263273	ɪ ɹ	-0.4194369
-1.387073	ɪ ʃ	-1.062424
-4.066046	ɪ ʌ	-0.3799247
-4.367076	ɪ ʌ1
-3.190985	ɪ ʒ	0.09691003
-2.754292	ɪ θ	0.01807263
-1.636963	ɪ1 b	-0.7131338
-1.481147	ɪ1 d	-0.3320069
-1.829357	ɪ1 d͡ʒ	-0.5854607
-1.539139	ɪ1 f	-0.8523169
-1.510883	ɪ1 g	-0.4067464
-1.117757	ɪ1 k	-0.7677885
-0.9481683	ɪ1 l	-0.6945266
-1.25866	ɪ1 m	-0.7753807
-0.9071162	ɪ1 n	-0.3341305
-3.137565	ɪ1 o	2.533391
-1.284273	ɪ1 p	-0.6428699
-1.066912	ɪ1 s	-0.7422971
-1.194731	ɪ1 t	-0.5081866
-1.815346	ɪ1 t͡ʃ	-0.3612172
-1.528327	ɪ1 v	-0.8542224
-1.646203	ɪ1 z	-0.2872535
-2.410566	ɪ1 ð	-0.2123639
-1.199713	ɪ1 ŋ	0.1351136
-1.074357	ɪ1 ə	-0.05433857
-1.829357	ɪ1 ɹ	-0.8838685
-1.282248	ɪ1 ʃ	-0.5593634
-2.335933	ɪ1 ʒ	-0.5510432
-2.500743	ɪ1 θ	-0.3548312
-2.026215	ɪ2 b	-0.2395857
-1.725185	ɪ2 d	-0.3052084
-2.281488	ɪ2 d͡ʒ	-0.1975891
-1.776338	ɪ2 f	-0.6303154
-1.638035	ɪ2 g	-0.4076796
-2.980458	ɪ2 h
-1.357209	ɪ2 k	-0.2763325
-1.188066	ɪ2 l	-0.1491821
-1.272888	ɪ2 m	-0.4118547
-0.4947365	ɪ2 n	-0.5978264
-2.980458	ɪ2 o
-1.776338	ɪ2 p	-0.307512
-0.6859916	ɪ2 s	-0.6509129
-1.400674	ɪ2 t	-0.1113802
-2.13536	ɪ2 t͡ʃ	-0.09245297
-1.980458	ɪ2 v	-0.6120292
-1.776338	ɪ2 z	-0.8337554
-2.679428	ɪ2 ð	-0.1895011
-1.565485	ɪ2 ŋ	-0.316087
-1.327245	ɪ2 ə	-0.2641109
-2.980458	ɪ2 ɛ
-1.549094	ɪ2 ɹ	-0.6359138
-2.077368	ɪ2 ʃ	-0.2255865
-2.378398	ɪ2 ʒ	-0.1502446
-2.980458	ɪ2 θ
-0.6427904	ɹ </s>
-2.01035	ɹ a	0.9702907
-1.520049	ɹ a1	0.802489
-2.517695	ɹ a2	1.033216
-1.889997	ɹ e	0.7947793
-1.404656	ɹ e1	0.7254157
-2.483837	ɹ e2	0.7527043
-1.527188	ɹ i1ː	0.172213
-1.852901	ɹ i2ː	-0.09824091
-2.156478	ɹ iː	-0.09919578
-1.729871	ɹ o	0.7775156
-1.763677	ɹ o1	0.8346829
-2.654533	ɹ o2	1.07267
-1.684496	ɹ u1ː	0.2306592
-3.044504	ɹ u2ː	-0.03235604
-2.386927	ɹ uː	-0.2140098
-3.784867	ɹ w
-2.003111	ɹ æ	-0.2766054
-1.395701	ɹ æ1	-0.3144039
-2.240799	ɹ æ2	-0.1827015
-2.369894	ɹ ɑ	-0.105028
-1.580747	ɹ ɑ1	-0.008403897
-2.131654	ɹ ɑ1ː	0.008870721
-2.330022	ɹ ɑ2	-0.4047987
-4.085897	ɹ ɑ2ː
-2.345534	ɹ ɑː	-0.7199682
-4.085897	ɹ ɒː
-2.971953	ɹ ɔ	0.7983546
-2.784867	ɹ ɔ1	1
-2.156478	ɹ ɔ1ː	-0.1531003
-4.085897	ɹ ɔ2
-3.608776	ɹ ɔ2ː
-3.006716	ɹ ɔː	-0.2286695
-0.9549201	ɹ ə	0.5917667
-2.483837	ɹ ɛ	-0.14626
-1.280396	ɹ ɛ1	-0.1751252
-2.044504	ɹ ɛ2	-0.124623
-3.608776	ɹ ɜ1ː	-0.5981572
-0.7385668	ɹ ɪ	0.1150136
-1.343172	ɹ ɪ1	0.1774113
-2.483837	ɹ ɪ2	0.2322699
-2.337709	ɹ ʊ	-0.3593526
-2.687957	ɹ ʊ1	-0.559308
-3.608776	ɹ ʊ2	-0.02802874
-2.473113	ɹ ʌ	-0.102602
-1.656144	ɹ ʌ1	-0.5296412
-2.763678	ɹ ʌ2	0.05513009
-0.9531114	ʃ </s>
-3.127753	ʃ a	0.3041156
-2.38739	ʃ a1	2.256747
-3.428782	ʃ a2
-2.525692	ʃ b	-0.2325287
-2.951661	ʃ d	-0.2169213
-2.127753	ʃ e	1.671217
-1.805533	ʃ e1	1.774092
-2.650631	ʃ e2	1.52039
-2.826723	ʃ f	-0.6756936
-2.951661	ʃ h	-0.2147355
-2.013809	ʃ i1ː	-0.1468702
-2.583684	ʃ i2ː	-0.8777083
-2.428782	ʃ iː	-0.2792961
-2.729813	ʃ j	-0.6716839
-2.650631	ʃ k	-0.08458142
-1.399399	ʃ l	-0.8259028
-2.030843	ʃ m	-0.3663477
-0.3957611	ʃ n	-1.113893
-2.951661	ʃ o	2.533391
-1.981624	ʃ o1	1.696567
-3.428782	ʃ o2
-2.583684	ʃ p	-0.06300829
-3.127753	ʃ s
-2.525692	ʃ t	-0.1991656
-3.428782	ʃ t͡ʃ
-2.17351	ʃ u1ː	-0.2668649
-2.951661	ʃ u2ː	-0.537506
-2.282655	ʃ uː	-0.7497895
-2.525692	ʃ w	-0.2041609
-2.583684	ʃ æ	-0.2091099
-1.805533	ʃ æ1	-0.1042445
-2.525692	ʃ æ2	-0.06658624
-2.224663	ʃ ɑ	-0.6954046
-2.150029	ʃ ɑ1	-0.6056197
-2.38739	ʃ ɑ1ː	-0.2065096
-3.127753	ʃ ɑ2	-0.4467993
-2.826723	ʃ ɑ2ː	-0.2932745
-2.826723	ʃ ɑː	-0.2611392
-1.826723	ʃ ɔ1ː	-0.5815321
-2.47454	ʃ ɔ2ː	-0.4471071
-2.951661	ʃ ɔː	-0.1999994
-0.8934884	ʃ ə	-0.6774435
-2.349601	ʃ ɛ	-0.4875261
-1.910269	ʃ ɛ1	-0.09000233
-2.826723	ʃ ɛ2	-0.1165254
-2.38739	ʃ ɜ1ː	-0.1505764
-3.428782	ʃ ɜ2ː
-2.729813	ʃ ɜː	-0.309673
-1.219267	ʃ ɪ	-0.464819
-1.815999	ʃ ɪ1	-0.2820465
-2.650631	ʃ ɪ2	-0.3269312
-1.910269	ʃ ɹ	-0.5588787
-3.127753	ʃ ʃ
-2.47454	ʃ ʊ	-0.537172
-2.428782	ʃ ʊ1	-0.4063304
-3.127753	ʃ ʊ2	-0.4701163
-2.729813	ʃ ʌ	-0.2707802
-2.08636	ʃ ʌ1	-0.5577975
-3.428782	ʃ ʌ2
-0.9941819	ʊ </s>
-1.592013	ʊ b	-0.0534206
-1.388736	ʊ d	-0.184902
-2.255445	ʊ d͡ʒ	-0.1659262
-2.472154	ʊ e	1.738164
-2.74836	ʊ e1	2.407561
-2.021362	ʊ f	-0.008108199
-1.75812	ʊ g	-0.3910425
-2.255445	ʊ h	-0.2758922
-2.799513	ʊ i1ː	-0.4204126
-3.225482	ʊ iː	-0.5845222
-3.225482	ʊ j	-0.2207671
-1.335247	ʊ k	-0.09561634
-0.7731839	ʊ l	-0.4869177
-1.382457	ʊ m	-0.1968452
-0.9109122	ʊ n	-0.1782751
-3.702603	ʊ o1
-1.467074	ʊ p	-0.1822653
-1.215464	ʊ s	-0.07883114
-1.03515	ʊ t	0.05503368
-2.122819	ʊ t͡ʃ	-0.04211769
-1.36018	ʊ v	-0.4428383
-2.498483	ʊ w	-0.2858346
-1.54424	ʊ z	0.06052369
-3.003633	ʊ æ	0
-2.556475	ʊ æ1	-0.3376039
-3.702603	ʊ æ2
-2.304663	ʊ ð	-0.5386297
-3.702603	ʊ ŋ
-3.100543	ʊ ɑ
-2.74836	ʊ ɑ1	-0.2640086
-3.702603	ʊ ɑ1ː
-3.702603	ʊ ɑ2
-3.702603	ʊ ɑː
-3.100543	ʊ ɔ1ː	-0.2538316
-3.702603	ʊ ɔ2ː
-1.218303	ʊ ə	0.1508003
-3.225482	ʊ ɛ	-0.1694234
-2.340875	ʊ ɛ1	-0.2196724
-3.225482	ʊ ɜ1ː	-0.1744573
-1.827542	ʊ ɪ	-0.2442327
-2.66121	ʊ ɪ1	-0.1988946
-3.702603	ʊ ɪ2
-2.158535	ʊ ɹ	-0.2369085
-1.931751	ʊ ʃ	-0.04085553
-3.702603	ʊ ʊ
-3.225482	ʊ ʌ	-0.5048634
-2.623422	ʊ ʒ	-0.5015157
-2.069134	ʊ θ	-0.3864616
-1.006466	ʊ1 d	-0.1911443
-1.830375	ʊ1 f	-0.2009217
-1.705436	ʊ1 g	-0.8994911
-0.909556	ʊ1 k	-0.2423439
-0.8761322	ʊ1 l	-0.1168084
-1.705436	ʊ1 m	-0.1613008
-2.131405	ʊ1 n	-0.5572157
-2.608526	ʊ1 p
-2.006466	ʊ1 s	-0.1247158
-0.9650733	ʊ1 t	-0.08694744
-2.006466	ʊ1 t͡ʃ	-0.1977151
-2.307496	ʊ1 z	-0.4111604
-0.4501635	ʊ1 ə	-0.5606835
-1.830375	ʊ1 ɪ	-0.5158352
-2.608526	ʊ1 ɹ
-1.432435	ʊ1 ʃ	0.2137033
-1.09691	ʊ2 d	-0.3170164
-1.79588	ʊ2 g	-0.4223699
-1.619789	ʊ2 k	-0.5381933
-0.79588	ʊ2 l	-0.1508722
-0.6819367	ʊ2 m	-0.8972544
-1.39794	ʊ2 t	-0.06086288
-2.09691	ʊ2 t͡ʃ
-0.4436975	ʊ2 ə	-0.8340833
-2.09691	ʊ2 ɪ
-1.79588	ʊ2 ʃ	-0.2538138
-1.432511	ʌ b	-0.1165754
-1.976579	ʌ d	-0.1612194
-1.432511	ʌ f	-0.3749293
-1.374519	ʌ g	-0.6401147
-1.277609	ʌ k	-0.7422946
-1.277609	ʌ l	-0.2559639
-1.34819	ʌ m	-0.2131676
-0.5217344	ʌ n	-0.2395797
-0.6978256	ʌ p	-0.6598186
-1.25642	ʌ s	-0.542661
-1.198428	ʌ t	-0.6820132
-2.578639	ʌ t͡ʃ
-1.976579	ʌ v	-0.6185637
-1.499458	ʌ ŋ	-0.6836653
-1.733541	ʌ ʃ	-0.8517959
-1.23931	ʌ1 b	-0.6038864
-1.358106	ʌ1 d	-0.1392087
-1.776017	ʌ1 d͡ʒ	-0.5625947
-1.358106	ʌ1 f	-0.4632407
-1.378077	ʌ1 g	-0.6442245
-1.155208	ʌ1 k	-0.5258417
-1.097981	ʌ1 l	-0.4819608
-0.8761322	ʌ1 m	-0.773342
-0.8289295	ʌ1 n	-0.3465727
-1.363013	ʌ1 p	-0.4471788
-1.092652	ʌ1 s	-0.5266529
-1.203692	ʌ1 t	-0.4617295
-2.052223	ʌ1 t͡ʃ	-0.367507
-1.487952	ʌ1 v	-0.2267857
-1.909556	ʌ1 z	-0.5075876
-1.927285	ʌ1 ð	-1.11032
-1.27007	ʌ1 ŋ	-0.3679536
-1.654284	ʌ1 ɹ	-1.041623
-1.599926	ʌ1 ʃ	-0.312369
-2.705436	ʌ1 θ	-0.652037
-1.003604	ʌ2 b	-0.3011625
-2.383815	ʌ2 d	-0.3932513
-2.684845	ʌ2 d͡ʒ
-2.082785	ʌ2 f
-2.383815	ʌ2 g	-0.4223699
-1.538717	ʌ2 k	-0.09092113
-1.323117	ʌ2 l	-0.3849511
-1.383815	ʌ2 m	-0.2639827
-0.2486827	ʌ2 n	-0.3959748
-1.383815	ʌ2 p	-0.2485525
-1.730603	ʌ2 s	-0.1693586
-1.730603	ʌ2 t	-0.05369824
-1.643453	ʌ2 v	-0.2237669
-2.684845	ʌ2 z
-1.906694	ʌ2 ð	-0.5574778
-1.508754	ʌ2 ŋ	-0.6129419
-2.082785	ʌ2 ɹ	-0.6479021
-2.684845	ʌ2 ʃ
-2.383815	ʌ2 θ	-0.4301882
-0.8750613	ʒ </s>
-1.477121	ʒ e	2.215285
-2.176091	ʒ i1ː
-1.69897	ʒ j	-0.4955927
-2.176091	ʒ l
-0.5326386	ʒ n	-0.5646089
-2.176091	ʒ uː
-1.69897	ʒ w	-0.5994359
-2.176091	ʒ æ1
-2.176091	ʒ ɑ1ː
-0.5963076	ʒ ə	-0.3118541
-2.176091	ʒ ɛ1
-2.176091	ʒ ɪ
-1.875061	ʒ ɪ1	-0.4388915
-1.221849	ʒ ʊ	-0.537172
-1.69897	ʒ ʊ1	-0.4118353
-0.6571226	θ </s>
-2.892651	θ a
-1.938408	θ a1	2.329298
-2.41553	θ b
-2.591621	θ e	2.516315
-1.851258	θ f	-0.4238815
-2.892651	θ h
-1.494711	θ i1ː	-0.4342293
-2.047553	θ iː	-0.1691609
-2.1145	θ j	-0.1205739
-2.591621	θ k
-1.530923	θ l	-0.3327152
-2.047553	θ m	-0.2450992
-1.688531	θ n	-0.2190515
-1.938408	θ o	2.135451
-2.892651	θ o1
-2.047553	θ p	-0.05459054
-2.193681	θ s	-0.1055225
-2.193681	θ t	-0.1084222
-2.892651	θ t͡ʃ
-1.387501	θ w	-0.3407956
-1.851258	θ æ1	-0.5951101
-2.193681	θ ɑ	-0.1762005
-1.81347	θ ɑ1	-0.2469794
-2.290591	θ ɑ1ː	-0.1337036
-2.41553	θ ɑ2	-0.5797396
-1.892651	θ ɔ1ː	-0.4266578
-2.193681	θ ɔː	-0.4529538
-1.290591	θ ə	-0.01306248
-2.41553	θ ɛ
-1.430253	θ ɛ1	-0.6736571
-2.591621	θ ɛ2	-0.4528914
-1.778708	θ ɜ1ː	-0.4387043
-1.851258	θ ɜ2ː	-0.3559755
-0.989561	θ ɪ	-0.38182
-1.361172	θ ɪ1	-0.5103765
-2.290591	θ ɪ2	-0.4356831
-0.9014249	θ ɹ	-0.4580709
-2.591621	θ ʃ	-0.4761493
-1.445493	θ ʌ1	-0.6054695
-2.892651	θ ʌ2

\3-grams:
-0.136838	<s> a ɪ	-0.4581114
-0.6651117	<s> a ʊ	-0.8422688
-0.161368	b a ɪ	-0.2543429
-0.559308	b a ʊ	-0.6443491
-0.1033441	d a ɪ	-0.1028002
-0.7252989	d a ʊ	-0.644349
-0.05799195	d͡ʒ a ɪ	-0.05692619
-0.03687136	f a ɪ	-0.6412058
-1.235528	f a ʊ	-0.387282
-0.4259687	g a ɪ
-0.4259687	g a ʊ	-0.109875
-0.69897	h a ɪ	-0.2115079
-0.1139434	h a ʊ	-0.7367586
-0.09691001	i2ː a ɪ
-0.4259687	k a ɪ	-0.02510568
-0.2662679	k a ʊ	-0.5651678
-0.02580726	l a ɪ	-0.5793152
-1.318063	l a ʊ	-0.1465978
-0.08813609	m a ɪ	0.04456401
-0.845098	m a ʊ	-0.2039371
-0.02698349	n a ɪ	-0.4528825
-1.441957	n a ʊ	-0.07747191
-0.06305175	p a ɪ	-0.3348038
-1.09108	p a ʊ	-0.109875
-0.04665202	s a ɪ	-0.4659367
-1.079181	s a ʊ	-0.5818565
-0.0381577	t a ɪ	-0.1648161
-1.184286	t a ʊ	-0.3433191
-0.1760913	t͡ʃ a ɪ	-0.4239472
-0.08432089	v a ɪ	-0.0462054
-0.07918125	w a ɪ	-0.3308408
-0.9542425	w a ʊ	-0.6671227
-0.3679768	z a ɪ	-0.184915
-0.544068	z a ʊ	-0.3651475
-0.4771213	ɪ a ɪ	-0.4258006
-0.4771213	ɪ a ʊ	-0.3651475
-0.1050618	ɹ a ɪ	0.01043266
-0.7025741	ɹ a ʊ	-0.541428
-0.1760913	ʃ a ɪ	-0.4247907
-0.2607354	<s> a1 ɪ	-0.386133
-0.3590219	<s> a1 ʊ	-0.8197277
-0.2202949	b a1 ɪ	0.1887012
-0.4244149	b a1 ʊ	-0.1014577
-0.2967512	d a1 ɪ	-0.1102695
-0.3230801	d a1 ʊ	-0.08971924
-0.1180993	d͡ʒ a1 ɪ	-0.2755802
-0.845098	d͡ʒ a1 ʊ	-0.1990565
-0.113232	f a1 ɪ	-0.408439
-0.6713865	f a1 ʊ	-0.6373994
-0.2360892	g a1 ɪ	-0.6170064
-0.449969	g a1 ʊ	-0.05646542
-0.1861681	h a1 ɪ	-0.2334976
-0.481124	h a1 ʊ	-0.228871
-0.1760913	i2ː a1 ɪ
-0.30103	iː a1 ʊ	-0.577198
-0.1249387	j a1 ʊ	-0.5792677
-0.5952206	k a1 ɪ	0.1444381
-0.1365827	k a1 ʊ	-0.07172251
-0.09029067	l a1 ɪ	0.05907369
-0.7425917	l a1 ʊ	0.1574572
-0.1117591	m a1 ɪ	-0.5805998
-0.6776069	m a1 ʊ	-0.3544261
-0.07609017	n a1 ɪ	-0.2191874
-0.845098	n a1 ʊ	-0.2340832
-0.1609838	p a1 ɪ	-0.2119269
-0.5345645	p a1 ʊ	-0.1542483
-0.08092191	s a1 ɪ	-0.4329585
-0.79588	s a1 ʊ	-0.3521825
-0.07367215	t a1 ɪ	0.04506278
-0.8481891	t a1 ʊ	-0.2897834
-0.06694679	t͡ʃ a1 ɪ	-0.7220742
-0.1760913	uː a1 ʊ	-0.3985926
-0.09275405	v a1 ɪ	-0.2094842
-0.7781513	v a1 ʊ	-0.1923285
-0.02004792	w a1 ɪ	-0.4309155
-1.521792	w a1 ʊ	-0.2508967
-0.1091445	z a1 ɪ	-0.3280798
-0.9542425	z a1 ʊ	-0.2897834
-0.4771213	ð a1 ɪ
-0.4771213	ð a1 ʊ	-0.3985926
-0.1760913	ŋ a1 ʊ	-0.3985926
-0.1760913	ɪ a1 ʊ
-0.1465978	ɹ a1 ɪ	-0.1171091
-0.5511684	ɹ a1 ʊ	-0.08219445
-0.3357921	ʃ a1 ɪ	-0.1293858
-0.4149733	ʃ a1 ʊ	-0.4078827
-0.7403627	θ a1 ɪ
-0.1962947	θ a1 ʊ	-0.8802977
-0.4658403	<s> a2 ɪ	-0.1072494
-0.2180558	<s> a2 ʊ	-0.8191966
-0.10721	b a2 ɪ	-0.3300818
-0.80618	b a2 ʊ	-0.6765292
-0.30103	d a2 ɪ	-0.7246879
-0.3372422	d a2 ʊ	-1.186586
-0.1180993	f a2 ɪ	-0.5592766
-0.845098	f a2 ʊ	-0.4084352
-0.05799195	g a2 ɪ	-0.3488312
-0.03407979	h a2 ɪ	0.0644699
-1.423246	h a2 ʊ	-0.4579581
-0.5797836	k a2 ɪ	-0.2519212
-0.1995724	k a2 ʊ	-0.475382
-0.1149545	l a2 ɪ	-0.05835596
-0.7303784	l a2 ʊ	-0.3645037
-0.2340832	m a2 ɪ	-0.3332635
-0.60206	m a2 ʊ	-0.4084352
-0.1627273	n a2 ɪ	-0.2934529
-0.7269987	n a2 ʊ	-0.5925841
-0.3617278	p a2 ɪ	-0.4003913
-0.3203351	p a2 ʊ	-0.7380844
-0.236572	s a2 ɪ	-0.4664059
-0.4202164	s a2 ʊ	-0.5952901
-0.2218488	t a2 ɪ	-0.1799436
-0.5740313	t a2 ʊ	-0.1000233
-0.1249387	t͡ʃ a2 ɪ	-0.5590254
-0.09691001	v a2 ɪ	-0.2498774
-0.06694679	w a2 ɪ	-0.1507854
-0.1760913	ŋ a2 ɪ	-0.3726341
-0.1597008	ɹ a2 ɪ	-0.3990918
-0.5910646	ɹ a2 ʊ	-0.5746557
-2.147795	<s> b a	-0.6379725
-1.416641	<s> b a1	0.1111505
-1.960708	<s> b a2	-0.6621673
-1.490887	<s> b e1	0.1995723
-2.960709	<s> b e2	0.4771213
-1.589641	<s> b i1ː	-0.01377371
-2.416641	<s> b i2ː	-0.02139815
-2.085647	<s> b j	-0.1090025
-0.9436752	<s> b l	-0.9562212
-2.784617	<s> b o	1.261263
-1.545735	<s> b o1	0.1082331
-2.784617	<s> b o2	0
-1.648955	<s> b u1ː	0.03411919
-2.416641	<s> b u2ː	0.04139268
-2.147795	<s> b æ	0.1602357
-1.057619	<s> b æ1	0.07255071
-1.814581	<s> b æ2	-0.07277632
-1.302697	<s> b ɑ1	0.08715022
-1.521376	<s> b ɑ1ː	-0.08121961
-2.960709	<s> b ɑ2
-2.960709	<s> b ɑ2ː
-2.261739	<s> b ɑː	-0.1282164
-1.900011	<s> b ɔ1	0.08218682
-1.580497	<s> b ɔ1ː	-0.09519738
-2.960709	<s> b ɔ2ː
-2.960709	<s> b ɔː	-0.138767
-1.846765	<s> b ə	0.09894082
-2.784617	<s> b ɛ	-0.2001295
-1.307496	<s> b ɛ1	0.006160617
-2.147795	<s> b ɛ2	0.1413291
-1.598981	<s> b ɜ1ː	0.02615273
-2.784617	<s> b ɜ2ː	0.146128
-2.562768	<s> b ɜː	-0.1663314
-1.220346	<s> b ɪ	-0.2655714
-1.416641	<s> b ɪ1	0.142893
-2.784617	<s> b ɪ2
-0.8551984	<s> b ɹ	-0.4601015
-2.659678	<s> b ʊ	-0.2609127
-1.554168	<s> b ʊ1	-0.103399
-2.659678	<s> b ʊ2	-0.4436975
-1.220346	<s> b ʌ1	-0.005285561
-2.784617	<s> b ʌ2	-0.1026623
-1.653213	d b a	-0.3369426
-1.653213	d b a1	-0.07684004
-1.653213	d b i2ː	-0.3679768
-1.477121	d b l
-1.653213	d b o	1.386202
-1.352183	d b æ	-0.08735005
-1.653213	d b ɑ	-0.05115253
-1	d b ɔː	0.01296496
-1.653213	d b ɛ
-1.477121	d b ɛ1	-0.5801054
-1.255273	d b ɛ2	-0.2353512
-1.477121	d b ɜː
-1.653213	d b ɪ
-1.255273	d b ɹ	-0.1661619
-1.477121	d b ʊ	-0.1119738
-0.39794	d͡ʒ b ɹ
-1.113943	f b l	-0.4763273
-1.113943	f b o	1.386202
-1.113943	f b ɔː
-0.8129134	f b ɹ	-0.1376583
-0.7403627	g b o	1.386202
-1.311754	i1ː b a
-1.135663	i1ː b l
-1.135663	i1ː b o	1.261263
-1.311754	i1ː b ɑ
-1.311754	i1ː b ɔː	-0.138767
-0.5713912	i1ː b ɹ	-0.2258686
-0.90309	i2ː b ɹ
-0.90309	i2ː b ʌ1
-1.329059	k b a	0.2863068
-1.50515	k b a2	0.1829307
-1.329059	k b l	-0.5916236
-1.329059	k b æ	0.05252904
-1.329059	k b ɑ	-0.1760913
-1.50515	k b ɑː	-0.3735807
-1.329059	k b ɔː	0.1165055
-1.50515	k b ɛ
-1.50515	k b ɛ1	-0.4217429
-1.50515	k b ɛ2
-1.50515	k b ɪ	-0.4194963
-1.10721	k b ɹ
-1.329059	k b ʊ	-0.1119738
-1.716003	l b </s>
-1.414973	l b e1	1.278754
-1.539912	l b i1ː	-0.2037505
-1.716003	l b iː
-1.318063	l b l	-0.2765562
-1.171935	l b o	0.9602329
-1.414973	l b æ	-0.02665219
-1.539912	l b ɑ	-0.1760913
-1.716003	l b ɑ1	-0.4320943
-1.716003	l b ɑ2	-0.3853509
-1.171935	l b ɔː	0.03732431
-1.238882	l b ə	-0.07635969
-1.716003	l b ɛ1
-1.414973	l b ɛ2	-0.1684044
-1.062791	l b ɹ	-0.1288816
-1.539912	l b ʊ	0.2682375
-1.716003	l b ʌ2
-1.992701	m b a1	0.1784325
-1.867762	m b e1	1.278754
-1.770852	m b i1ː	-0.3309932
-1.770852	m b j	-0.5477024
-0.7294593	m b l	-0.1183825
-1.770852	m b o	1.085172
-1.691671	m b o1	0.9874109
-1.867762	m b æ	-0.2726346
-1.566732	m b æ1	-0.1439066
-1.992701	m b ɑ1	-0.1768218
-1.515579	m b ɑ1ː	-0.2789993
-2.168792	m b ɒː	0
-1.992701	m b ɔ	0.7403627
-1.867762	m b ɔ1	0.763428
-0.6309729	m b ə	0.1558693
-1.691671	m b ɛ1	-0.229278
-1.867762	m b ɜː	-0.2498775
-1.168792	m b ɪ	-0.05627851
-1.624724	m b ɪ1	-0.2838505
-1.089611	m b ɹ	-0.2303392
-2.168792	m b ʊ
-1.867762	m b ʌ	-0.550031
-1.867762	m b ʌ1	-0.3742619
-1.550228	n b a1	-0.07684004
-1.550228	n b e	0.8239088
-1.550228	n b i1ː	-0.4101745
-1.550228	n b iː	-0.4382032
-1.152288	n b l	-0.08634591
-1.550228	n b ɑ
-1.550228	n b ɔ1ː	-0.4347174
-1.249198	n b ɔː	-0.1569409
-1.550228	n b ɛ1
-1.550228	n b ɜː	-0.4121805
-1.073107	n b ɪ	-0.2562351
-1.152288	n b ɹ	-0.09876996
-1.550228	n b ʌ1
-0.9852768	p b o	1.261263
-0.860338	p b ɹ
-1.113943	s b o	1.164353
-1.414973	s b æ
-1.238882	s b ɑ	-0.1760913
-1.414973	s b ɑ1ː
-1.238882	s b ɔː	0.1165055
-1.238882	s b ɛ2	-0.08922321
-1.113943	s b ɪ	-0.08850306
-0.8709053	s b ɹ	-0.116469
-1.292256	t b a	-0.2277981
-1.389166	t b l	-0.1295545
-1.389166	t b o	1.164353
-1.036984	t b æ	-0.005462885
-1.514105	t b ɑ	-0.1760913
-0.9120448	t b ɔː	0.3853508
-1.514105	t b ɛ	-0.08618616
-1.690196	t b ɛ2	-0.4158516
-1.514105	t b ɪ	-0.1884764
-1.213075	t b ɹ	-0.08057694
-1.690196	t b ʊ	0.01296496
-1.09691	t͡ʃ b l
-0.9208187	t͡ʃ b æ	0.05252904
-0.9208187	t͡ʃ b ɑ	0.20412
-1.09691	t͡ʃ b ɔː
-1.09691	t͡ʃ b ɛ	-0.444121
-1.113943	u1ː b </s>
-1.414973	u1ː b l
-1.193125	u1ː b ɔː	-0.2238877
-0.8507019	u1ː b ə	-0.3141517
-0.6616457	u1ː b ɪ	-0.1727592
-1.591065	u1ː b ɪ2	-0.4065402
-0.9378521	u1ː b ɹ	-0.962042
-0.3357921	u2ː b l	-0.1444655
-0.60206	uː b </s>
-0.90309	uː b ɪ1	-0.4730434
-1.243038	z b ɔ	0.8653015
-0.845098	z b ə	-0.2040367
-0.69897	z b ɪ	-0.268697
-0.763428	æ b </s>
-1.161368	æ b i1ː
-0.6173	æ b s	-0.6696206
-0.8085339	æ1 b </s>
-1.869232	æ1 b d
-1.267172	æ1 b j	-0.7237936
-0.7723217	æ1 b l	-0.1167984
-1.693141	æ1 b o	1.261263
-1.128869	æ1 b s	-0.3459267
-1.869232	æ1 b w
-0.9398128	æ1 b ə	-0.4055988
-0.6931404	æ1 b ɪ	-0.3225862
-1.471292	æ1 b ɹ	-0.4788265
-1.255273	æ2 b o	1.386202
-1.079181	æ2 b s	-0.5708665
-0.60206	æ2 b ə	-0.4726577
-0.9542425	æ2 b ɪ
-1.079181	æ2 b ɹ	-0.1969155
-0.90309	ŋ b o	1.164353
-1.20412	ŋ b ɑ	-0.05115253
-0.80618	ŋ b ɔː	-0.0296225
-1.20412	ŋ b ɜː	-0.2825466
-1.20412	ŋ b ɹ
-0.30103	ɑ b </s>
-0.5228788	ɑ b s
-0.7085153	ɑ1 b </s>
-0.5835766	ɑ1 b l	-0.09624845
-1.486667	ɑ1 b n	-0.1638568
-0.9637879	ɑ1 b s	-0.1040181
-0.9223952	ɑ1 b ə	-0.3050083
-0.8846066	ɑ1 b ɪ	-0.211446
-1.041393	ɑ1ː b </s>
-1.138303	ɑ1ː b w	-0.5228788
-1.439333	ɑ1ː b ɔ	0.8653015
-0.5642715	ɑ1ː b ə	-0.06981912
-0.6264194	ɑ1ː b ɪ	-0.3390219
-1.439333	ɑ1ː b ɹ	-0.452188
-0.5314789	ɑ2 b l	-0.2026301
-0.7533277	ɑ2 b s
-0.9294189	ɑ2 b ə
-0.60206	ɑ2ː b ɑ1ː	-0.5878196
-0.3802112	ɑ2ː b ə	-0.2040367
-0.9542425	ɑː b </s>
-0.9542425	ɑː b e1	1.500602
-0.9542425	ɑː b æ1	-0.4167365
-0.9542425	ɑː b ɑ1
-1.238882	ɔ1ː b </s>
-1.414973	ɔ1ː b d	-0.3756636
-1.414973	ɔ1ː b e2	0.4771213
-1.113943	ɔ1ː b l	-0.06233293
-1.414973	ɔ1ː b æ	-0.2027435
-1.414973	ɔ1ː b ɔː	-0.138767
-0.9378521	ɔ1ː b ə	-0.2620286
-1.414973	ɔ1ː b ɛ
-0.9378521	ɔ1ː b ɪ	-0.5077122
-1.017033	ɔ1ː b ɹ	-0.2517374
-0.69897	ɔː b o1	1.355388
-0.69897	ɔː b ɛ1	-0.3855308
-2.504244	ə b </s>
-1.981366	ə b a	0.684247
-1.981366	ə b a1	0.8893017
-2.203214	ə b a2	-0.3521825
-2.680336	ə b d
-1.902184	ə b d͡ʒ	-0.3573221
-2.680336	ə b e	0.8239088
-1.981366	ə b e1	0.9363309
-1.981366	ə b i1ː	-0.20309
-2.379306	ə b j	-0.20412
-0.2612062	ə b l	-1.019195
-2.680336	ə b m
-2.680336	ə b n	-0.4191293
-2.282396	ə b o	1.085172
-2.680336	ə b o1	1.355388
-2.680336	ə b p	0
-1.401582	ə b s	-0.214739
-2.027123	ə b t	-0.2138798
-2.282396	ə b u1ː	-0.3222193
-2.504244	ə b uː	-0.01772878
-2.379306	ə b v	-0.04575747
-2.078275	ə b z	-0.2498774
-1.939973	ə b æ	-0.3924075
-1.981366	ə b æ1	-0.1496504
-2.379306	ə b ɑ	0.1249388
-1.902184	ə b ɑ1	-0.3388186
-2.379306	ə b ɑ1ː	-0.2867895
-2.504244	ə b ɑː	-0.1183082
-1.902184	ə b ɔ1ː	-0.2696215
-2.680336	ə b ɔ2ː	-0.30103
-2.027123	ə b ɔː	-0.03906402
-2.282396	ə b ə	-0.1411515
-2.078275	ə b ɛ	-0.1506441
-1.981366	ə b ɛ1	-0.3463668
-2.282396	ə b ɜ1ː	-0.1535839
-2.504244	ə b ɜː	-0.4074854
-2.504244	ə b ɪ	-0.1758056
-1.057086	ə b ɪ1	-0.4978594
-1.726093	ə b ɹ	-0.1492235
-2.504244	ə b ʊ	-0.1119738
-2.203214	ə b ʌ	0.06539296
-2.203214	ə b ʌ1	-0.5650764
-2.282396	ə b ʌ2	-0.2922561
-0.9700368	ɛ1 b </s>
-0.544068	ɛ1 b l	-0.1037256
-0.9700368	ɛ1 b ə	-0.5360004
-0.9700368	ɛ1 b ɪ
-1.146128	ɛ1 b ɹ	-0.452188
-0.4259687	ɛ2 b ə	-0.5360004
-0.8553172	ɜ1ː b </s>
-0.7883704	ɜ1ː b j	-0.2552725
-1.156347	ɜ1ː b l	-0.363363
-0.4573772	ɜ1ː b ə	0.03034407
-0.9344984	ɜ1ː b ɪ
-0.30103	ɜ2ː b o	1.261263
-0.7201593	ɜː b </s>
-0.6232493	ɜː b e1	1.199572
-0.845098	ɜː b o1	1.230449
-1.269238	ɪ b </s>
-1.897627	ɪ b a	-0.1908145
-2.198657	ɪ b a1
-2.198657	ɪ b d	-0.3756636
-1.897627	ɪ b e1	1.278754
-2.022566	ɪ b i1ː
-1.721536	ɪ b iː	-0.09275404
-1.295567	ɪ b j	-0.515666
-0.7754112	ɪ b l	-0.1427261
-1.800717	ɪ b o	1.085172
-2.022566	ɪ b u1ː	-0.4573772
-2.198657	ɪ b z	-0.3424227
-1.800717	ɪ b æ	-0.09359899
-1.800717	ɪ b ɑ	0.2218488
-2.198657	ɪ b ɑ1ː
-1.897627	ɪ b ɑ2	-0.2340832
-2.198657	ɪ b ɔ	0.8653015
-1.897627	ɪ b ɔ1ː	-0.6782854
-1.897627	ɪ b ɔː	-0.5548809
-0.955619	ɪ b ə	0.1015978
-2.198657	ɪ b ɛ
-1.545445	ɪ b ɛ1	-0.2886207
-2.022566	ɪ b ɜː	-0.02727409
-1.385744	ɪ b ɪ	-0.1357253
-1.137959	ɪ b ɪ1	-0.08015257
-2.198657	ɪ b ɪ2
-0.955619	ɪ b ɹ	-0.2435703
-2.022566	ɪ b ʊ	-0.1119738
-1.654589	ɪ b ʌ	-0.1106983
-2.022566	ɪ b ʌ1	-0.1514414
-0.7865844	ɪ1 b </s>
-1.716003	ɪ1 b d
-0.8709053	ɪ1 b j	-0.5969203
-0.8409421	ɪ1 b l	-0.2462557
-0.60206	ɪ1 b ə	-0.1344914
-0.7617608	ɪ1 b ɪ	-0.3103518
-0.3357921	ɪ2 b ə	-0.334355
-0.3802112	ʃ b ʌ2	-0.2487904
-1.499687	ʊ b </s>
-1.198657	ʊ b a	-0.5332372
-1.897627	ʊ b a2	0.1829307
-1.198657	ʊ b e	0.2596374
-1.596597	ʊ b e1	1.278754
-1.897627	ʊ b i1ː
-1.897627	ʊ b iː
-1.897627	ʊ b j	-0.3865514
-1.052529	ʊ b l	0.06937736
-1.295567	ʊ b o	0.9090803
-1.897627	ʊ b t	-0.3107898
-1.897627	ʊ b æ
-1.596597	ʊ b æ1	-0.6527483
-1.596597	ʊ b ɑ	0.1249388
-1.596597	ʊ b ɔ	0.6434527
-1.897627	ʊ b ɔ1ː
-1.897627	ʊ b ɔː	-0.3330322
-1.157264	ʊ b ə	-0.4037625
-0.9199035	ʊ b ɪ	-0.2895291
-1.499687	ʊ b ɪ1	-0.4563377
-1.420506	ʊ b ɹ	-0.3039327
-1.897627	ʊ b ʌ1	-0.4270752
-0.4771213	ʌ b </s>
-1.021189	ʌ b l
-0.916454	ʌ1 b </s>
-1.819544	ʌ1 b d
-1.643453	ʌ1 b d͡ʒ	-0.1896641
-1.819544	ʌ1 b h
-1.421604	ʌ1 b k	-0.1294864
-0.4771213	ʌ1 b l	-0.06685233
-1.275476	ʌ1 b s	-0.06756061
-1.819544	ʌ1 b t
-0.916454	ʌ1 b ə	-0.2159472
-0.9744459	ʌ1 b ɪ	-0.3981969
-1.819544	ʌ1 b ʌ
-1.308209	ʌ2 b d͡ʒ
-0.8822398	ʌ2 b k	-0.1605791
-0.4631105	ʌ2 b l	-0.03246784
-1.18327	ʌ2 b s	-0.06756061
-1.18327	ʌ2 b ə	-0.08315955
-2.777668	<s> d </s>
-1.807632	<s> d a	-0.7882516
-1.415941	<s> d a1	0.1530633
-1.621321	<s> d a2	0.04575717
-2.777668	<s> d e	1.130334
-1.621321	<s> d e1	0.3059373
-2.65273	<s> d e2	0
-1.698487	<s> d i1ː	0.003680348
-1.435246	<s> d i2ː	0
-2.175608	<s> d iː	-0.09236238
-1.710722	<s> d j	-0.5796558
-2.476639	<s> d o	1.00616
-1.893062	<s> d o1	0.1760912
-2.175608	<s> d u1ː	0.04139268
-2.65273	<s> d w	-0.2589687
-2.65273	<s> d æ	0.04420365
-1.514427	<s> d æ1	-0.05115247
-2.95376	<s> d æ2	0.1249388
-2.65273	<s> d ɑ	-0.03778857
-1.409692	<s> d ɑ1	-0.08190399
-1.912367	<s> d ɑ1ː	-0.2099495
-2.140846	<s> d ɑ2	-0.1829307
-2.95376	<s> d ɔ1	0
-1.893062	<s> d ɔ1ː	-0.1706962
-2.95376	<s> d ɛ
-1.114911	<s> d ɛ1	0.04745728
-1.686588	<s> d ɛ2	0.01001292
-2.300547	<s> d ɜ1ː	-0.07978907
-2.777668	<s> d ɜ2ː	0
-0.5575603	<s> d ɪ	-0.8837094
-1.194092	<s> d ɪ1	0.1730709
-1.150986	<s> d ɪ2	-0.267011
-1.099454	<s> d ɹ	-0.4236543
-2.777668	<s> d ʌ
-1.379728	<s> d ʌ1	0.1167496
-1.95376	<s> d ʌ2	-0.03218472
-0.6812412	b d </s>
-1.079181	b d ə
-0.7781513	b d ɪ	-0.1287406
-1.041393	d d e	1.255273
-1.041393	d d ɪ
-0.8653014	d d ɹ
-0.09017663	d͡ʒ d </s>
-0.30103	f d ɪ	-0.2598011
-0.2304489	g d </s>
-0.7533277	g d e	1.130334
-0.6114	i1ː d </s>
-1.672098	i1ː d b
-0.7827961	i1ː d j	-1.281681
-1.672098	i1ː d k
-1.160215	i1ː d l	0.1745114
-1.973128	i1ː d n	-0.3896675
-1.371068	i1ː d o	0.8970159
-1.973128	i1ː d æ	-0.2867896
-1.098067	i1ː d ə	0.03773022
-0.7059561	i1ː d ɪ	-0.4237301
-1.243038	i2ː d i1ː	-0.405569
-0.69897	i2ː d ə	-0.272873
-0.5026754	i2ː d ɪ	0.05467521
-0.1829307	iː d </s>
-1.09691	k d a1	-0.1970758
-1.09691	k d ə	-0.4431069
-1.09691	k d ɹ
-0.3288789	l d </s>
-2.206826	l d a	-0.3865514
-1.729705	l d b	-0.3170181
-2.206826	l d d
-1.553613	l d f	-0.2363047
-2.206826	l d h
-2.206826	l d i1ː	-0.4183433
-2.206826	l d j	-0.4391121
-2.206826	l d k
-1.553613	l d l	-0.3054391
-2.206826	l d m
-2.206826	l d n	-0.2102226
-2.206826	l d o	1.374137
-2.206826	l d p
-2.206826	l d u1ː
-1.905796	l d w
-0.9167913	l d ə	-0.06625232
-1.109916	l d ɪ	-0.08899893
-1.662758	l d ɹ	-0.1290583
-1.905796	l d ʌ	-0.07649212
-0.1383027	m d </s>
-1.342423	m d ɹ
-0.5944326	n d </s>
-2.195285	n d a	0.109875
-1.945407	n d a1	0.7490492
-2.848497	n d a2
-1.973436	n d b	-0.03449476
-2.848497	n d d
-2.003399	n d e	0.5563024
-2.149527	n d e1	0.9079973
-2.003399	n d f	-0.1673425
-2.672406	n d g
-2.149527	n d h	-0.2290037
-2.450557	n d i1ː	-0.1638254
-1.919078	n d j	-0.1195329
-2.108134	n d k	-0.2246417
-1.386099	n d l	0.1397879
-2.195285	n d m	-0.05579742
-2.450557	n d n	-0.1010781
-1.734554	n d o	0.4198947
-2.672406	n d o1	0.9542424
-2.195285	n d p	-0.2009149
-2.003399	n d s	-0.03377841
-2.547467	n d t
-2.547467	n d u1ː	-0.1249387
-2.246437	n d w	-0.2205104
-2.035584	n d z	0.2108533
-2.848497	n d æ
-2.371376	n d æ1	-0.3413246
-2.848497	n d ɑ1
-2.848497	n d ɑː	-0.3869447
-2.547467	n d ɔ1ː	-0.06111726
-2.672406	n d ɔː	0.1760913
-0.6782353	n d ə	0.2946892
-2.547467	n d ɛ	-0.5850267
-1.672406	n d ɛ1	-0.1632118
-0.7657117	n d ɪ	-0.1682251
-1.687129	n d ɪ1	-0.01004726
-2.848497	n d ɪ2
-1.393652	n d ɹ	-0.2789814
-2.371376	n d ʃ
-2.848497	n d ʊ	-0.2552725
-2.450557	n d ʌ	-0.2887955
-1.787799	n d ʌ1	-0.3034011
-0.90309	p d æ	-0.4007329
-0.90309	p d ɑː	-0.3521825
-0.7201593	s d e1	1.25042
-0.7201593	s d i1ː	-0.08735005
-0.7201593	s d ɪ	-0.4566524
-0.8893017	t d a	-0.6084002
-1.190332	t d a1	-0.1970758
-1.01424	t d e	1.130334
-1.01424	t d e1	1.34733
-1.190332	t d i1ː	-0.442817
-1.190332	t d ɪ1
-1.190332	t d ɹ
-0.8750613	t͡ʃ d i1ː
-0.5256717	u1ː d </s>
-1.716003	u1ː d j	-0.253652
-0.9378521	u1ː d l	-0.006051004
-1.318063	u1ː d n	-0.1859927
-1.414973	u1ː d o	1.152288
-1.716003	u1ː d uː
-1.017033	u1ː d ə	-0.2385242
-0.6553055	u1ː d ɪ	-0.1099328
-1.716003	u1ː d ɹ
-0.544068	u2ː d ə	-0.3868953
-0.2771178	uː d </s>
-1.247155	uː d e1	1.34733
-1.122216	uː d ɪ	-0.6781575
-0.9461246	uː d ɪ1	-0.7750602
-0.243038	v d </s>
-0.1371732	z d </s>
-1.380211	z d a	0.1970252
-1.380211	z d ɪ	-0.4369723
-0.154902	æ d </s>
-1	æ d m	-0.3836996
-0.8834944	æ1 d </s>
-0.9378521	æ1 d l	0.3523805
-1.268845	æ1 d m	-0.241032
-1.335792	æ1 d n	-0.1590701
-1.335792	æ1 d o	1.00616
-1.210853	æ1 d v	-0.6041837
-1.812913	æ1 d z	-0.01639044
-0.8586708	æ1 d ə	-0.3042257
-0.6368221	æ1 d ɪ	-0.215443
-0.8893017	æ2 d l	-0.2976935
-1.190332	æ2 d o	1.374137
-1.01424	æ2 d v	-0.147747
-0.6462637	æ2 d ə	-0.3562264
-0.8893017	æ2 d ɪ	-0.1253155
-0.20412	ð d </s>
-0.9208187	ŋ d </s>
-1.09691	ŋ d ɑ1	-0.4604156
-1.09691	ŋ d ɛ
-0.9208187	ŋ d ɪ1	-0.5210268
-1.09691	ŋ d ɹ
-0.2477845	ɑ d </s>
-0.4586379	ɑ d ɹ	-0.3894519
-0.7596679	ɑ1 d </s>
-1.662758	ɑ1 d f	-0.2082759
-1.662758	ɑ1 d j	-0.1838396
-0.8846066	ɑ1 d l	-0.1268733
-1.838849	ɑ1 d m
-1.838849	ɑ1 d s
-1.662758	ɑ1 d z	0.2388821
-1.662758	ɑ1 d æ	-0.4117283
-0.9357591	ɑ1 d ə	-0.1635818
-0.5600955	ɑ1 d ɪ	-0.08947188
-1.440909	ɑ1 d ɹ	-0.3576666
-0.6210278	ɑ1ː d </s>
-1.223088	ɑ1ː d b	-0.1505372
-1.466126	ɑ1ː d j	-0.2385086
-1.466126	ɑ1ː d k	-0.2794903
-1.767156	ɑ1ː d l	-0.218289
-1.026793	ɑ1ː d n	-0.2793283
-1.165096	ɑ1ː d o	0.8970159
-1.767156	ɑ1ː d w
-1.466126	ɑ1ː d z	0.1597008
-1.223088	ɑ1ː d ə	0.09899992
-0.9220578	ɑ1ː d ɪ	-0.1566432
-1.767156	ɑ1ː d ɹ
-1.591065	ɑ1ː d ʃ	-0.1079054
-0.8846066	ɑ2 d l	-0.4590231
-0.6627578	ɑ2 d ə	0.0001283139
-0.5835766	ɑ2 d ɪ	-0.114753
-0.90309	ɑ2ː d b
-0.90309	ɑ2ː d h
-0.7781513	ɑ2ː d n	-0.05867427
-1.079181	ɑ2ː d ɪ	-0.4311816
-0.1139434	ɑː d </s>
-1.414973	ɑː d i1ː	-0.442817
-0.6046374	ɔ1ː d </s>
-1.926857	ɔ1ː d iː	-0.4490925
-1.324797	ɔ1ː d j	-0.2994094
-1.324797	ɔ1ː d k	-0.298219
-1.449735	ɔ1ː d l	0.1039304
-1.186494	ɔ1ː d n	-0.3638602
-1.926857	ɔ1ː d w
-1.625827	ɔ1ː d z	0.3357921
-0.6838186	ɔ1ː d ə	-0.1618764
-0.8661588	ɔ1ː d ɪ	-0.3714164
-1.625827	ɔ1ː d ɹ	-0.2652053
-1.926857	ɔ1ː d ʃ
-0.6283889	ɔ2ː d ə	-0.2409251
-0.2762064	ɔ2ː d ɪ	-0.18378
-0.1787154	ɔː d </s>
-1.220108	ɔː d e1	1.171239
-1.618048	ɔː d ɪ1	-0.4070834
-0.4466601	ə d </s>
-1.572374	ə d a	-0.05285233
-2.417472	ə d d
-1.764259	ə d e	0.7323937
-2.019532	ə d e1	1.171239
-2.116442	ə d f	-0.2363046
-2.116442	ə d h	-0.2586261
-2.417472	ə d iː
-1.815412	ə d j	-0.3905996
-1.677109	ə d l	-0.1883257
-1.514382	ə d m	-0.2085723
-2.019532	ə d n	-0.1010781
-2.417472	ə d o	1.374137
-2.24138	ə d o1	0.9542424
-2.417472	ə d u1ː	-0.30103
-2.019532	ə d uː	-0.00782533
-1.33829	ə d v	-0.4238346
-1.463229	ə d z	-0.8180228
-2.019532	ə d æ	-0.2287976
-2.019532	ə d æ1	-0.08111576
-1.94035	ə d ɑ	0.2120889
-2.019532	ə d ɑ1	-0.248852
-2.116442	ə d ɑ1ː	-0.6492822
-2.116442	ə d ɔ1ː	-0.2160192
-2.019532	ə d ɔː	-0.3802113
-1.572374	ə d ə	-0.01045781
-2.116442	ə d ɛ
-1.604558	ə d ɛ1	-0.1867836
-2.24138	ə d ɛ2	-0.5509075
-1.138718	ə d ɪ	-0.2416154
-1.439748	ə d ɪ1	-0.2395923
-1.396282	ə d ɹ	-0.212153
-1.764259	ə d ʌ1	-0.2994421
-0.08517161	ɛ d </s>
-1.261263	ɛ d j	-0.3703962
-1.562293	ɛ d ɪ	-0.4311816
-0.7241015	ɛ1 d </s>
-1.441957	ɛ1 d b	-0.1026623
-1.551101	ɛ1 d f	-0.123744
-1.493109	ɛ1 d j	-0.592245
-1.919078	ɛ1 d k
-0.9982594	ɛ1 d l	0.02274323
-2.095169	ɛ1 d n
-2.095169	ɛ1 d o	1.374137
-2.095169	ɛ1 d p
-1.493109	ɛ1 d s	0.0843209
-1.618048	ɛ1 d w	-0.02242484
-0.9982594	ɛ1 d ə	-0.3378351
-0.5328765	ɛ1 d ɪ	-0.4278595
-1.919078	ɛ1 d ɹ	-0.2115386
-2.095169	ɛ1 d θ	-0.3309932
-1.39794	ɛ2 d b
-1.39794	ɛ2 d f	-0.4635485
-1.221849	ɛ2 d i1ː	-0.5852465
-1.221849	ɛ2 d ə	-0.2147343
-0.4685211	ɛ2 d ɪ	-0.2894039
-0.7220353	ɜ1ː d </s>
-1.064458	ɜ1ː d l	0.02391219
-1.064458	ɜ1ː d n	-0.280523
-1.462398	ɜ1ː d s
-1.286307	ɜ1ː d z
-0.91833	ɜ1ː d ə	-0.03864306
-0.860338	ɜ1ː d ɪ	-0.1856468
-0.7403627	ɜ2ː d ɹ	-0.4641949
-0.01703334	ɜː d </s>
-0.3205646	ɪ d </s>
-2.235889	ɪ d a	0.9751765
-2.478927	ɪ d a1	1.22617
-2.478927	ɪ d b
-2.603866	ɪ d d
-2.039594	ɪ d e	0.6532125
-1.967044	ɪ d e1	0.8032619
-2.779957	ɪ d g
-2.478927	ɪ d i1ː	-0.1235622
-2.779957	ɪ d iː
-1.633829	ɪ d j	-0.2065394
-0.9737771	ɪ d l	-0.495655
-2.779957	ɪ d m	-0.4628808
-1.302836	ɪ d n	-0.4768177
-2.779957	ɪ d o	1.374137
-2.603866	ɪ d o1	0.9542424
-2.080987	ɪ d s	-0.05478677
-2.478927	ɪ d t	-0.05435767
-2.235889	ɪ d w	-0.0621479
-2.039594	ɪ d z	0.2688453
-2.779957	ɪ d æ
-1.934859	ɪ d æ1	-0.2774591
-2.235889	ɪ d ɑ1	-0.567426
-2.779957	ɪ d ɑ1ː	-0.4529876
-2.779957	ɪ d ɑː
-2.779957	ɪ d ɔː	-0.07918125
-1.295657	ɪ d ə	-0.2645807
-2.478927	ɪ d ɛ	-0.2284793
-1.700776	ɪ d ɛ1	-0.3348536
-2.603866	ɪ d ɜː	0
-1.200173	ɪ d ɪ	-0.3637725
-1.618589	ɪ d ɪ1	-0.2354789
-2.779957	ɪ d ɪ2
-1.719259	ɪ d ɹ	-0.2215939
-2.080987	ɪ d ʌ1	-0.6052185
-0.9805714	ɪ1 d </s>
-1.339593	ɪ1 d j	-0.4145999
-0.8422688	ɪ1 d l	0.28579
-1.883661	ɪ1 d m	-0.4555816
-1.339593	ɪ1 d n	0.269431
-1.70757	ɪ1 d s	-0.4130038
-0.6049078	ɪ1 d ə	-0.3960627
-0.6933298	ɪ1 d ɪ	-0.3689302
-1.883661	ɪ1 d ʃ	-0.3631779
-0.9208187	ɪ2 d l
-1.09691	ɪ2 d n	-0.3896675
-0.79588	ɪ2 d w	-0.1325552
-1.09691	ɪ2 d ɑ1
-1.09691	ɪ2 d ə	-0.272873
-0.79588	ɪ2 d ɪ	-0.2907484
-0.39794	ʃ d a	0.1970252
-0.4588709	ʊ d </s>
-1.464266	ʊ d a	0.929419
-2.066326	ʊ d a1	-0.1717699
-1.890235	ʊ d b
-2.066326	ʊ d h
-2.066326	ʊ d iː	-0.4191293
-1.325963	ʊ d j	-0.8557119
-1.367356	ʊ d l	0.2710668
-1.589205	ʊ d s	-0.06621626
-2.066326	ʊ d w
-1.765296	ʊ d z	0.3357921
-2.066326	ʊ d ɑ1	-0.4340866
-2.066326	ʊ d ɑː
-0.8902346	ʊ d ə	-0.08442989
-2.066326	ʊ d ɜ1ː	-0.4227636
-1.024933	ʊ d ɪ	-0.1140904
-1.765296	ʊ d ɪ1	-0.3938551
-1.765296	ʊ d ɹ
-0.6746107	ʊ1 d </s>
-1.238882	ʊ1 d f	-0.5599987
-1.414973	ʊ1 d k
-0.9378521	ʊ1 d n	-0.1848045
-1.414973	ʊ1 d p
-1.238882	ʊ1 d w
-0.8129134	ʊ1 d ɪ	-0.06816676
-0.8750613	ʊ2 d b	-0.4673614
-0.8750613	ʊ2 d h	-0.4564367
-0.5740313	ʊ2 d n	-0.2927575
-0.30103	ʌ d </s>
-0.7152072	ʌ1 d </s>
-1.736397	ʌ1 d f
-1.736397	ʌ1 d g
-0.8069776	ʌ1 d l	-0.2077744
-1.736397	ʌ1 d m
-1.736397	ʌ1 d n
-1.736397	ʌ1 d s
-1.560305	ʌ1 d t	-0.154902
-1.435367	ʌ1 d ə	-0.4947217
-0.6950038	ʌ1 d ɪ	-0.4374664
-1.560305	ʌ1 d θ	-0.359022
-0.1760913	ʌ2 d ɪ
-1.630705	<s> d͡ʒ a1	0.208276
-1.827	<s> d͡ʒ e1	0.05115253
-1.467978	<s> d͡ʒ i1ː	-0.03205264
-1.592917	<s> d͡ʒ i2ː	0
-2.070038	<s> d͡ʒ o	0.146128
-1.630705	<s> d͡ʒ o1	0.06694686
-1.153584	<s> d͡ʒ u1ː	0.04777277
-2.371068	<s> d͡ʒ u2ː
-1.827	<s> d͡ʒ uː	0.1139433
-1.048849	<s> d͡ʒ æ1	0.008272469
-1.973128	<s> d͡ʒ æ2	0.20412
-1.22494	<s> d͡ʒ ɑ1	-0.07087716
-2.070038	<s> d͡ʒ ɑ1ː	-0.03218469
-2.371068	<s> d͡ʒ ɑ2
-2.194977	<s> d͡ʒ ɑ2ː	0
-1.52597	<s> d͡ʒ ɔ1	0.1856365
-1.496007	<s> d͡ʒ ɔ1ː	-0.0669468
-2.194977	<s> d͡ʒ ɔː	-0.07572071
-1.827	<s> d͡ʒ ə	-0.2976907
-2.070038	<s> d͡ʒ ɛ	-0.09782337
-0.9397041	<s> d͡ʒ ɛ1	-0.219887
-1.672098	<s> d͡ʒ ɛ2	-0.08591461
-1.496007	<s> d͡ʒ ɜ1ː	0.0222764
-2.194977	<s> d͡ʒ ɜ2ː	0.07918122
-1.371068	<s> d͡ʒ ɪ	-0.3343594
-0.9819018	<s> d͡ʒ ɪ1	-0.02038902
-2.371068	<s> d͡ʒ ɪ2
-2.070038	<s> d͡ʒ ʊ1	0.20412
-2.371068	<s> d͡ʒ ʊ2	0
-1.070038	<s> d͡ʒ ʌ1	0.1225722
-2.371068	<s> d͡ʒ ʌ2
-0.9700368	b d͡ʒ ɛ	-0.4372498
-0.544068	b d͡ʒ ɛ1	-0.8701401
-1.146128	b d͡ʒ ɪ	-0.3899711
-0.9700368	b d͡ʒ ʊ	-0.1405438
-0.9700368	b d͡ʒ ʌ1	-0.4601828
-0.9661418	i1ː d͡ʒ </s>
-0.3921105	i1ː d͡ʒ ə	-0.05381379
-0.7231037	i1ː d͡ʒ ɪ	-0.1091445
-0.5118834	i2ː d͡ʒ i1ː	-0.3235373
-0.1760913	iː d͡ʒ i1ː	-0.3490915
-1.311754	l d͡ʒ </s>
-1.135663	l d͡ʒ i1ː	-0.1832193
-0.4666558	l d͡ʒ ə	0.07112494
-0.8346326	l d͡ʒ ɪ	-0.2539971
-1.135663	l d͡ʒ ɪ1	-0.5601678
-0.5677823	n d͡ʒ </s>
-1.838849	n d͡ʒ a1	0.02118927
-1.617	n d͡ʒ f	-0.4771213
-1.838849	n d͡ʒ i1ː	-0.09381895
-1.838849	n d͡ʒ l	0.1205739
-1.41288	n d͡ʒ m	-0.1526102
-2.01494	n d͡ʒ uː	-0.1413292
-2.01494	n d͡ʒ ɑ1ː	-0.4045706
-1.838849	n d͡ʒ ɔ1	0.7596678
-0.6627578	n d͡ʒ ə	-0.1932035
-1.037217	n d͡ʒ ɛ1	0.05886668
-1.060698	n d͡ʒ ɪ	-0.2296741
-1.537819	n d͡ʒ ʊ	-0.3446638
-2.01494	n d͡ʒ ʌ	-0.1760913
-1.617	n d͡ʒ ʌ1	-0.2260996
-0.60206	s d͡ʒ æ2	-0.1180993
-0.60206	s d͡ʒ ʌ1
-0.544068	u1ː d͡ʒ </s>
-0.845098	u1ː d͡ʒ ə	-0.4734093
-0.2632414	uː d͡ʒ </s>
-1.361728	æ1 d͡ʒ </s>
-0.7085153	æ1 d͡ʒ ə	-0.1715501
-0.3840042	æ1 d͡ʒ ɪ	-0.640043
-0.8846066	æ1 d͡ʒ ʊ	-0.2281582
-0.3802112	æ2 d͡ʒ ɪ	-0.1713961
-0.39794	ɑ d͡ʒ ɪ
-1.093422	ɑ1 d͡ʒ </s>
-0.8893017	ɑ1 d͡ʒ ə	0.007455915
-0.1903317	ɑ1 d͡ʒ ɪ	-0.587114
-0.4771213	ɑ1ː d͡ʒ </s>
-1.322219	ɑ1ː d͡ʒ m	0.3245111
-0.7781513	ɑ1ː d͡ʒ ə	-0.07918122
-0.6690068	ɑ1ː d͡ʒ ɪ	-0.4195536
-0.1249387	ɑ2 d͡ʒ ɪ	-0.1874049
-0.5228788	ɑ2ː d͡ʒ ə	0
-0.2730013	ɔ1ː d͡ʒ </s>
-0.69897	ɔ1ː d͡ʒ ə	-0.1012009
-1.618048	ə d͡ʒ a	0.20412
-1.919078	ə d͡ʒ æ2	-0.1180993
-1.919078	ə d͡ʒ ɑ1ː
-1.521138	ə d͡ʒ ə	0.1457586
-0.7887443	ə d͡ʒ ɛ1	-0.1187785
-0.2958288	ə d͡ʒ ɪ	-1.052706
-1.37501	ə d͡ʒ ɪ1	-0.2844956
-1.742987	ə d͡ʒ ʌ1	-0.5069262
-0.7939455	ɛ1 d͡ʒ </s>
-1.049218	ɛ1 d͡ʒ d	-0.05115253
-1.271067	ɛ1 d͡ʒ w
-0.90309	ɛ1 d͡ʒ ə	-0.09505802
-0.544068	ɛ1 d͡ʒ ɪ	-0.1978485
-1.146128	ɛ1 d͡ʒ ʊ	-0.2445486
-0.3756636	ɛ2 d͡ʒ ɪ	-0.2185247
-0.4336556	ɛ2 d͡ʒ ʊ	-0.5175499
-0.5762527	ɜ1ː d͡ʒ </s>
-0.4860761	ɜ1ː d͡ʒ ə	-0.5074539
-0.5141048	ɜ1ː d͡ʒ ɪ	-0.2695305
-0.1760913	ɜ2ː d͡ʒ ɪ
-0.312311	ɪ d͡ʒ </s>
-1.943247	ɪ d͡ʒ a1	-0.07572073
-2.068186	ɪ d͡ʒ b	0
-1.846337	ɪ d͡ʒ d	0.359022
-2.244277	ɪ d͡ʒ f
-2.244277	ɪ d͡ʒ g	0
-2.068186	ɪ d͡ʒ i1ː	-0.09381895
-2.244277	ɪ d͡ʒ k
-2.244277	ɪ d͡ʒ l
-1.943247	ɪ d͡ʒ m	0.1026623
-2.244277	ɪ d͡ʒ p
-1.943247	ɪ d͡ʒ u1ː	-0.07767066
-1.943247	ɪ d͡ʒ æ	-0.1346986
-2.244277	ɪ d͡ʒ æ2	-0.1180993
-0.8825493	ɪ d͡ʒ ə	-0.07531393
-1.369216	ɪ d͡ʒ ɛ1	-0.2693156
-1.290035	ɪ d͡ʒ ɪ	-0.1293736
-1.503914	ɪ d͡ʒ ɪ1	-0.2909297
-2.244277	ɪ d͡ʒ ɹ
-0.9809768	ɪ1 d͡ʒ </s>
-0.5038555	ɪ1 d͡ʒ ə	-0.3580968
-0.4458636	ɪ1 d͡ʒ ɪ	-0.4884349
-0.9809768	ɪ1 d͡ʒ ʊ	-0.7052795
-0.60206	ɪ2 d͡ʒ ɪ
-0.60206	ɪ2 d͡ʒ ʊ
-1.066947	ʊ d͡ʒ </s>
-1.066947	ʊ d͡ʒ i1ː	-0.09381895
-0.69897	ʊ d͡ʒ ə	-0.2552725
-0.69897	ʊ d͡ʒ ɛ1	-0.08450076
-0.845098	ʊ d͡ʒ ɪ	-0.2991154
-1.243038	ʊ d͡ʒ ɪ1
-0.3245111	ʌ1 d͡ʒ </s>
-0.8016323	ʌ1 d͡ʒ ə	-0.07802469
-0.6255411	ʌ1 d͡ʒ ɪ	-0.264236
-0.04139268	<s> e ɪ	0.2034018
-0.02227639	b e ɪ	0.005518258
-0.00811789	d e ɪ	-0.1026356
-0.02020339	f e ɪ	0.07875019
-0.01021917	g e ɪ	-0.2330037
-0.09691001	i2ː e ɪ	-0.2997342
-0.1760913	j e ɪ
-0.004500501	k e ɪ	-0.06945837
-0.003488328	l e ɪ	-0.1744849
-0.00914338	m e ɪ	-0.02493143
-0.005990364	n e ɪ	-0.4042765
-0.01296498	p e ɪ	0.03924161
-0.02020339	s e ɪ	0.2109562
-0.005532489	t e ɪ	-0.08528394
-0.07918125	t͡ʃ e ɪ	-0.4991244
-0.0234811	v e ɪ	-0.3165762
-0.006074148	w e ɪ	-0.3719386
-0.09691001	z e ɪ	-0.6197025
-0.007553138	ɪ e ɪ	-0.7603986
-0.002757435	ɹ e ɪ	0.1332111
-0.0211893	ʃ e ɪ	-0.3248605
-0.02482358	ʊ e ɪ	-0.4949593
-0.07918125	ʒ e ɪ	-0.6988838
-0.1760913	θ e ɪ
-0.005532489	<s> e1 ɪ	0.2953227
-0.004595752	b e1 ɪ	-0.01838142
-0.004907335	d e1 ɪ	-0.05868471
-0.05115252	d͡ʒ e1 ɪ	-0.1576371
-0.005079526	f e1 ɪ	-0.142681
-0.006630579	g e1 ɪ	-0.2935975
-0.008954843	h e1 ɪ	-0.2434412
-0.04575749	iː e1 ɪ	-0.4046775
-0.09691001	j e1 ɪ	-0.672105
-0.002303955	k e1 ɪ	0.0008943081
-0.001553828	l e1 ɪ	0.1113057
-0.003930293	m e1 ɪ	-0.06498671
-0.002722858	n e1 ɪ	-0.3008303
-0.003406249	p e1 ɪ	0.01851988
-0.003433176	s e1 ɪ	0.00864172
-0.001673584	t e1 ɪ	-0.2528911
-0.01472326	t͡ʃ e1 ɪ	-0.8105863
-0.008433168	v e1 ɪ	-0.3490337
-0.003792989	w e1 ɪ	-0.4690287
-0.00694886	z e1 ɪ	-0.9881073
-0.09691001	ð e1 ɪ	-0.1408864
-0.01189922	ɪ e1 ɪ	-0.6774713
-0.000903839	ɹ e1 ɪ	0.08261716
-0.01021917	ʃ e1 ɪ	-0.6512753
-0.04575749	ʊ e1 ɪ	-0.874164
-0.01579427	<s> e2 ɪ	-0.1390701
-0.05115252	b e2 ɪ	-0.1588551
-0.09691001	d e2 ɪ
-0.07918125	f e2 ɪ	-0.07578832
-0.1249387	g e2 ɪ	-0.2046126
-0.05799195	k e2 ɪ	-0.2526358
-0.02632894	l e2 ɪ	-0.211432
-0.01579427	m e2 ɪ	-0.4655622
-0.06694679	n e2 ɪ	-0.1463694
-0.01639042	p e2 ɪ	-0.3042676
-0.03476211	s e2 ɪ	-0.207639
-0.01848341	t e2 ɪ	-0.4141928
-0.06694679	t͡ʃ e2 ɪ	-0.2327292
-0.09691001	v e2 ɪ	-0.1235847
-0.04575749	w e2 ɪ	-0.2041728
-0.01072387	ɹ e2 ɪ	-0.2528247
-0.06694679	ʃ e2 ɪ	-0.1837959
-2.342986	<s> f a	0.9802558
-1.274271	<s> f a1	0.1620805
-1.417232	<s> f e1	0.1563472
-2.710963	<s> f e2	0.1760913
-1.525326	<s> f i1ː	0.02903357
-2.489114	<s> f i2ː	-0.02199431
-1.564835	<s> f j	-0.2311888
-0.8417314	<s> f l	-0.4161104
-2.409933	<s> f o	0.8709053
-1.59702	<s> f o1	0.1461281
-2.041956	<s> f o2	0.05435765
-2.146692	<s> f u1ː	-0.0734289
-2.409933	<s> f æ	-0.4024876
-1.284994	<s> f æ1	0.1038587
-2.342986	<s> f æ2	-0.008433163
-1.544632	<s> f ɑ1	0.1119737
-1.826357	<s> f ɑ1ː	-0.06180716
-2.409933	<s> f ɑ2	-0.1480626
-2.342986	<s> f ɑ2ː	-0.0258805
-2.887054	<s> f ɔ1	0
-1.098179	<s> f ɔ1ː	0.05768347
-2.041956	<s> f ɔ2ː	-0.001884103
-1.826357	<s> f ɔː	-0.1249387
-1.525326	<s> f ə	-0.06494081
-2.409933	<s> f ɛ	-0.1480626
-1.36854	<s> f ɛ1	-0.2413852
-2.342986	<s> f ɛ2	-0.1219123
-1.740926	<s> f ɜ1ː	0.1362197
-2.342986	<s> f ɜ2ː	-0.3802113
-1.957635	<s> f ɪ	-0.07618493
-1.112537	<s> f ɪ1	0.1771784
-1.983964	<s> f ɪ2	-0.5613002
-0.8378364	<s> f ɹ	-0.2116705
-1.740926	<s> f ʊ1	0.1249387
-2.011993	<s> f ʊ2	-0.2092596
-1.489114	<s> f ʌ1	-0.09690988
-2.710963	<s> f ʌ2
-1.511883	d f e	0.8653015
-1.335792	d f l
-0.8586708	d f o	0.7160033
-1.335792	d f æ1	-0.5580861
-1.511883	d f ɑː
-1.034762	d f ɔː	-0.1369286
-1.511883	d f ɜ1ː	-0.4200827
-1.210853	d f ɪ	-0.1145979
-1.511883	d f ɪ2
-0.8129134	d f ʊ	0.4922099
-0.30103	d͡ʒ f ʊ	0.7554513
-0.4701724	i1ː f </s>
-1.491362	i1ː f a
-1.491362	i1ː f k	-0.4449366
-1.31527	i1ː f l	-0.2041651
-1.31527	i1ː f t	-0.5406457
-1.491362	i1ː f ə	-0.2757942
-1.31527	i1ː f ɛ	-0.5228788
-1.31527	i1ː f ɪ
-1.491362	i1ː f ʊ	1.056481
-1.20412	i2ː f </s>
-0.90309	i2ː f l	-0.1351604
-1.20412	i2ː f æ1
-1.028029	i2ː f ɔ1ː	-0.1033441
-0.90309	i2ː f ɪ1	-0.1122698
-0.1249387	iː f </s>
-1.130334	k f ɔː
-0.7323937	k f ʊ	0.7554513
-0.9948604	l f </s>
-1.924279	l f a2
-1.447158	l f d	-0.1249388
-1.623249	l f e	0.6434527
-1.748188	l f e1	1.332438
-1.924279	l f g	-0.4313638
-1.924279	l f h
-1.748188	l f iː	0.01703334
-1.924279	l f j
-1.271067	l f k	-0.1673877
-1.924279	l f l
-1.924279	l f p
-1.111366	l f s	-0.1210437
-1.623249	l f æ1	-0.04921804
-0.9700368	l f ə	-0.08293271
-1.079181	l f ɪ	-0.3581086
-1.748188	l f ɪ1	-0.5634811
-1.271067	l f ɹ	-0.1853965
-1.146128	l f ʊ	0.4196593
-1.748188	l f ʌ1	-0.4929155
-1.021189	m f </s>
-1.498311	m f e1	1.457377
-1.498311	m f l
-1.197281	m f o	1.017033
-1.322219	m f æ1	-0.5324241
-0.6532125	m f ə	-0.2587609
-1.100371	m f ɪ	-0.07367216
-1.100371	m f ʊ	0.7554513
-1.585461	n f a1	1.18327
-2.062582	n f a2
-1.761552	n f e1	1.235528
-1.886491	n f i1ː	-0.08715019
-1.761552	n f iː	0.09275405
-1.585461	n f j	0.02727407
-0.819544	n f l	-0.2416251
-1.585461	n f o	0.8709053
-2.062582	n f o1	1.271067
-1.409369	n f æ1	-0.08318399
-1.021189	n f ɔ1ː	-0.5998939
-1.249669	n f ə	-0.2339372
-2.062582	n f ɛ
-1.084858	n f ɛ1	-0.2110464
-1.363612	n f ɜ1ː	-0.1905472
-1.187521	n f ɪ	-0.463278
-1.585461	n f ɪ1	-0.116323
-2.062582	n f ɪ2
-1.249669	n f ɹ	0.007923484
-1.108339	n f ʊ	0.254849
-1.113943	p f a2	0.146128
-1.113943	p f ɑ2ː
-0.9378521	p f ɹ	-0.1571453
-0.5698753	p f ʊ	0.6305126
-1.583577	s f a	0.4873404
-1.458638	s f a1	-0.0597682
-1.583577	s f e1	1.332438
-1.458638	s f l	-0.1340483
-1.361728	s f æ1	-0.6812413
-1.759668	s f ɑ1	-0.3651475
-1.282547	s f ɔ1ː	-0.05579572
-1.583577	s f ɔː	-0.1786918
-1.106455	s f ə	-0.07487932
-1.583577	s f ɛ1	-0.5762015
-1.458638	s f ɜ1ː	-0.2363046
-1.583577	s f ɪ	-0.2194089
-1.361728	s f ɪ1	-0.2405492
-1.361728	s f ɪ2	-0.2304489
-1.361728	s f ɹ	-0.06256834
-0.8302489	s f ʊ	0.2783301
-1.60206	t f a2	0.02118927
-1.778151	t f iː
-1.60206	t f l
-1.60206	t f ɔ1ː	-0.1904943
-1.30103	t f ɔː	-0.376281
-1.778151	t f ə	-0.4386954
-1.477121	t f ɪ	-0.4073266
-1.60206	t f ɹ	-0.5373566
-0.2867896	t f ʊ	0.2045438
-1.778151	t f ʊ1	0.08354601
-1.60206	t f ʊ2	-0.5102897
-0.5228788	t͡ʃ f ɔː	-0.5653372
-0.5228788	t͡ʃ f ʊ	0.9315426
-0.4586379	u1ː f </s>
-1.185637	u1ː f l	-0.2041651
-1.361728	u1ː f o	1.238882
-1.060698	u1ː f ə	-0.09802935
-1.361728	u1ː f ɪ
-0.2360892	uː f </s>
-1.01424	uː f l
-0.6532125	v f o	1.238882
-0.544068	z f o	1.238882
-0.8129134	æ f </s>
-0.4149733	æ f g	-0.4191293
-1.25042	æ1 f </s>
-1.472269	æ1 f g	-0.5314789
-1.0463	æ1 f l	-0.3156196
-1.64836	æ1 f n	-0.3409015
-1.64836	æ1 f t
-1.104292	æ1 f ə	-0.03412484
-0.3261407	æ1 f ɪ	-0.5818278
-1.171239	æ1 f ɹ	-0.3203752
-0.3756636	æ2 f ɹ	-0.6724109
-1.021189	ŋ f iː	-0.2382392
-0.845098	ŋ f ʊ	0.9315426
-0.09691001	ɑ f </s>
-1	ɑ f θ	-0.4045706
-0.9648356	ɑ1 f </s>
-1.441957	ɑ1 f l	-0.1950457
-1.618048	ɑ1 f p
-1.441957	ɑ1 f s	-0.2037505
-0.9648356	ɑ1 f t	-0.2450786
-0.8398969	ɑ1 f ə	-0.02517369
-0.4139281	ɑ1 f ɪ	0.1062158
-0.8239087	ɑ1ː f </s>
-1.20412	ɑ1ː f b	-0.1315693
-1.60206	ɑ1ː f s
-0.2798407	ɑ1ː f t	-0.2240702
-1.60206	ɑ1ː f ə	-0.4555816
-1.425969	ɑ1ː f ɪ	-0.5922172
-1.40654	ɑ2 f h	-0.4191293
-1.230449	ɑ2 f s	-0.1751053
-0.9294189	ɑ2 f t	-0.07749879
-1.230449	ɑ2 f w	-0.50515
-1.230449	ɑ2 f ð	0
-1.230449	ɑ2 f ə	-0.02052167
-0.5614421	ɑ2 f ɪ	-0.5484772
-1.230449	ɑ2 f ʃ	-0.39794
-0.9542425	ɑ2ː f h	-0.2108534
-1.079181	ɑ2ː f j	-0.5876622
-1.255273	ɑ2ː f k
-1.255273	ɑ2ː f p
-1.255273	ɑ2ː f s
-1.079181	ɑ2ː f t
-0.8573325	ɑ2ː f w	-0.3679768
-0.2099495	ɑː f </s>
-0.60206	ɑː f t	-0.3754123
-1.311754	ɔ1ː f </s>
-1.311754	ɔ1ː f iː
-1.311754	ɔ1ː f j
-1.311754	ɔ1ː f o2	0.7533277
-1.311754	ɔ1ː f ə	-0.4537374
-0.8346326	ɔ1ː f ɪ	-0.05562004
-0.8346326	ɔ1ː f ʊ	1.107634
-2.11227	ə f a
-1.635149	ə f a1	1.18327
-1.936179	ə f a2	0.4014005
-2.11227	ə f e	0.8653015
-1.568202	ə f e1	1.031408
-2.11227	ə f i1ː
-1.568202	ə f j	-0.1945747
-1.334118	ə f l	-0.04748689
-1.568202	ə f o	0.8129133
-1.635149	ə f o1	0.90309
-1.936179	ə f ɑ1	-0.109875
-2.11227	ə f ɑ1ː	-0.4227636
-2.11227	ə f ɑː	-0.3388186
-1.635149	ə f ɔ1ː	-0.1920013
-1.459057	ə f ɔː	-0.3171595
-1.20918	ə f ə	-0.6933297
-0.9219381	ə f ɛ1	-0.511381
-1.81124	ə f ɜ1ː	-0.5762528
-0.9219381	ə f ɪ	-0.5547355
-0.9983264	ə f ɪ1	-0.2544675
-2.11227	ə f ɪ2	-0.4191293
-1.51021	ə f ɹ	-0.1156387
-1.20918	ə f ʊ	0.7554513
-1.81124	ə f ʊ1	0.2596373
-2.11227	ə f ʌ1
-0.7781513	ɛ f </s>
-0.9542425	ɛ f o1	1.271067
-0.9542425	ɛ f ɑ1	-0.3899711
-0.6828832	ɛ1 f </s>
-1.423246	ɛ1 f j
-1.423246	ɛ1 f n
-0.6450946	ɛ1 f t	-0.1481686
-0.7700334	ɛ1 f ə	0.01153454
-0.7700334	ɛ1 f ɪ	-0.6485922
-1.161368	ɛ2 f j
-1.161368	ɛ2 f m	-0.3679768
-0.860338	ɛ2 f t	-0.4474988
-0.5081555	ɛ2 f ə	-0.1443733
-0.9852768	ɛ2 f ɪ
-0.8808136	ɜ1ː f </s>
-1.278754	ɜ1ː f b
-1.278754	ɜ1ː f l	-0.4683695
-0.30103	ɜ1ː f ɪ	-0.07890239
-1.135974	ɪ f </s>
-0.8821231	ɪ f a	-0.7029912
-1.463333	ɪ f a1	-0.5912471
-1.968483	ɪ f b
-2.065393	ɪ f e1	1.235528
-2.190332	ɪ f g	-0.5314789
-1.889302	ɪ f i1ː	-0.2764618
-1.764363	ɪ f j	-0.266661
-2.190332	ɪ f k
-1.287242	ɪ f l	-0.1392665
-1.889302	ɪ f n	-0.1870866
-1.822355	ɪ f o	0.8129133
-2.366423	ɪ f o1	1.271067
-2.366423	ɪ f p
-2.190332	ɪ f s
-1.437004	ɪ f t	-0.3833812
-1.667453	ɪ f æ1	-0.20412
-2.366423	ɪ f ɑ1
-2.366423	ɪ f ɑ2ː	-0.3744589
-1.588272	ɪ f ɔ1ː	-0.3192252
-1.889302	ɪ f ɔː	-0.7611961
-1.366423	ɪ f ə	-0.262194
-2.190332	ɪ f ɛ	-0.4522977
-1.065393	ɪ f ɛ1	-0.5401052
-2.366423	ɪ f ɛ2	-0.39794
-1.968483	ɪ f ɜ1ː	-0.04441915
-0.9862117	ɪ f ɪ	-0.3490625
-1.55351	ɪ f ɪ1	-0.1485185
-1.25248	ɪ f ɹ	-0.09416732
-1.491362	ɪ f ʊ	0.3294826
-2.190332	ɪ f ʌ1	-0.5835766
-0.9610819	ɪ1 f </s>
-1.262112	ɪ1 f l	-0.1694916
-1.80618	ɪ1 f n
-0.644812	ɪ1 f t	-0.1184663
-0.9311187	ɪ1 f ə	-0.3727042
-0.4839607	ɪ1 f ɪ	-0.3626562
-1.40824	ɪ1 f ɹ	-0.3567926
-1.50515	ɪ1 f θ	-0.03218469
-0.2373609	ɪ2 f t	-0.2962311
-0.6766936	ɪ2 f ə	-0.09970289
-0.09691001	ʃ f ʊ	0.8346326
-1.525045	ʊ f </s>
-1.224015	ʊ f a	0.3904304
-1.525045	ʊ f e	0.8653015
-1.525045	ʊ f iː
-1.224015	ʊ f l
-1.348954	ʊ f æ1	-0.1249387
-1.525045	ʊ f ɔ1ː
-1.127105	ʊ f ə	-0.1666497
-1.348954	ʊ f ɪ	-0.1955198
-0.9229848	ʊ f ɪ1	-0.576917
-1.224015	ʊ f ɹ	-0.2625717
-1.525045	ʊ f ʊ
-0.69897	ʊ1 f e	0.8653015
-0.69897	ʊ1 f t
-0.4336556	ʌ f </s>
-0.9777236	ʌ f s	-0.4401377
-0.8016323	ʌ f ɔ1ː	-0.5933302
-0.5546353	ʌ1 f </s>
-1.539912	ʌ1 f j	-0.5827549
-1.539912	ʌ1 f k	-0.1896641
-0.9378521	ʌ1 f l	-0.528394
-1.414973	ʌ1 f n	0.03476214
-1.414973	ʌ1 f t	-0.1615325
-0.90309	ʌ1 f ə	-0.4976429
-0.8709053	ʌ1 f ɪ	-0.2190009
-0.1918855	θ f ʊ	0.5336026
-1.50965	<s> g a1	0.07638848
-2.111711	<s> g a2	0.05799198
-1.358383	<s> g e1	0.275476
-0.9707837	<s> g l	-0.4761975
-2.588832	<s> g o	1.322219
-1.310078	<s> g o1	0.1165056
-2.287802	<s> g o2	0.3802112
-1.889862	<s> g u1ː	-0.05799192
-2.287802	<s> g w	-0.4401377
-2.287802	<s> g æ	-0.02118932
-1.157468	<s> g æ1	-0.1562143
-2.111711	<s> g æ2	-0.1127043
-1.32166	<s> g ɑ1	-0.2022359
-1.371348	<s> g ɑ1ː	-0.08922315
-2.588832	<s> g ɑ2	-0.3309932
-2.287802	<s> g ɑː	-0.1127043
-1.442704	<s> g ɔ1ː	0.06366909
-2.588832	<s> g ɔ2ː	0
-1.986772	<s> g ə	-0.28579
-1.743734	<s> g ɛ1	-0.1987911
-1.848469	<s> g ɜ1ː	-0.1983676
-2.588832	<s> g ɪ
-1.333559	<s> g ɪ1	0.06029588
-2.287802	<s> g ɪ2	-0.5392692
-0.5396137	<s> g ɹ	-0.3345678
-2.588832	<s> g ʊ
-1.889862	<s> g ʊ1	0.06214792
-1.935619	<s> g ʊ2	0.04139268
-2.287802	<s> g ʌ	-0.2218487
-1.298797	<s> g ʌ1	0.08218664
-0.7403627	d g e	1.156347
-0.7403627	d g l	-0.466195
-0.7403627	d g ɹ
-0.1760913	d͡ʒ g ɹ
-0.8239087	f g æ	-0.5118834
-0.8239087	f g æ1	-0.5274264
-1	f g ɑ1ː	-0.4024876
-0.8239087	f g ɑː	-0.2498775
-1	f g ʌ1	-0.4126633
-0.9120448	i1ː g </s>
-0.7359536	i1ː g l	-0.5484771
-0.6110148	i1ː g ə	0.1056026
-1.088136	i1ː g ɹ	-0.1445136
-0.5228788	i2ː g o	1.197281
-0.1760913	iː g æ1	-0.3858884
-1.01424	l g e	1.031409
-1.190332	l g l	-0.4689525
-0.7923917	l g ə	0.007414639
-0.5371192	l g ɹ	-0.1327245
-1.138303	n g e1	1.120574
-0.7403627	n g l	-0.2422666
-1.439333	n g o2	0.60206
-1.439333	n g ɑː	-0.1249388
-0.4850902	n g ɹ	-0.1221095
-0.3802112	p g ɹ	-0.1959869
-1.079181	s g a1	-0.2246417
-1.255273	s g æ	-0.4191293
-1.255273	s g ɪ1	-0.3881802
-1.079181	s g ɪ2	-0.4423592
-0.7112045	s g ɹ	-0.1877508
-0.8573325	s g ʌ1	-0.4141085
-1.130334	t g a
-1.130334	t g l	-0.4620258
-1.130334	t g o	1.322219
-1.130334	t g o2	0.60206
-1.130334	t g ɹ
-0.9542425	t g ʌ	-0.007968932
-0.5740313	u1ː g l	-0.1769895
-0.69897	u1ː g ə
-0.30103	u2ː g o	0.9542426
-0.7781513	u2ː g ə	-0.3677823
-0.4771213	uː g u1ː	-0.5351132
-0.3521825	uː g æ1	-0.2263964
-0.544068	z g ɪ	-0.44424
-0.3781959	æ g </s>
-0.9344984	æ g m	-0.3292242
-0.5195251	æ g n	-0.1457586
-0.6562181	æ1 g </s>
-1.462398	æ1 g d	0.0843209
-1.31627	æ1 g j	0.3273589
-1.462398	æ1 g l	-0.3960477
-1.559308	æ1 g m	-0.5485842
-1.31627	æ1 g n	-0.2179537
-1.684247	æ1 g p	-0.1249387
-1.860338	æ1 g t
-1.684247	æ1 g z	-0.1928851
-1.684247	æ1 g ɑː	-0.2498775
-0.642854	æ1 g ə	-0.1286666
-1.01524	æ1 g ɪ	-0.1995724
-1.258278	æ1 g ɹ	-0.3141253
-1.161368	æ2 g n	-0.4191293
-0.5081555	æ2 g ə	0.1638426
-0.9852768	æ2 g ɪ	-0.2127054
-0.9852768	æ2 g ɹ	-0.5737627
-2.098644	ŋ g e	1.156347
-1.445431	ŋ g j	-0.1955198
-0.455191	ŋ g l	-0.400246
-1.195554	ŋ g o	0.5688916
-1.922552	ŋ g o1	1.10551
-0.9525157	ŋ g w	-0.6250743
-2.098644	ŋ g æ2	-0.3357921
-2.098644	ŋ g ɑ1ː	-0.2653145
-1.922552	ŋ g ɔ1ː	-0.1465978
-0.6921036	ŋ g ə	-0.03914779
-2.098644	ŋ g ɛ1	-0.4325391
-2.098644	ŋ g ɪ
-1.098644	ŋ g ɹ	-0.4219974
-0.3203351	ɑ g </s>
-1.185637	ɑ g m	-0.4516742
-0.5835766	ɑ g n	-0.1913312
-0.7879111	ɑ1 g </s>
-1.829304	ɑ1 g b
-1.653213	ɑ1 g d
-1.829304	ɑ1 g k
-1.227244	ɑ1 g l	0.01930515
-1.431364	ɑ1 g m	-0.2175909
-1.653213	ɑ1 g n	-0.2020145
-1.829304	ɑ1 g t	-0.3679768
-1.829304	ɑ1 g w
-1.653213	ɑ1 g z
-1.829304	ɑ1 g ɑ	-0.3521825
-0.9842057	ɑ1 g ə	0.08937448
-0.9262138	ɑ1 g ɪ	-0.1503086
-0.6679358	ɑ1 g ɹ	-0.7549267
-0.9852768	ɑ1ː g j	0.2024202
-0.5081555	ɑ1ː g o	0.7993406
-0.9852768	ɑ1ː g ə
-1.161368	ɑ1ː g ɪ	-0.44424
-0.7403627	ɑ2 g ə	-0.2655866
-0.6532125	ɑ2ː g j	0.3273589
-1.09108	ɔ1ː g j	0.2024202
-0.3129292	ɔ1ː g ə	-0.1810547
-1.09108	ɔ1ː g ɪ	-0.1889675
-0.1962947	ɔ2ː g ə	-0.793751
-0.7403627	ɔ2ː g ɪ	-0.44424
-0.7781513	ɔː g z	-0.4171233
-0.60206	ɔː g æ1	-0.1472151
-0.7781513	ɔː g ʌ1	-0.4212635
-1.633469	ə g e	0.9344985
-1.332438	ə g e1	0.8653014
-1.156347	ə g l	-0.1241673
-1.536558	ə g n	-0.09735295
-1.633469	ə g o1	1.0086
-1.758407	ə g w	-0.5553166
-1.332438	ə g æ1	-0.5274264
-1.758407	ə g ɑ	-0.1638568
-1.332438	ə g ɑ1	-0.4639009
-1.633469	ə g ɑ1ː	-0.2611585
-1.934498	ə g ɑ2ː
-1.934498	ə g ɑː	-0.1249388
-1.194136	ə g ə	-0.4076333
-1.235528	ə g ɛ1	-0.1531329
-1.633469	ə g ɪ1	-0.2120889
-0.5195251	ə g ɹ	-0.1857784
-0.3679768	ɛ g </s>
-1.021189	ɛ g d	-0.09177038
-0.845098	ɛ g m	-0.07146288
-0.845098	ɛ g z	-0.1618508
-0.9208187	ɛ1 g </s>
-0.8750613	ɛ1 g j	0.2024202
-1.176091	ɛ1 g l	-0.7281773
-1.176091	ɛ1 g n	-0.6734159
-1.273001	ɛ1 g o	1.100371
-1.574031	ɛ1 g p
-0.9719713	ɛ1 g ə	-0.06781229
-1.029963	ɛ1 g ɹ	-0.3147112
-1.574031	ɛ1 g ʃ
-0.9208187	ɛ2 g j	0.2024202
-1.09691	ɛ2 g n
-0.79588	ɛ2 g z	-0.6798771
-0.9208187	ɛ2 g ə	-0.1908145
-1.09691	ɛ2 g ɹ	-0.4488239
-1.041393	ɜ1ː g </s>
-0.6434527	ɜ1ː g l	-0.3960477
-0.7403627	ɜ1ː g o	1.100371
-0.4973246	ɜ1ː g ə	-0.1058037
-0.6532125	ɜː g </s>
-1.639202	ɪ g </s>
-2.18327	ɪ g a1	-0.09970292
-1.18327	ɪ g e	0.3112493
-1.28018	ɪ g e1	0.589095
-2.18327	ɪ g j
-1.530057	ɪ g l	-0.10625
-1.88224	ɪ g m	-0.5485842
-1.338172	ɪ g n	-0.2370887
-1.530057	ɪ g o	0.7993406
-1.88224	ɪ g o1	1.0086
-2.18327	ɪ g o2	0.60206
-0.7439371	ɪ g z	-0.2934201
-1.88224	ɪ g æ1
-2.007179	ɪ g æ2	-0.4607309
-2.007179	ɪ g ɑ1	-0.5509075
-1.58121	ɪ g ɑ1ː	-0.0222764
-2.18327	ɪ g ɑ2
-2.007179	ɪ g ɑː
-2.18327	ɪ g ɔ1ː
-1.007179	ɪ g ə	-0.002263188
-2.007179	ɪ g ɛ1	-0.04042867
-2.18327	ɪ g ɜ2ː
-2.18327	ɪ g ɪ
-0.7134478	ɪ g ɹ	-0.2193485
-0.9218394	ɪ1 g </s>
-1.851258	ɪ1 g d	-0.09177038
-1.453318	ɪ1 g j	0.02632892
-0.8970158	ɪ1 g l	-0.241107
-1.453318	ɪ1 g m	-0.362648
-0.7720771	ɪ1 g n	-0.7310993
-1.851258	ɪ1 g w
-1.550228	ɪ1 g z	-0.6798771
-0.6609266	ɪ1 g ə	0.01019323
-1.073107	ɪ1 g ɪ	-0.335792
-1.675167	ɪ1 g ɹ	-0.5508068
-0.9700368	ɪ2 g h	-0.4259688
-1.146128	ɪ2 g l	-0.4675759
-0.748188	ɪ2 g n	-0.2604121
-0.447158	ɪ2 g ə	-0.2034387
-1.22617	ʊ g </s>
-1.305351	ʊ g e	0.8553172
-1.703291	ʊ g e1	1.342423
-1.5272	ʊ g i1ː	-0.30103
-1.159223	ʊ g l	-0.2499196
-1.703291	ʊ g o	1.322219
-1.703291	ʊ g w	-0.4303779
-1.159223	ʊ g ə	0.1436393
-1.703291	ʊ g ɛ1
-1.305351	ʊ g ɪ	-0.1512677
-0.3511088	ʊ g ɹ	-0.5133889
-0.05115252	ʊ1 g ə	-0.03778854
-0.1760913	ʊ2 g ə
-0.1995724	ʌ g </s>
-0.8016323	ʌ g ʒ	0
-0.4024876	ʌ1 g </s>
-1.681241	ʌ1 g b	-0.3899711
-1.681241	ʌ1 g h	-0.3679768
-1.681241	ʌ1 g j	0.3273589
-1.028029	ʌ1 g l	-0.2852357
-1.380211	ʌ1 g n	-0.0881361
-1.681241	ʌ1 g s
-0.90309	ʌ1 g ə	-0.1170886
-0.90309	ʌ1 g ɪ	0.009854764
-0.1760913	ʌ2 g ə	-0.2655866
-2.112828	<s> h a	0.7715206
-1.098588	<s> h a1	0.05970335
-1.359501	<s> h a2	0
-1.498869	<s> h e1	0.1104125
-1.433602	<s> h i1ː	-0.1760912
-2.58995	<s> h i2ː	-0.30103
-1.535592	<s> h j	0.08297437
-2.368101	<s> h o	0.8239087
-1.281741	<s> h o1	0.0709312
-2.025678	<s> h o2	0.2632415
-1.766041	<s> h u1ː	-0.03651686
-2.58995	<s> h u2ː
-2.766041	<s> h uː
-1.025678	<s> h æ1	0.1376756
-1.89098	<s> h æ2	0.0835461
-2.163981	<s> h ɑ	-0.1789205
-1.19201	<s> h ɑ1	0.02833349
-1.203748	<s> h ɑ1ː	0.04744709
-1.98789	<s> h ɑ2	0
-1.476006	<s> h ɑ2ː	0.01930529
-2.163981	<s> h ɑː	-0.1383027
-2.766041	<s> h ɔ1	0.2218488
-1.351068	<s> h ɔ1ː	0.04507846
-2.28892	<s> h ɔ2ː	0
-1.98789	<s> h ə	-0.05551738
-2.58995	<s> h ɛ
-1.054234	<s> h ɛ1	0.132238
-1.669131	<s> h ɛ2	0.06126964
-1.766041	<s> h ɜ1ː	-0.02274311
-2.368101	<s> h ɜː	-0.09938463
-1.766041	<s> h ɪ	-0.01035845
-1.433602	<s> h ɪ1	0.03363264
-1.811798	<s> h ɪ2	0.01703334
-2.28892	<s> h ʊ	-0.3467875
-2.112828	<s> h ʊ1	0.03476208
-2.766041	<s> h ʌ	-0.2552725
-1.132572	<s> h ʌ1	0.004321396
-1.332438	d h a	0.1597008
-1.332438	d h j	-0.1153934
-1.156347	d h æ	-0.05115253
-1.156347	d h æ1	-0.4054066
-1.156347	d h ɑ1ː	-0.3951291
-1.156347	d h ɛ	0.2218487
-1.031408	d h ɪ1	-0.1332113
-0.90309	f h a	0.1597008
-0.90309	f h æ1	-0.2804679
-0.7269987	f h ɑ1ː	-0.01491781
-0.6532125	g h o	1.124939
-0.4771213	g h ɛ1	-0.4913617
-0.5228788	i1ː h æ	0.3290587
-0.69897	i2ː h a1	-0.1444171
-0.8750613	i2ː h æ1
-1.028029	k h a	0.03476208
-1.028029	k h o	0.9999999
-1.20412	k h o2	0.8653015
-0.7269987	k h æ	-0.2941905
-1.20412	k h æ2	-0.3309932
-1.20412	k h ɔː
-1.028029	k h ɛ	-0.1583625
-1.041393	l h a	0.03476208
-1.217484	l h o	1.124939
-1.041393	l h o2	0.7403627
-0.819544	l h ɑ1ː	-0.1610458
-0.819544	l h ɛ1	-0.2572785
-0.9294189	m h ɑ1ː	-0.2701903
-1.633469	n h a	-0.3802113
-1.457377	n h o	0.9999999
-1.457377	n h o1	1.261263
-0.8931057	n h æ1	-0.1835578
-1.457377	n h æ2	-0.455932
-1.633469	n h ɑ	-0.3606157
-1.0894	n h ɑ1ː	-0.1737501
-1.031408	n h ɛ	-0.07918122
-1.031408	n h ɛ1	-0.2007137
-1.457377	n h ɪ1	-0.1810125
-1.457377	n h ʊ	0.05115253
-0.9777236	p h o	1.124939
-0.8016323	p h o1	1.261263
-0.9777236	p h æ2
-0.9777236	p h ɪ1	-0.436285
-1.079181	s h a	-0.06214792
-1.380211	s h j
-0.90309	s h o	0.7569619
-1.380211	s h ɛ
-1.380211	s h ɪ1
-1.380211	s h ʌ2	0.2218488
-0.9149892	t h a	-0.3631779
-1.39211	t h a1	-0.1444171
-1.09108	t h o	0.7569619
-0.9661418	t h æ1	-0.3262253
-1.170262	t h ɑ1ː	-0.5712203
-1.267172	t h ɔː	0.07572071
-1.170262	t h ɛ	-0.3344538
-1.568202	t h ɛ1	-0.366423
-1.568202	t h ɜː
-1.09108	t h ʊ	-0.1529675
-0.39794	u2ː h u1ː	-0.4158516
-0.1249387	uː h ɑ1ː	-0.3951291
-0.79588	ŋ h a	-0.06214792
-1.09691	ŋ h ɔː	-0.2552725
-0.79588	ŋ h ə	-0.3565474
-0.30103	ɑː h i1ː	-0.1279443
-0.8750613	ɔ1ː h a
